{"learner":{"attributes":{"scikit_learn":"{\"_estimator_type\": \"regressor\"}"},"feature_names":["residual_load","residual_load_normalised","renewable_penetration","wind_solar_combined","thermal_gap","net_import_ratio","de_fr_flow","fr_nuclear_avail","solar_share_of_peak_hours","wind_ramp_rate","solar_ramp_rate","ttf_gas_price","eua_carbon_price","clean_spark_spread","dark_spread","gas_to_coal_switch_price","ttf_7d_change","eua_7d_change","hour_sin","hour_cos","dow_sin","dow_cos","month_sin","month_cos","woy_sin","woy_cos","is_weekend","is_german_holiday","days_since_year_start","season","is_peak_hour","quarter_hour_of_day","hour_of_day","week_of_year","price_lag_24h","price_lag_48h","price_lag_72h","price_lag_168h","price_lag_336h","residual_load_lag_24h","residual_load_lag_168h","wind_lag_24h","price_roll7d_mean","price_roll7d_std","price_roll7d_max","price_roll7d_min","price_roll28d_mean","price_roll28d_std","residual_load_roll7d_mean","renewable_pen_roll7d_mean","price_roll7d_skewness","negative_price_freq_7d","gas_x_residual_load","wind_x_offpeak","solar_x_summer_weekend","residual_load_x_hour","fr_nuclear_x_de_load","renewable_pen_x_weekend","price_regime","regime_probability_0","regime_probability_1","regime_probability_2","regime_probability_3","dunkelflaute_day_index","dunkelflaute_severity","solar_cannibal_risk","post_ukraine_war","post_nuclear_phaseout","years_since_ukraine_war"],"feature_types":["float","float","float","float","float","float","float","float","float","float","float","float","float","float","float","float","float","float","float","float","float","float","float","float","float","float","float","float","float","float","float","float","float","float","float","float","float","float","float","float","float","float","float","float","float","float","float","float","float","float","float","float","float","float","float","float","float","float","int","float","float","float","float","int","int","float","float","float","float"],"gradient_booster":{"model":{"gbtree_model_param":{"num_parallel_tree":"1","num_trees":"200"},"iteration_indptr":[0,1,2,3,4,5,6,7,8,9,10,11,12,13,14,15,16,17,18,19,20,21,22,23,24,25,26,27,28,29,30,31,32,33,34,35,36,37,38,39,40,41,42,43,44,45,46,47,48,49,50,51,52,53,54,55,56,57,58,59,60,61,62,63,64,65,66,67,68,69,70,71,72,73,74,75,76,77,78,79,80,81,82,83,84,85,86,87,88,89,90,91,92,93,94,95,96,97,98,99,100,101,102,103,104,105,106,107,108,109,110,111,112,113,114,115,116,117,118,119,120,121,122,123,124,125,126,127,128,129,130,131,132,133,134,135,136,137,138,139,140,141,142,143,144,145,146,147,148,149,150,151,152,153,154,155,156,157,158,159,160,161,162,163,164,165,166,167,168,169,170,171,172,173,174,175,176,177,178,179,180,181,182,183,184,185,186,187,188,189,190,191,192,193,194,195,196,197,198,199,200],"tree_info":[0,0,0,0,0,0,0,0,0,0,0,0,0,0,0,0,0,0,0,0,0,0,0,0,0,0,0,0,0,0,0,0,0,0,0,0,0,0,0,0,0,0,0,0,0,0,0,0,0,0,0,0,0,0,0,0,0,0,0,0,0,0,0,0,0,0,0,0,0,0,0,0,0,0,0,0,0,0,0,0,0,0,0,0,0,0,0,0,0,0,0,0,0,0,0,0,0,0,0,0,0,0,0,0,0,0,0,0,0,0,0,0,0,0,0,0,0,0,0,0,0,0,0,0,0,0,0,0,0,0,0,0,0,0,0,0,0,0,0,0,0,0,0,0,0,0,0,0,0,0,0,0,0,0,0,0,0,0,0,0,0,0,0,0,0,0,0,0,0,0,0,0,0,0,0,0,0,0,0,0,0,0,0,0,0,0,0,0,0,0,0,0,0,0,0,0,0,0,0,0],"trees":[{"base_weights":[1.10467015E-4,-2.9103065E-1,1.6273713E-1,-5.6291634E-1,-8.0578834E-2,-2.608662E-2,2.1318243E-1,-6.523711E-1,-4.0718618E-1,-1.809318E-1,1.21723436E-1,1.0955677E-1,-2.9922736E-1,-1.9093406E-1,2.1780717E-1,-6.6673875E-1,9.944751E-2,-6.311953E-1,-2.2956336E-1,3.3549953E-2,-3.92708E-1,1.0147952E-2,1.9994654E-1,4.1674368E-2,2.2422437E-1,-5.0146115E-1,-1.633866E-1,-4.466192E-1,7.564576E-2,1.3868135E-1,2.3961686E-1,-3.6605444E-2,-3.0568203E-2,1.0017123E-2,-1.2804878E-2,-3.2295205E-2,5.392157E-3,-5.1405826E-3,-1.7346129E-2,-1.347985E-3,8.975213E-3,-2.369479E-2,-1.2234389E-2,-5.0939666E-3,4.000613E-3,1.1332521E-2,6.6142464E-3,-6.4211213E-3,8.372112E-3,3.5211266E-4,1.1424344E-2,-2.7029982E-2,2.909483E-3,-2.0509351E-2,-5.6233934E-5,-2.6623378E-2,-1.5625E-3,7.5774337E-3,-1.2745097E-2,8.8253245E-3,-6.168332E-3,1.2053799E-2,-2.6760563E-2],"categories":[],"categories_nodes":[],"categories_segments":[],"categories_sizes":[],"default_left":[0,0,0,0,0,0,0,0,0,0,0,0,0,0,0,0,0,0,0,0,0,0,0,0,0,0,0,0,0,0,0,0,0,0,0,0,0,0,0,0,0,0,0,0,0,0,0,0,0,0,0,0,0,0,0,0,0,0,0,0,0,0,0],"id":0,"left_children":[1,3,5,7,9,11,13,15,17,19,21,23,25,27,29,31,33,35,37,39,41,43,45,47,49,51,53,55,57,59,61,-1,-1,-1,-1,-1,-1,-1,-1,-1,-1,-1,-1,-1,-1,-1,-1,-1,-1,-1,-1,-1,-1,-1,-1,-1,-1,-1,-1,-1,-1,-1,-1],"loss_changes":[9.0011926E2,3.8969244E2,1.1622592E2,4.092749E1,7.8038246E1,9.536711E1,1.8046478E1,2.0528381E1,4.299553E1,1.1676824E2,1.1086988E1,1.3330999E1,2.3268188E1,7.5393143E0,1.633078E1,5.95874E0,1.3517973E0,5.3842316E0,8.951881E0,1.1308465E1,1.5294006E1,4.1327424E0,1.2620468E0,2.3182848E1,5.535507E-1,7.6056137E0,2.0489513E1,1.8994961E0,1.3907058E0,2.0464722E1,8.543915E0,0E0,0E0,0E0,0E0,0E0,0E0,0E0,0E0,0E0,0E0,0E0,0E0,0E0,0E0,0E0,0E0,0E0,0E0,0E0,0E0,0E0,0E0,0E0,0E0,0E0,0E0,0E0,0E0,0E0,0E0,0E0,0E0],"parents":[2147483647,0,0,1,1,2,2,3,3,4,4,5,5,6,6,7,7,8,8,9,9,10,10,11,11,12,12,13,13,14,14,15,15,16,16,17,17,18,18,19,19,20,20,21,21,22,22,23,23,24,24,25,25,26,26,27,27,28,28,29,29,30,30],"right_children":[2,4,6,8,10,12,14,16,18,20,22,24,26,28,30,32,34,36,38,40,42,44,46,48,50,52,54,56,58,60,62,-1,-1,-1,-1,-1,-1,-1,-1,-1,-1,-1,-1,-1,-1,-1,-1,-1,-1,-1,-1,-1,-1,-1,-1,-1,-1,-1,-1,-1,-1,-1,-1],"split_conditions":[1.3016652E2,6.012437E3,1.3421481E2,5E-1,0E0,2.7191994E-5,2.3E1,1.112687E2,5.395441E-7,6.869903E-12,9.337169E3,2.5881904E-1,5E-1,6.6243213E3,1.51598E2,5.395441E-7,2.04921E2,1.3421732E2,9.953235E-1,8.7040894E5,1.067709E4,5E-1,2.447334E-17,1.6156383E4,1.1170714E2,1.5864758E2,3.0835303E3,1.1448788E3,1E0,8.9943053E-10,7.465181E-1,-2.0918815E0,-1.1953562E0,1.8767706E0,-1.4488392E0,-1.3483689E0,5.467836E-1,-2.0062895E-1,-5.090275E-1,-5.151062E-2,5.9126896E-1,-9.033932E-1,-4.3089056E-1,-1.8380375E-1,1.6228619E-1,9.207861E-1,4.0387344E-1,-2.4105148E-1,5.268006E-1,3.975544E-2,8.242151E-1,-1.3646103E0,1.8039895E-2,-6.272113E-1,-7.958889E-3,-1.4532782E0,-1.9090271E-1,3.3486328E-1,-6.869387E-1,6.9801295E-1,-3.3816186E-1,2.5537267E0,-9.049207E0],"split_indices":[38,4,34,18,18,60,28,13,61,60,4,18,18,4,38,61,46,13,60,55,4,18,59,4,42,35,4,10,26,59,57,0,0,0,0,0,0,0,0,0,0,0,0,0,0,0,0,0,0,0,0,0,0,0,0,0,0,0,0,0,0,0,0],"split_type":[0,0,0,0,0,0,0,0,0,0,0,0,0,0,0,0,0,0,0,0,0,0,0,0,0,0,0,0,0,0,0,0,0,0,0,0,0,0,0,0,0,0,0,0,0,0,0,0,0,0,0,0,0,0,0,0,0,0,0,0,0,0,0],"sum_hessian":[1.9009E4,6.812E3,1.2197E4,2.971E3,3.841E3,2.571E3,9.626E3,1.884E3,1.087E3,2.568E3,1.273E3,1.718E3,8.53E2,1.08E2,9.518E3,1.849E3,3.5E1,4.79E2,6.08E2,1.276E3,1.292E3,5.26E2,7.47E2,1.081E3,6.37E2,3.41E2,5.12E2,5.5E1,5.3E1,2.06E3,7.458E3,8.4E2,1.009E3,2.8E1,7E0,4.7E2,9E0,2.94E2,3.14E2,9.02E2,3.74E2,8.32E2,4.6E2,2.01E2,3.25E2,5.32E2,2.15E2,4.59E2,6.22E2,1.3E1,6.24E2,3.19E2,2.2E1,2.02E2,3.1E2,4.5E1,1E1,4.4E1,9E0,1.801E3,2.59E2,7.445E3,1.3E1],"tree_param":{"num_deleted":"0","num_feature":"69","num_nodes":"63","size_leaf_vector":"1"}},{"base_weights":[1.9108247E-3,-3.0158857E-1,1.5291007E-1,-5.612309E-1,-8.605869E-2,-4.2724226E-2,2.0833923E-1,-6.726321E-1,-4.4488692E-1,9.079583E-2,-1.9063622E-1,-4.0542498E-1,6.0337726E-2,8.637914E-2,2.2561187E-1,-6.851658E-1,1.2867647E-2,-6.179444E-1,-2.6661393E-1,2.0892379E-1,9.630503E-3,-2.7597647E-2,-4.454084E-1,-5.781846E-1,-2.7790117E-1,-4.2544495E-2,1.6480833E-1,-2.913257E-1,1.2799495E-1,-3.6187845E-1,2.2806072E-1,-3.5157118E-2,-2.7553916E-2,8.910892E-3,-1.890244E-2,-3.1742666E-2,3.021978E-3,-8.042377E-3,-1.9434933E-2,-4.6195653E-3,1.0705951E-2,-6.150207E-3,5.760207E-3,-4.106175E-3,8.174711E-3,-2.338059E-2,8.4437085E-3,-3.139724E-2,8.2848845E-3,-2.3548199E-2,-4.981501E-3,-1.1610504E-2,6.6832984E-3,5.631456E-3,1.142534E-2,-3.927203E-3,-2.201545E-2,8.864845E-3,2.8798258E-4,-2.6378676E-2,5.392157E-3,1.14878975E-2,-2.9120881E-2],"categories":[],"categories_nodes":[],"categories_segments":[],"categories_sizes":[],"default_left":[0,0,0,0,0,0,0,0,0,0,0,0,0,0,0,0,0,0,0,0,0,0,0,0,0,0,0,0,0,0,0,0,0,0,0,0,0,0,0,0,0,0,0,0,0,0,0,0,0,0,0,0,0,0,0,0,0,0,0,0,0,0,0],"id":1,"left_children":[1,3,5,7,9,11,13,15,17,19,21,23,25,27,29,31,33,35,37,39,41,43,45,47,49,51,53,55,57,59,61,-1,-1,-1,-1,-1,-1,-1,-1,-1,-1,-1,-1,-1,-1,-1,-1,-1,-1,-1,-1,-1,-1,-1,-1,-1,-1,-1,-1,-1,-1,-1,-1],"loss_changes":[8.7183154E2,3.535277E2,1.3779791E2,3.6621704E1,6.3939697E1,1.0494131E2,2.0785309E1,1.2665894E1,4.3052948E1,1.2277574E1,9.0142456E1,1.336441E1,2.3513653E1,1.9372856E1,1.2552643E1,2.8062744E0,1.8090316E0,8.301666E0,8.819283E0,8.594532E-1,1.070271E1,1.3822178E1,1.1694702E1,9.899719E0,1.2255299E1,3.68553E1,3.5248604E0,3.7545233E0,6.6618633E0,2.9487E0,1.1985931E1,0E0,0E0,0E0,0E0,0E0,0E0,0E0,0E0,0E0,0E0,0E0,0E0,0E0,0E0,0E0,0E0,0E0,0E0,0E0,0E0,0E0,0E0,0E0,0E0,0E0,0E0,0E0,0E0,0E0,0E0,0E0,0E0],"parents":[2147483647,0,0,1,1,2,2,3,3,4,4,5,5,6,6,7,7,8,8,9,9,10,10,11,11,12,12,13,13,14,14,15,15,16,16,17,17,18,18,19,19,20,20,21,21,22,22,23,23,24,24,25,25,26,26,27,27,28,28,29,29,30,30],"right_children":[2,4,6,8,10,12,14,16,18,20,22,24,26,28,30,32,34,36,38,40,42,44,46,48,50,52,54,56,58,60,62,-1,-1,-1,-1,-1,-1,-1,-1,-1,-1,-1,-1,-1,-1,-1,-1,-1,-1,-1,-1,-1,-1,-1,-1,-1,-1,-1,-1,-1,-1,-1,-1],"split_conditions":[1.274518E2,3.0964465E4,3.5706326E1,9.981831E2,5.6E1,1.1209402E-15,1.26194695E2,7.174731E1,1.2246469E-16,2.447334E-17,1.5422362E-9,5E-1,3.584512E-10,2.450875E-17,9E0,7.76078E1,8.7013153E2,1.112687E2,9.953235E-1,3.5263258E4,5E-1,8.7040894E5,1.0679336E2,1.9285771E2,7.8665784E-5,2.5881904E-1,-2.5881904E-1,5.4163854E-7,4.8E1,1.8840091E2,7.465181E-1,-1.7522248E0,-1.220501E0,1.4375839E0,-5.9279766E0,-1.2075859E0,7.783863E-1,-3.4146824E-1,-5.8471966E-1,-2.4013749E-1,8.098732E-1,-2.090994E-1,2.6719722E-1,-1.7962618E-1,5.1278347E-1,-8.624506E-1,1.9812691E0,-1.5045813E0,2.2144134E0,-7.272663E-1,-1.7971411E-1,-4.5145473E-1,2.9665166E-1,3.2002756E-1,1.0926249E0,-3.0189666E-1,-7.811394E-1,6.187672E-1,2.1614076E-3,-1.5887979E0,4.4010067E-1,1.9318714E0,-8.691048E0],"split_indices":[38,0,14,4,31,62,42,14,18,59,60,18,62,62,28,13,6,13,60,0,18,55,13,42,61,18,18,59,31,10,57,0,0,0,0,0,0,0,0,0,0,0,0,0,0,0,0,0,0,0,0,0,0,0,0,0,0,0,0,0,0,0,0],"split_type":[0,0,0,0,0,0,0,0,0,0,0,0,0,0,0,0,0,0,0,0,0,0,0,0,0,0,0,0,0,0,0,0,0,0,0,0,0,0,0,0,0,0,0,0,0,0,0,0,0,0,0,0,0,0,0,0,0,0,0,0,0,0,0],"sum_hessian":[1.9022E4,6.319E3,1.2703E4,2.865E3,3.454E3,2.804E3,9.899E3,1.46E3,1.405E3,1.283E3,2.171E3,6.2E2,2.184E3,1.23E3,8.669E3,1.434E3,2.6E1,7.11E2,6.94E2,5.21E2,7.62E2,1.325E3,8.46E2,2.61E2,3.59E2,1.1E3,1.084E3,1.21E2,1.109E3,3.5E1,8.634E3,1.259E3,1.75E2,1.9E1,7E0,6.94E2,1.7E1,3.74E2,3.2E2,8E0,5.13E2,3.37E2,4.25E2,1.032E3,2.93E2,8.17E2,2.9E1,2.45E2,1.6E1,1.71E2,1.88E2,5.3E2,5.7E2,5.99E2,4.85E2,5.1E1,7E1,7.89E2,3.2E2,2.6E1,9E0,8.617E3,1.7E1],"tree_param":{"num_deleted":"0","num_feature":"69","num_nodes":"63","size_leaf_vector":"1"}},{"base_weights":[4.942477E-3,-2.5167754E-1,1.6960257E-1,-5.0810075E-1,-2.3989707E-2,5.978967E-2,2.2695933E-1,-6.0726E-1,-3.3039108E-1,1.3702604E-1,-1.2014739E-1,-2.1255039E-1,1.3800141E-1,-4.1727942E-1,2.2923927E-1,-6.855071E-1,-5.208681E-1,-5.0429213E-1,-6.9696374E-2,2.1752977E-1,6.0233843E-2,4.739612E-2,-3.602135E-1,-1.4982148E-1,-4.8495787E-1,4.729388E-2,1.9369744E-1,-3.15407E-2,-1.5625E-3,2.3077883E-1,-3.028169E-2,-3.4823585E-2,-2.004717E-3,-1.8514473E-2,-2.9854879E-2,-3.154317E-2,-2.1122362E-2,-1.2241973E-2,-1.644112E-3,1.1441278E-2,6.575964E-3,-5.950737E-3,6.5893247E-3,-3.013287E-3,6.464792E-3,-1.3156294E-2,-2.4189401E-2,-1.3029828E-2,-1.3464862E-3,-2.6642576E-2,1.1513158E-3,7.934707E-3,-1.2202925E-2,1.1324036E-2,5.938665E-3,7.902476E-3,1.2398915E-2],"categories":[],"categories_nodes":[],"categories_segments":[],"categories_sizes":[],"default_left":[0,0,0,0,0,0,0,0,0,0,0,0,0,0,0,0,0,0,0,0,0,0,0,0,0,0,0,0,0,0,0,0,0,0,0,0,0,0,0,0,0,0,0,0,0,0,0,0,0,0,0,0,0,0,0,0,0],"id":2,"left_children":[1,3,5,7,9,11,13,15,17,19,21,23,25,27,29,31,33,35,37,39,41,43,45,47,49,51,53,-1,-1,55,-1,-1,-1,-1,-1,-1,-1,-1,-1,-1,-1,-1,-1,-1,-1,-1,-1,-1,-1,-1,-1,-1,-1,-1,-1,-1,-1],"loss_changes":[8.088096E2,4.3669128E2,7.33826E1,6.1614807E1,6.1394543E1,8.529294E1,1.1335144E1,1.4642334E1,5.7138992E1,9.1056595E0,9.994548E1,1.5080437E1,1.5670799E1,2.1191478E0,9.921387E0,8.200806E0,1.1965698E1,7.3661957E0,3.2189748E0,6.1149216E-1,9.7836685E0,1.2921436E1,1.1987106E1,9.861687E0,4.134712E0,3.853384E1,4.6471786E0,0E0,0E0,9.422974E0,0E0,0E0,0E0,0E0,0E0,0E0,0E0,0E0,0E0,0E0,0E0,0E0,0E0,0E0,0E0,0E0,0E0,0E0,0E0,0E0,0E0,0E0,0E0,0E0,0E0,0E0,0E0],"parents":[2147483647,0,0,1,1,2,2,3,3,4,4,5,5,6,6,7,7,8,8,9,9,10,10,11,11,12,12,13,13,14,14,15,15,16,16,17,17,18,18,19,19,20,20,21,21,22,22,23,23,24,24,25,25,26,26,29,29],"right_children":[2,4,6,8,10,12,14,16,18,20,22,24,26,28,30,32,34,36,38,40,42,44,46,48,50,52,54,-1,-1,56,-1,-1,-1,-1,-1,-1,-1,-1,-1,-1,-1,-1,-1,-1,-1,-1,-1,-1,-1,-1,-1,-1,-1,-1,-1,-1,-1],"split_conditions":[1.3352899E2,3.2360436E4,1.5226653E2,5E-1,5.6E1,3.2666736E4,5E0,1.5501963E-4,2.79837E4,3.0876386E-18,6.869903E-12,4.4662946E-1,-2.5881904E-1,2.8915127E4,7.6910156E-1,1.6451794E2,5.6E1,5.8217803E-10,8.448938E4,3.3016226E3,2.5881904E-1,4.282904E4,3.303689E-7,1.3355984E2,2.0494814E2,1.1980603E-23,5.030007E-10,-1.8266354E0,-3.8306496E-1,2.0098006E2,-8.512464E0,-1.7289956E0,-3.6414653E-1,-5.9042186E-1,-1.1624144E0,-1.2921709E0,-6.135163E-1,-5.291638E-1,-9.386072E-2,9.368286E-1,4.227402E-1,-1.7207013E-1,3.423856E-1,-1.1856689E-1,4.2618638E-1,-4.7845575E-1,-8.030619E-1,-5.321371E-1,-9.389754E-2,-1.0786984E0,-1.0538616E-1,4.824005E-1,-4.1622123E-1,9.9550736E-1,3.258612E-1,6.878914E-1,3.1901128E0],"split_indices":[34,0,36,18,31,0,28,61,0,59,60,57,18,0,57,35,31,61,55,9,18,0,60,35,44,59,60,0,0,44,0,0,0,0,0,0,0,0,0,0,0,0,0,0,0,0,0,0,0,0,0,0,0,0,0,0,0],"split_type":[0,0,0,0,0,0,0,0,0,0,0,0,0,0,0,0,0,0,0,0,0,0,0,0,0,0,0,0,0,0,0,0,0,0,0,0,0,0,0,0,0,0,0,0,0,0,0,0,0,0,0,0,0,0,0,0,0],"sum_hessian":[1.9139E4,7.48E3,1.1659E4,3.517E3,3.963E3,4.002E3,7.657E3,2.255E3,1.262E3,1.481E3,2.482E3,8.92E2,3.11E3,2.6E1,7.631E3,1.178E3,1.077E3,7.56E2,5.06E2,7.21E2,7.6E2,1.462E3,1.02E3,7.27E2,1.65E2,1.185E3,1.925E3,1.6E1,1E1,7.618E3,1.3E1,1.158E3,2E1,3.65E2,7.12E2,2.93E2,4.63E2,8.6E1,4.2E2,6.34E2,8.7E1,2.16E2,5.44E2,6.31E2,8.31E2,5.74E2,4.46E2,3.81E2,3.46E2,1.51E2,1.4E1,8.58E2,3.27E2,1.336E3,5.89E2,1.461E3,6.157E3],"tree_param":{"num_deleted":"0","num_feature":"69","num_nodes":"57","size_leaf_vector":"1"}},{"base_weights":[6.524877E-3,-3.0899704E-1,1.5179794E-1,-5.197991E-1,-8.1394136E-2,8.520697E-4,2.1042708E-1,-5.673278E-1,-2.2222222E-1,5.317372E-2,-1.856518E-1,1.0791686E-1,-2.643854E-1,9.722025E-2,2.3045196E-1,-6.61318E-1,-4.548316E-1,-5.5758154E-1,-1.1415037E-1,-1.7431973E-2,1.8692555E-1,-3.4036967E-1,3.3620946E-2,2.0188956E-1,3.962239E-2,-4.979356E-1,-1.935544E-1,1.6077642E-1,-1.20144114E-1,-3.4472048E-1,2.3277408E-1,-3.3515584E-2,-5.654762E-3,-2.8336823E-2,-1.3374619E-2,-3.6255922E-2,-2.163766E-2,3.9090104E-3,-1.0769052E-2,-6.608706E-3,4.82212E-3,1.01058595E-2,-9.933774E-4,-1.9935703E-2,-7.7324063E-3,-6.498195E-3,4.3720426E-3,1.0744496E-2,4.1288566E-3,6.075911E-3,-1.1922852E-2,-2.740605E-2,-1.6865078E-3,-1.9736016E-2,-3.082753E-3,5.582161E-3,1.1859125E-2,-8.213534E-3,1.1860795E-2,-3.3950617E-3,-2.863372E-2,1.1725412E-2,-2.6373625E-2],"categories":[],"categories_nodes":[],"categories_segments":[],"categories_sizes":[],"default_left":[0,0,0,0,0,0,0,0,0,0,0,0,0,0,0,0,0,0,0,0,0,0,0,0,0,0,0,0,0,0,0,0,0,0,0,0,0,0,0,0,0,0,0,0,0,0,0,0,0,0,0,0,0,0,0,0,0,0,0,0,0,0,0],"id":3,"left_children":[1,3,5,7,9,11,13,15,17,19,21,23,25,27,29,31,33,35,37,39,41,43,45,47,49,51,53,55,57,59,61,-1,-1,-1,-1,-1,-1,-1,-1,-1,-1,-1,-1,-1,-1,-1,-1,-1,-1,-1,-1,-1,-1,-1,-1,-1,-1,-1,-1,-1,-1,-1,-1],"loss_changes":[8.700708E2,2.86976E2,1.1499991E2,4.3662598E1,4.0426117E1,1.03326904E2,2.1145355E1,2.7779114E1,1.5414564E1,1.1901878E1,5.5127476E1,1.6596859E1,1.7087479E1,1.951097E1,1.0700623E1,6.9663696E0,2.5336304E1,1.628933E0,6.4112897E0,1.0776745E1,1.3993492E0,1.0160851E1,5.9253883E0,1.6250954E0,3.42732E1,5.532913E0,2.1267233E1,4.0161E0,5.0693073E0,1.8891368E0,1.05477295E1,0E0,0E0,0E0,0E0,0E0,0E0,0E0,0E0,0E0,0E0,0E0,0E0,0E0,0E0,0E0,0E0,0E0,0E0,0E0,0E0,0E0,0E0,0E0,0E0,0E0,0E0,0E0,0E0,0E0,0E0,0E0,0E0],"parents":[2147483647,0,0,1,1,2,2,3,3,4,4,5,5,6,6,7,7,8,8,9,9,10,10,11,11,12,12,13,13,14,14,15,15,16,16,17,17,18,18,19,19,20,20,21,21,22,22,23,23,24,24,25,25,26,26,27,27,28,28,29,29,30,30],"right_children":[2,4,6,8,10,12,14,16,18,20,22,24,26,28,30,32,34,36,38,40,42,44,46,48,50,52,54,56,58,60,62,-1,-1,-1,-1,-1,-1,-1,-1,-1,-1,-1,-1,-1,-1,-1,-1,-1,-1,-1,-1,-1,-1,-1,-1,-1,-1,-1,-1,-1,-1,-1,-1],"split_conditions":[1.2620366E2,1.2741762E-14,4.216164E1,8.660254E-1,6.869903E-12,4.5520857E-12,1.4481123E2,2.6609637E4,2.3284258E4,-5E-1,0E0,4.8E1,1.2246469E-16,2.2865808E-13,9E0,6.27329E1,0E0,2.0466424E4,9.7323257E-1,4.282904E4,1.5943333E-20,7.248342E5,2.5881904E-1,4.4652375E-6,6.869903E-12,1.9035187E2,2.7867342E4,5E-1,2.2262254E2,4.5987905E-10,7.465181E-1,-1.6044499E0,-1.1999799E0,-1.097517E0,-4.9657938E-1,-1.4853144E0,-7.3251194E-1,1.2652855E-1,-3.5244313E-1,-2.483962E-1,2.4314128E-1,6.24869E-1,-4.095459E-2,-6.904139E-1,-2.5105095E-1,-2.6811582E-1,1.900095E-1,7.7867126E-1,1.0633621E-1,3.3447257E-1,-3.6803398E-1,-1.0930094E0,-6.682127E-1,-6.95957E-1,-1.1786995E-1,3.0525285E-1,8.460695E-1,-3.2546195E-1,1.7299477E0,-4.2864037E-1,-1.4721602E0,2.0899167E0,-8.202716E0],"split_indices":[37,62,14,18,60,59,37,0,0,18,18,31,18,59,28,14,18,0,60,0,59,55,18,60,60,42,0,18,44,59,57,0,0,0,0,0,0,0,0,0,0,0,0,0,0,0,0,0,0,0,0,0,0,0,0,0,0,0,0,0,0,0,0],"split_type":[0,0,0,0,0,0,0,0,0,0,0,0,0,0,0,0,0,0,0,0,0,0,0,0,0,0,0,0,0,0,0,0,0,0,0,0,0,0,0,0,0,0,0,0,0,0,0,0,0,0,0,0,0,0,0,0,0,0,0,0,0,0,0],"sum_hessian":[1.898E4,5.983E3,1.2997E4,3.105E3,2.878E3,3.637E3,9.36E3,2.676E3,4.29E2,1.256E3,1.622E3,2.592E3,1.045E3,1.409E3,7.951E3,1.454E3,1.222E3,1.03E2,3.26E2,8.22E2,4.34E2,9.51E2,6.71E2,1.089E3,1.503E3,2.41E2,8.04E2,1.091E3,3.18E2,3.1E1,7.92E3,1.43E3,2.4E1,7.63E2,4.59E2,4.1E1,6.2E1,1.12E2,2.14E2,4.1E2,4.12E2,4.05E2,2.9E1,7.22E2,2.29E2,1.65E2,5.06E2,9.8E2,1.09E2,1.162E3,3.41E2,2.17E2,2.4E1,3.17E2,4.87E2,6.67E2,4.24E2,2.84E2,3.4E1,1.5E1,1.6E1,7.903E3,1.7E1],"tree_param":{"num_deleted":"0","num_feature":"69","num_nodes":"63","size_leaf_vector":"1"}},{"base_weights":[6.9000954E-3,-2.9677162E-1,1.4987431E-1,-5.051666E-1,-7.525665E-2,-7.2635333E-3,2.0617498E-1,-6.1578655E-1,-3.8768637E-1,1.0766206E-1,-1.4758384E-1,1.1560707E-1,-2.1792737E-1,1.3264023E-1,2.4012896E-1,-6.428106E-1,-4.546796E-1,-1.8904279E-1,-5.6771094E-1,1.706787E-1,-4.7894303E-2,-3.5339704E-1,-2.9328989E-2,1.875E-1,4.3713074E-2,-1.4539728E-1,-4.7304097E-1,-5.1754606E-3,1.8161224E-1,-3.765432E-1,2.4164134E-1,-3.44172E-2,-2.8483836E-2,-2.4764374E-2,-4.961832E-3,-1.3860582E-2,-1.8294947E-3,-2.8745908E-2,9.756098E-3,5.79889E-3,1.1691498E-2,-5.8505853E-4,-2.0872643E-2,-2.1957535E-2,-1.3341471E-2,-5.1552174E-3,4.7203493E-3,6.810053E-3,1.1821741E-2,7.0408457E-3,-6.650182E-3,-1.6385213E-2,3.1980995E-5,3.8732395E-3,-2.5047136E-2,-3.4197352E-3,1.0935706E-2,6.649879E-3,1.1314972E-2,-4.6195653E-3,-3.1097561E-2,1.2142869E-2,-2.090164E-2],"categories":[],"categories_nodes":[],"categories_segments":[],"categories_sizes":[],"default_left":[0,0,0,0,0,0,0,0,0,0,0,0,0,0,0,0,0,0,0,0,0,0,0,0,0,0,0,0,0,0,0,0,0,0,0,0,0,0,0,0,0,0,0,0,0,0,0,0,0,0,0,0,0,0,0,0,0,0,0,0,0,0,0],"id":4,"left_children":[1,3,5,7,9,11,13,15,17,19,21,23,25,27,29,31,33,35,37,39,41,43,45,47,49,51,53,55,57,59,61,-1,-1,-1,-1,-1,-1,-1,-1,-1,-1,-1,-1,-1,-1,-1,-1,-1,-1,-1,-1,-1,-1,-1,-1,-1,-1,-1,-1,-1,-1,-1,-1],"loss_changes":[8.2809326E2,2.8169928E2,1.14760864E2,4.043695E1,3.920172E1,8.860127E1,2.3745758E1,6.5255127E0,5.4442963E1,8.254603E0,5.1605465E1,1.1126013E1,2.3161198E1,2.0411255E1,6.1783752E0,3.9401245E0,3.2755318E0,9.742365E0,4.596527E0,1.9814243E0,3.1693065E0,5.5007553E0,1.2338509E1,2.6145782E0,1.861122E1,2.6252207E1,4.383251E0,1.1208304E1,4.752823E0,9.535706E-1,5.321106E0,0E0,0E0,0E0,0E0,0E0,0E0,0E0,0E0,0E0,0E0,0E0,0E0,0E0,0E0,0E0,0E0,0E0,0E0,0E0,0E0,0E0,0E0,0E0,0E0,0E0,0E0,0E0,0E0,0E0,0E0,0E0,0E0],"parents":[2147483647,0,0,1,1,2,2,3,3,4,4,5,5,6,6,7,7,8,8,9,9,10,10,11,11,12,12,13,13,14,14,15,15,16,16,17,17,18,18,19,19,20,20,21,21,22,22,23,23,24,24,25,25,26,26,27,27,28,28,29,29,30,30],"right_children":[2,4,6,8,10,12,14,16,18,20,22,24,26,28,30,32,34,36,38,40,42,44,46,48,50,52,54,56,58,60,62,-1,-1,-1,-1,-1,-1,-1,-1,-1,-1,-1,-1,-1,-1,-1,-1,-1,-1,-1,-1,-1,-1,-1,-1,-1,-1,-1,-1,-1,-1,-1,-1],"split_conditions":[1.2620366E2,9.0056424E-15,4.0459835E1,1.2652002E3,4.8E1,1.0080947E-14,1.6109134E2,1.2959697E2,5.2E1,4.416672E-13,3.66629E4,6E1,5.2E1,3.5662266E4,3E0,1.6166338E-9,2.0494814E2,2.2099112E-1,1.3147365E2,1.2242531E4,9.659258E-1,9.9999446E-1,4.282904E4,3.963827E4,2.5067416E-25,2.9623781E4,1.8424023E4,1.9035187E2,4.3227264E-8,1.3872281E2,7.465181E-1,-1.7760681E0,-1.0848925E0,-9.8813784E-1,-8.448969E-1,-4.7033626E-1,-4.961605E-2,-1.0492992E0,3.3528917E0,3.1059495E-1,7.8489536E-1,-6.872406E-2,-3.4296772E-1,-7.913475E-1,-4.8630497E-1,-1.8367787E-1,2.726429E-1,3.648842E-1,1.0006926E0,3.622841E-1,-2.7866822E-1,-5.820904E-1,1.9288063E-3,1.2222127E0,-8.602902E-1,-1.4627762E-1,1.9540001E0,4.142128E-1,1.0280379E0,-1.3302307E0,-6.7686385E-1,2.6589158E0,-8.29587E0],"split_indices":[37,62,14,4,31,59,35,34,31,59,0,31,31,0,28,61,44,61,13,4,19,61,0,0,59,0,39,42,62,13,57,0,0,0,0,0,0,0,0,0,0,0,0,0,0,0,0,0,0,0,0,0,0,0,0,0,0,0,0,0,0,0,0],"split_type":[0,0,0,0,0,0,0,0,0,0,0,0,0,0,0,0,0,0,0,0,0,0,0,0,0,0,0,0,0,0,0,0,0,0,0,0,0,0,0,0,0,0,0,0,0,0,0,0,0,0,0,0,0,0,0,0,0,0,0,0,0,0,0],"sum_hessian":[1.9071E4,6.104E3,1.2967E4,3.144E3,2.96E3,3.42E3,9.547E3,1.616E3,1.528E3,8.38E2,2.122E3,2.16E3,1.26E3,3.019E3,6.528E3,1.38E3,2.36E2,7.28E2,8E2,5.97E2,2.41E2,7.73E2,1.349E3,1.078E3,1.082E3,9.83E2,2.77E2,7.91E2,2.228E3,1.5E1,6.513E3,8.43E2,5.37E2,2.11E2,2.5E1,4.6E2,2.68E2,7.93E2,7E0,3.23E2,2.74E2,2.21E2,2E1,3.85E2,3.88E2,8.46E2,5.03E2,5.3E2,5.48E2,6.99E2,3.83E2,4.37E2,5.46E2,1.3E1,2.64E2,6.18E2,1.73E2,1.071E3,1.157E3,8E0,7E0,6.502E3,1.1E1],"tree_param":{"num_deleted":"0","num_feature":"69","num_nodes":"63","size_leaf_vector":"1"}},{"base_weights":[9.101808E-3,-2.3513828E-1,1.6460004E-1,-4.835474E-1,-5.2902184E-2,2.983461E-2,2.2079949E-1,-5.790605E-1,-3.243714E-1,9.172597E-2,-1.4474389E-1,1.2471665E-1,-1.8713984E-1,2.4593602E-1,1.609699E-1,-5.92288E-1,6.467662E-2,-5.671373E-1,-2.164097E-1,1.6519235E-1,-1.2150757E-2,-3.12388E-1,3.1470727E-2,5.037171E-2,1.8295608E-1,-3.807132E-1,-6.690469E-2,2.4835801E-1,-3.117284E-2,1.8675074E-1,-1.6148724E-1,-3.444956E-2,-2.632073E-2,8.810241E-3,-1.890244E-2,-3.3985373E-2,-2.3842594E-2,-3.7855692E-3,-1.4750573E-2,5.223177E-3,1.11447E-2,-7.737445E-3,1.9645686E-3,-1.8601704E-2,-4.9712057E-3,-9.542212E-3,3.2672507E-3,5.365606E-3,-1.2819733E-2,1.1519941E-2,6.193581E-3,-2.1946141E-2,8.09949E-3,-1.5687086E-2,1.4648859E-3,1.9083968E-4,1.2469897E-2,1.1365487E-2,5.476771E-3,-1.1359127E-2,8.4437085E-3],"categories":[],"categories_nodes":[],"categories_segments":[],"categories_sizes":[],"default_left":[0,0,0,0,0,0,0,0,0,0,0,0,0,0,0,0,0,0,0,0,0,0,0,0,0,0,0,0,0,0,0,0,0,0,0,0,0,0,0,0,0,0,0,0,0,0,0,0,0,0,0,0,0,0,0,0,0,0,0,0,0],"id":5,"left_children":[1,3,5,7,9,11,13,15,17,19,21,23,25,27,29,31,33,35,37,39,41,43,45,47,49,51,53,55,-1,57,59,-1,-1,-1,-1,-1,-1,-1,-1,-1,-1,-1,-1,-1,-1,-1,-1,-1,-1,-1,-1,-1,-1,-1,-1,-1,-1,-1,-1,-1,-1],"loss_changes":[7.2232623E2,3.3479874E2,8.797049E1,4.72287E1,5.673123E1,7.0471405E1,1.2223816E1,1.6765198E1,3.0588913E1,1.267983E1,7.7221825E1,1.026841E1,2.4135513E1,1.2279633E1,2.0251072E1,1.1582642E1,2.03459E0,3.1086197E0,8.955116E0,3.3296947E0,5.065606E0,1.6896027E1,9.591836E0,1.8337452E1,3.652546E0,1.2706203E1,1.5351075E1,1.4244385E0,0E0,6.9729767E0,3.9657001E0,0E0,0E0,0E0,0E0,0E0,0E0,0E0,0E0,0E0,0E0,0E0,0E0,0E0,0E0,0E0,0E0,0E0,0E0,0E0,0E0,0E0,0E0,0E0,0E0,0E0,0E0,0E0,0E0,0E0,0E0],"parents":[2147483647,0,0,1,1,2,2,3,3,4,4,5,5,6,6,7,7,8,8,9,9,10,10,11,11,12,12,13,13,14,14,15,15,16,16,17,17,18,18,19,19,20,20,21,21,22,22,23,23,24,24,25,25,26,26,27,27,29,29,30,30],"right_children":[2,4,6,8,10,12,14,16,18,20,22,24,26,28,30,32,34,36,38,40,42,44,46,48,50,52,54,56,-1,58,60,-1,-1,-1,-1,-1,-1,-1,-1,-1,-1,-1,-1,-1,-1,-1,-1,-1,-1,-1,-1,-1,-1,-1,-1,-1,-1,-1,-1,-1,-1],"split_conditions":[1.3284361E2,3.0964465E4,1.4578273E2,5E-1,5.6E1,1.1448493E-13,8.436003E-1,1.112687E2,4.2234E-9,1.0080947E-14,3.913239E4,-2.5881904E-1,5E-1,7.465181E-1,1.08870045E-10,7.24301E-8,2.0733577E2,1.0967639E-13,9.8994166E-1,5E-1,2.5881904E-1,7.3884956E5,-6.6978E3,3.99101E-12,7.333843E-13,1.9035187E2,2.7604791E4,7E0,-7.5951476E0,1.4415434E-24,1.9326459E2,-1.7078689E0,-9.4769335E-1,1.848725E0,-9.7305983E-1,-1.4998623E0,-7.5760406E-1,-1.5092316E-1,-4.9593678E-1,3.1901017E-1,7.735035E-1,-2.6770553E-1,5.58074E-2,-6.8738985E-1,-1.8013696E-1,-3.7487337E-1,1.4108697E-1,2.9383355E-1,-4.1288948E-1,1.0062479E0,3.5871792E-1,-9.0419924E-1,1.4338167E0,-5.003034E-1,5.4023743E-2,5.3435326E-2,2.9426754E0,1.042255E0,2.9637527E-1,-3.8440266E-1,1.5852016E0],"split_indices":[38,0,34,18,31,59,68,13,61,59,0,18,18,57,59,61,46,61,60,18,18,55,10,60,60,42,0,33,0,59,42,0,0,0,0,0,0,0,0,0,0,0,0,0,0,0,0,0,0,0,0,0,0,0,0,0,0,0,0,0,0],"split_type":[0,0,0,0,0,0,0,0,0,0,0,0,0,0,0,0,0,0,0,0,0,0,0,0,0,0,0,0,0,0,0,0,0,0,0,0,0,0,0,0,0,0,0,0,0,0,0,0,0,0,0,0,0,0,0,0,0,0,0,0,0],"sum_hessian":[1.9017E4,7.397E3,1.162E4,3.129E3,4.268E3,3.421E3,8.199E3,1.953E3,1.176E3,1.657E3,2.611E3,2.381E3,1.04E3,5.769E3,2.43E3,1.914E3,3.9E1,3.6E2,8.16E2,9.71E2,6.86E2,1.338E3,1.273E3,1.048E3,1.333E3,3.97E2,6.43E2,5.754E3,1.5E1,2.251E3,1.79E2,7.7E2,1.144E3,3.2E1,7E0,1.56E2,2.04E2,2.94E2,5.22E2,4.76E2,4.95E2,1.82E2,5.04E2,1.044E3,2.94E2,1.67E2,1.106E3,8.85E2,1.63E2,7.36E2,5.97E2,3.59E2,3.8E1,1.8E2,4.63E2,2.5E1,5.729E3,1.473E3,7.78E2,1.5E2,2.9E1],"tree_param":{"num_deleted":"0","num_feature":"69","num_nodes":"61","size_leaf_vector":"1"}},{"base_weights":[1.2087757E-2,-2.3947576E-1,1.6923998E-1,-4.7164476E-1,-6.420433E-2,7.884138E-2,2.3391396E-1,-3.4938225E-1,-5.9146726E-1,9.782146E-2,-1.4615026E-1,-1.0601357E-1,1.5135044E-1,-3.2352943E-2,2.3520534E-1,-5.762254E-1,-2.3722939E-1,-6.4430463E-1,-4.9101043E-1,-4.8634107E-3,1.5136972E-1,1.6140552E-2,-3.0982566E-1,-1.4854279E-1,1.4733936E-1,2.0174907E-1,8.7030604E-2,-3.231132E-1,2.3691715E-1,-3.4065273E-2,-2.3847714E-2,-6.097131E-3,-1.5722347E-2,-3.2783344E-2,-6.4049587E-3,-1.381287E-2,-2.7901469E-2,-6.4814813E-3,1.8878401E-3,1.1135182E-2,5.4191E-3,-2.0365445E-3,8.29881E-3,-1.7769359E-2,-7.3811854E-3,-2.1320483E-2,-3.8719382E-3,1.1184989E-2,-1.3381409E-2,7.8883795E-3,1.1585054E-2,8.92024E-3,-1.9125267E-3,4.9019605E-4,-2.9098362E-2,8.670392E-3,1.2393174E-2],"categories":[],"categories_nodes":[],"categories_segments":[],"categories_sizes":[],"default_left":[0,0,0,0,0,0,0,0,0,0,0,0,0,0,0,0,0,0,0,0,0,0,0,0,0,0,0,0,0,0,0,0,0,0,0,0,0,0,0,0,0,0,0,0,0,0,0,0,0,0,0,0,0,0,0,0,0],"id":6,"left_children":[1,3,5,7,9,11,13,15,17,19,21,23,25,-1,27,29,31,33,35,37,39,41,43,45,47,49,51,53,55,-1,-1,-1,-1,-1,-1,-1,-1,-1,-1,-1,-1,-1,-1,-1,-1,-1,-1,-1,-1,-1,-1,-1,-1,-1,-1,-1,-1],"loss_changes":[7.5668274E2,2.993482E2,6.880902E1,4.598047E1,5.5725563E1,6.592111E1,7.9322815E0,3.966156E1,7.9224854E0,7.7714796E0,7.40865E1,1.49518385E1,1.1385712E1,0E0,6.63266E0,4.841873E0,9.264275E0,5.888489E0,7.694977E0,2.5891006E0,2.764614E0,1.1958518E1,1.0120621E1,2.334084E1,6.3773217E0,2.5036545E0,1.7832306E1,1.919622E0,4.6384277E0,0E0,0E0,0E0,0E0,0E0,0E0,0E0,0E0,0E0,0E0,0E0,0E0,0E0,0E0,0E0,0E0,0E0,0E0,0E0,0E0,0E0,0E0,0E0,0E0,0E0,0E0,0E0,0E0],"parents":[2147483647,0,0,1,1,2,2,3,3,4,4,5,5,6,6,7,7,8,8,9,9,10,10,11,11,12,12,14,14,15,15,16,16,17,17,18,18,19,19,20,20,21,21,22,22,23,23,24,24,25,25,26,26,27,27,28,28],"right_children":[2,4,6,8,10,12,14,16,18,20,22,24,26,-1,28,30,32,34,36,38,40,42,44,46,48,50,52,54,56,-1,-1,-1,-1,-1,-1,-1,-1,-1,-1,-1,-1,-1,-1,-1,-1,-1,-1,-1,-1,-1,-1,-1,-1,-1,-1,-1,-1],"split_conditions":[1.3261035E2,3.0964465E4,1.6036009E2,4.4E1,5.2E1,3.48132E4,1E0,4.2234E-9,1.1901257E-3,3.384738E4,6.869903E-12,1.9035187E2,5.6E1,-7.5782104E0,1.5E1,1.0967639E-13,9.953235E-1,9.672952E1,3.8756784E5,1.2E1,1.3309858E-12,8.831775E5,7.248342E5,2.79837E4,8.436003E-1,3.963827E4,8.4665167E-19,1.18649086E2,1.4641293E2,-1.5131596E0,-8.201699E-1,-2.6495257E-1,-4.7433576E-1,-1.4766985E0,-6.5637857E-1,-4.8400566E-1,-9.7976667E-1,-1.888092E-1,5.908394E-2,8.796703E-1,2.5680754E-1,-7.6985076E-2,5.4491043E-1,-6.3793373E-1,-2.3887491E-1,-7.72071E-1,-1.7893715E-1,1.6067785E0,-9.909007E-1,4.5035574E-1,1.056403E0,6.3715786E-1,-7.16629E-2,2.5207138E-2,-1.1763576E0,6.9120616E-1,2.7646277E0],"split_indices":[37,0,34,31,31,0,58,61,61,0,60,42,31,0,28,61,60,13,55,31,60,55,55,0,68,0,60,13,42,0,0,0,0,0,0,0,0,0,0,0,0,0,0,0,0,0,0,0,0,0,0,0,0,0,0,0,0],"split_type":[0,0,0,0,0,0,0,0,0,0,0,0,0,0,0,0,0,0,0,0,0,0,0,0,0,0,0,0,0,0,0,0,0,0,0,0,0,0,0,0,0,0,0,0,0,0,0,0,0,0,0,0,0,0,0,0,0],"sum_hessian":[1.9138E4,7.358E3,1.178E4,3.164E3,4.194E3,4.915E3,6.865E3,1.569E3,1.595E3,1.408E3,2.786E3,1.384E3,3.531E3,9E0,6.856E3,5.17E2,1.052E3,1.04E3,5.55E2,4.82E2,9.26E2,1.399E3,1.387E3,1.186E3,1.98E2,1.977E3,1.554E3,2E1,6.836E3,2.47E2,2.7E2,4.24E2,6.28E2,1.017E3,2.3E1,1.34E2,4.21E2,1.23E2,3.59E2,3.45E2,5.81E2,1.014E3,3.85E2,1.081E3,3.06E2,2.4E2,9.46E2,1.68E2,3E1,8.06E2,1.171E3,8.99E2,6.55E2,9E0,1.1E1,1.01E3,5.826E3],"tree_param":{"num_deleted":"0","num_feature":"69","num_nodes":"57","size_leaf_vector":"1"}},{"base_weights":[1.6844347E-2,-2.243241E-1,1.6628736E-1,-4.8050052E-1,-7.1526155E-2,5.8269296E-2,2.2429372E-1,-5.7684606E-1,-3.1749654E-1,5.0646752E-2,-1.814074E-1,-1.9770631E-1,1.2079934E-1,-2.2274436E-1,2.2742742E-1,-5.8852476E-1,2.560241E-2,-1.9253536E-1,-5.056082E-1,-5.592436E-2,1.4236291E-1,-3.2544878E-1,8.331719E-3,-2.493355E-1,8.003169E-2,4.1987617E-2,1.7383549E-1,6.61157E-2,-4.5033112E-1,2.4851993E-1,1.6186523E-1,-3.5075393E-2,-2.6703238E-2,9.375E-3,-1.4955357E-2,-1.2730752E-2,-1.1652543E-3,-2.9132618E-2,-1.721096E-2,-8.204944E-3,4.0999544E-3,3.7745715E-3,9.448617E-3,-2.0341093E-2,-1.1329391E-2,-6.26266E-3,3.1097396E-3,-2.2478893E-2,-7.829966E-3,1.1509563E-2,-6.088561E-3,-5.9436513E-3,7.268954E-3,2.9915115E-3,9.9831065E-3,-9.375E-3,8.516484E-3,-2.8771553E-2,-6.097561E-4,8.45987E-3,1.2487096E-2,9.206248E-3,-7.6104747E-3],"categories":[],"categories_nodes":[],"categories_segments":[],"categories_sizes":[],"default_left":[0,0,0,0,0,0,0,0,0,0,0,0,0,0,0,0,0,0,0,0,0,0,0,0,0,0,0,0,0,0,0,0,0,0,0,0,0,0,0,0,0,0,0,0,0,0,0,0,0,0,0,0,0,0,0,0,0,0,0,0,0,0,0],"id":7,"left_children":[1,3,5,7,9,11,13,15,17,19,21,23,25,27,29,31,33,35,37,39,41,43,45,47,49,51,53,55,57,59,61,-1,-1,-1,-1,-1,-1,-1,-1,-1,-1,-1,-1,-1,-1,-1,-1,-1,-1,-1,-1,-1,-1,-1,-1,-1,-1,-1,-1,-1,-1,-1,-1],"loss_changes":[6.822622E2,2.8335907E2,7.317706E1,4.2130432E1,6.095377E1,6.5421524E1,1.0712738E1,1.2050781E1,2.3477867E1,2.102943E1,6.537568E1,1.1552395E1,1.3690578E1,3.5907679E0,1.033252E1,9.61731E0,1.7958719E0,6.3407974E0,4.608841E0,1.4861731E1,3.5469017E0,1.0728607E1,7.426872E0,1.2400005E1,3.8740926E0,2.2048304E1,5.7241898E0,6.753618E-1,1.5587206E0,4.3981934E-1,1.2924629E1,0E0,0E0,0E0,0E0,0E0,0E0,0E0,0E0,0E0,0E0,0E0,0E0,0E0,0E0,0E0,0E0,0E0,0E0,0E0,0E0,0E0,0E0,0E0,0E0,0E0,0E0,0E0,0E0,0E0,0E0,0E0,0E0],"parents":[2147483647,0,0,1,1,2,2,3,3,4,4,5,5,6,6,7,7,8,8,9,9,10,10,11,11,12,12,13,13,14,14,15,15,16,16,17,17,18,18,19,19,20,20,21,21,22,22,23,23,24,24,25,25,26,26,27,27,28,28,29,29,30,30],"right_children":[2,4,6,8,10,12,14,16,18,20,22,24,26,28,30,32,34,36,38,40,42,44,46,48,50,52,54,56,58,60,62,-1,-1,-1,-1,-1,-1,-1,-1,-1,-1,-1,-1,-1,-1,-1,-1,-1,-1,-1,-1,-1,-1,-1,-1,-1,-1,-1,-1,-1,-1,-1,-1],"split_conditions":[1.3261035E2,1.6376978E-16,1.5280615E2,5E-1,3.0876386E-18,7.418894E3,1.0182178E6,6.1601315E1,1.1006563E-5,-7.0710677E-1,1.2246469E-16,1.6386266E2,4.6977333E-10,4E1,8.436003E-1,1.8474308E-10,7.9295003E-1,1.4667446E-19,2.3516855E4,7.8188944E5,-2.5881904E-1,-5E-1,3.1168785E4,5E-1,8.436003E-1,2.5881904E-1,-8.660254E-1,1.547523E2,1.8489825E2,1.2580171E6,4.5987905E-10,-1.7416136E0,-9.7865486E-1,1.6807545E0,-9.432729E-1,-4.380501E-1,-5.6516267E-2,-1.1076368E0,-4.8200074E-1,-3.367056E-1,1.9255029E-1,2.1098137E-1,5.7365036E-1,-6.66295E-1,-3.7331524E-1,-2.3074608E-1,1.2192144E-1,-8.647106E-1,-2.4530916E-1,1.3937365E0,-2.2593537E-1,-2.2181073E-1,3.9729166E-1,1.9252376E-1,7.440716E-1,-6.277176E-1,7.3591006E-1,-4.675225E0,-4.956757E0,6.451675E-1,2.7228177E0,6.800146E-1,-3.235262E-1],"split_indices":[37,62,34,18,59,4,52,14,59,18,18,36,62,31,68,61,68,62,0,55,18,18,0,18,68,18,18,37,34,52,59,0,0,0,0,0,0,0,0,0,0,0,0,0,0,0,0,0,0,0,0,0,0,0,0,0,0,0,0,0,0,0,0],"split_type":[0,0,0,0,0,0,0,0,0,0,0,0,0,0,0,0,0,0,0,0,0,0,0,0,0,0,0,0,0,0,0,0,0,0,0,0,0,0,0,0,0,0,0,0,0,0,0,0,0,0,0,0,0,0,0,0,0,0,0,0,0,0,0],"sum_hessian":[1.8928E4,7.241E3,1.1687E4,2.704E3,4.537E3,4.085E3,7.602E3,1.697E3,1.007E3,2.148E3,2.389E3,8.01E2,3.284E3,5.2E1,7.55E3,1.665E3,3.2E1,6.07E2,4E2,9.93E2,1.155E3,1.358E3,1.031E3,6.76E2,1.25E2,1.323E3,1.961E3,2.3E1,2.9E1,5.708E3,1.842E3,5.36E2,1.129E3,2.2E1,1E1,4.43E2,1.64E2,2.68E2,1.32E2,5.57E2,4.36E2,4.77E2,6.78E2,7.42E2,6.16E2,2.95E2,7.36E2,2.12E2,4.64E2,7.2E1,5.3E1,5.17E2,8.06E2,3.64E2,1.597E3,6E0,1.7E1,2.2E1,7E0,9.1E1,5.617E3,1.721E3,1.21E2],"tree_param":{"num_deleted":"0","num_feature":"69","num_nodes":"63","size_leaf_vector":"1"}},{"base_weights":[1.6444331E-2,-2.2921592E-1,1.598029E-1,-4.4530568E-1,-6.98333E-2,5.838106E-2,2.2748815E-1,-3.170859E-1,-5.645182E-1,6.976668E-2,-1.5366809E-1,-1.0826747E-1,1.4075384E-1,2.2924651E-1,-2.8086422E-2,-5.034235E-1,-1.8932493E-1,-6.1887676E-1,-4.4881573E-1,-4.0205665E-2,1.4034803E-1,-3.6415267E-1,-2.0854821E-2,-2.1238624E-1,-2.5891056E-2,1.8979423E-1,6.715898E-2,1.6051117E-1,2.461147E-1,-3.260435E-2,-2.0419212E-2,-1.5227737E-2,-6.423118E-3,-3.140119E-2,-6.7216977E-3,-1.2844942E-2,-2.65481E-2,-6.097561E-4,-9.341826E-3,9.006602E-3,2.601654E-3,-2.0600613E-2,-8.39341E-3,-5.4106615E-3,4.5782956E-3,-2.466262E-2,-6.8410644E-3,-3.584509E-3,9.475033E-3,7.698829E-3,1.1281438E-2,-5.950025E-3,7.5881826E-3,-1.4261168E-2,8.972718E-3,-1.7005814E-2,1.2391969E-2],"categories":[],"categories_nodes":[],"categories_segments":[],"categories_sizes":[],"default_left":[0,0,0,0,0,0,0,0,0,0,0,0,0,0,0,0,0,0,0,0,0,0,0,0,0,0,0,0,0,0,0,0,0,0,0,0,0,0,0,0,0,0,0,0,0,0,0,0,0,0,0,0,0,0,0,0,0],"id":8,"left_children":[1,3,5,7,9,11,13,15,17,19,21,23,25,27,-1,29,31,33,35,37,39,41,43,45,47,49,51,53,55,-1,-1,-1,-1,-1,-1,-1,-1,-1,-1,-1,-1,-1,-1,-1,-1,-1,-1,-1,-1,-1,-1,-1,-1,-1,-1,-1,-1],"loss_changes":[6.7111005E2,2.417366E2,8.25531E1,4.5206604E1,4.7344376E1,6.6177765E1,1.0118805E1,3.404428E1,9.206085E0,1.1798295E1,7.0581375E1,1.36310005E1,1.1589905E1,8.240967E0,0E0,7.7754517E0,5.892786E0,4.415802E0,7.57238E0,2.403808E0,3.2046375E0,9.009933E0,1.5248561E1,1.4748966E1,8.799961E0,2.383934E0,2.0394434E1,1.207098E1,5.9293823E0,0E0,0E0,0E0,0E0,0E0,0E0,0E0,0E0,0E0,0E0,0E0,0E0,0E0,0E0,0E0,0E0,0E0,0E0,0E0,0E0,0E0,0E0,0E0,0E0,0E0,0E0,0E0,0E0],"parents":[2147483647,0,0,1,1,2,2,3,3,4,4,5,5,6,6,7,7,8,8,9,9,10,10,11,11,12,12,13,13,15,15,16,16,17,17,18,18,19,19,20,20,21,21,22,22,23,23,24,24,25,25,26,26,27,27,28,28],"right_children":[2,4,6,8,10,12,14,16,18,20,22,24,26,28,-1,30,32,34,36,38,40,42,44,46,48,50,52,54,56,-1,-1,-1,-1,-1,-1,-1,-1,-1,-1,-1,-1,-1,-1,-1,-1,-1,-1,-1,-1,-1,-1,-1,-1,-1,-1,-1,-1],"split_conditions":[1.310398E2,5.6148267E3,1.0325271E2,4.4E1,5.6E1,1.067709E4,7.465181E-1,4.5808072E-8,8.3215657E-4,3.3950734E4,3.66629E4,1.2928012E2,6.4E1,1.4841745E2,-6.680491E0,1.0967639E-13,7.865161E4,1.4974313E2,4.056577E5,3.6822938E5,4.4E1,7.248342E5,7.9227694E5,1.12201706E-4,1.9035187E2,1.6423816E4,4.262203E4,6.369456E3,3E0,-1.3363332E0,-6.9249994E-1,-5.1103705E-1,-2.1887045E-1,-1.3379802E0,-5.974628E-1,-3.5798034E-1,-8.6220783E-1,-1.734276E-2,-3.729313E-1,5.1772845E-1,1.762396E-1,-7.0637095E-1,-2.7116606E-1,-2.0067807E-1,2.4959679E-1,-8.8457566E-1,-3.042225E-1,-1.17704295E-1,1.1967087E0,4.70047E-1,1.00973E0,-2.1779595E-1,4.902485E-1,-3.4734192E-1,6.5044594E-1,-3.9249155E-1,2.544176E0],"split_indices":[37,4,13,31,31,4,57,61,61,0,0,36,31,42,0,61,55,34,55,55,31,55,55,61,42,4,0,4,28,0,0,0,0,0,0,0,0,0,0,0,0,0,0,0,0,0,0,0,0,0,0,0,0,0,0,0,0],"split_type":[0,0,0,0,0,0,0,0,0,0,0,0,0,0,0,0,0,0,0,0,0,0,0,0,0,0,0,0,0,0,0,0,0,0,0,0,0,0,0,0,0,0,0,0,0,0,0,0,0,0,0,0,0,0,0,0,0],"sum_hessian":[1.9054E4,7.021E3,1.2033E4,2.979E3,4.042E3,4.818E3,7.215E3,1.438E3,1.541E3,1.516E3,2.526E3,1.593E3,3.225E3,7.2E3,1.5E1,5.83E2,8.55E2,1.044E3,4.97E2,5.92E2,9.24E2,9.76E2,1.55E3,7.02E2,8.91E2,1.933E3,1.292E3,1.423E3,5.777E3,2.24E2,3.59E2,2.93E2,5.62E2,1.024E3,2E1,1.51E2,3.46E2,4.99E2,9.3E1,6.35E2,2.89E2,7.83E2,1.93E2,8.73E2,6.77E2,1.47E2,5.55E2,7.36E2,1.55E2,9.72E2,9.61E2,4.03E2,8.89E2,5.7E1,1.366E3,1.6E1,5.761E3],"tree_param":{"num_deleted":"0","num_feature":"69","num_nodes":"57","size_leaf_vector":"1"}},{"base_weights":[2.005135E-2,-2.130317E-1,1.654692E-1,-4.5044744E-1,-7.3349714E-2,5.392183E-2,2.184381E-1,-5.670118E-1,-3.230003E-1,3.5921257E-2,-1.7129667E-1,-2.27376E-1,9.974724E-2,1.4296612E-1,2.4322468E-1,-5.777986E-1,1.012931E-1,-6.306687E-1,-2.4522293E-1,-6.1723527E-2,1.21296935E-1,-2.987991E-1,3.760052E-2,-2.740113E-1,8.453757E-2,2.375167E-2,1.7780766E-1,2.0043996E-1,6.013363E-2,-1.5992647E-1,2.4504559E-1,-3.4750715E-2,-2.6314164E-2,1.1191861E-2,-9.375E-3,-3.2693844E-2,-1.5625E-3,-2.1536525E-2,-9.468844E-3,-7.553497E-3,4.0917266E-3,3.736176E-3,9.401306E-3,-1.9962052E-2,-9.748723E-3,-4.5304033E-3,5.5032247E-3,-2.297571E-2,-9.235313E-3,8.118971E-3,-2.5E-2,-6.30138E-3,6.4738146E-3,3.8207255E-3,1.0168993E-2,1.0978485E-2,7.0999316E-3,-3.8716814E-4,8.424087E-3,-2.090164E-2,1.8518519E-3,1.22941295E-2,-2.3263888E-2],"categories":[],"categories_nodes":[],"categories_segments":[],"categories_sizes":[],"default_left":[0,0,0,0,0,0,0,0,0,0,0,0,0,0,0,0,0,0,0,0,0,0,0,0,0,0,0,0,0,0,0,0,0,0,0,0,0,0,0,0,0,0,0,0,0,0,0,0,0,0,0,0,0,0,0,0,0,0,0,0,0,0,0],"id":9,"left_children":[1,3,5,7,9,11,13,15,17,19,21,23,25,27,29,31,33,35,37,39,41,43,45,47,49,51,53,55,57,59,61,-1,-1,-1,-1,-1,-1,-1,-1,-1,-1,-1,-1,-1,-1,-1,-1,-1,-1,-1,-1,-1,-1,-1,-1,-1,-1,-1,-1,-1,-1,-1,-1],"loss_changes":[6.4423956E2,2.4204251E2,6.910565E1,3.9819763E1,4.925183E1,4.8621063E1,1.4744659E1,1.0307648E1,3.0676712E1,1.8143118E1,6.4674255E1,7.7395115E0,1.921009E1,9.306942E0,4.442505E0,7.760376E0,8.768594E-1,3.4924698E0,1.0543983E1,1.3033753E1,3.5525093E0,1.5535049E1,8.564008E0,7.42535E0,3.1954873E0,2.6088264E1,4.085861E0,1.2042961E0,5.969457E0,1.4585094E0,3.6384583E0,0E0,0E0,0E0,0E0,0E0,0E0,0E0,0E0,0E0,0E0,0E0,0E0,0E0,0E0,0E0,0E0,0E0,0E0,0E0,0E0,0E0,0E0,0E0,0E0,0E0,0E0,0E0,0E0,0E0,0E0,0E0,0E0],"parents":[2147483647,0,0,1,1,2,2,3,3,4,4,5,5,6,6,7,7,8,8,9,9,10,10,11,11,12,12,13,13,14,14,15,15,16,16,17,17,18,18,19,19,20,20,21,21,22,22,23,23,24,24,25,25,26,26,27,27,28,28,29,29,30,30],"right_children":[2,4,6,8,10,12,14,16,18,20,22,24,26,28,30,32,34,36,38,40,42,44,46,48,50,52,54,56,58,60,62,-1,-1,-1,-1,-1,-1,-1,-1,-1,-1,-1,-1,-1,-1,-1,-1,-1,-1,-1,-1,-1,-1,-1,-1,-1,-1,-1,-1,-1,-1,-1,-1],"split_conditions":[1.3261035E2,1.6376978E-16,1.4883293E2,2.5881904E-1,3.0876386E-18,8.8151926E-16,1.6715247E2,1.1281279E2,2.0466424E4,-7.0710677E-1,2.5881904E-1,1.6315367E2,2.7647484E-9,3.99101E-12,3E0,1.8747579E-28,2.0740488E2,1.6715019E2,4.582974E-1,2.0510657E-7,6.765773E-9,-5E-1,6.719397E3,5E-1,4.031932E4,2.5881904E-1,-8.660254E-1,6.8E1,1.5568489E2,5.587252E-1,7.6910156E-1,-1.7298034E0,-9.151024E-1,1.7498264E0,-2.3113725E0,-1.2961069E0,-2.0106056E0,-5.401972E-1,-3.338499E-1,-2.8601342E-1,2.1825723E-1,1.7509651E-1,6.7650384E-1,-6.596901E-1,-3.1811142E-1,-1.8615608E-1,1.943265E-1,-8.872696E-1,-2.929309E-1,5.046488E-1,-1.0796196E0,-2.324711E-1,3.1792793E-1,2.2870398E-1,7.4633056E-1,8.4440774E-1,3.8626224E-1,-8.42104E-3,9.961678E-1,-2.1952668E-1,3.4080505E-2,2.318983E0,-6.582512E0],"split_indices":[37,62,35,18,59,62,37,13,0,18,18,36,62,60,28,62,35,35,1,62,62,18,4,18,39,18,18,31,42,1,57,0,0,0,0,0,0,0,0,0,0,0,0,0,0,0,0,0,0,0,0,0,0,0,0,0,0,0,0,0,0,0,0],"split_type":[0,0,0,0,0,0,0,0,0,0,0,0,0,0,0,0,0,0,0,0,0,0,0,0,0,0,0,0,0,0,0,0,0,0,0,0,0,0,0,0,0,0,0,0,0,0,0,0,0,0,0,0,0,0,0,0,0,0,0,0,0,0,0],"sum_hessian":[1.9005E4,7.301E3,1.1704E4,2.703E3,4.598E3,3.77E3,7.934E3,1.409E3,1.294E3,2.173E3,2.425E3,5.27E2,3.243E3,1.965E3,5.969E3,1.387E3,2.2E1,2.59E2,1.035E3,1.013E3,1.16E3,1.506E3,9.19E2,4.59E2,6.8E1,1.645E3,1.598E3,1.158E3,8.07E2,2.6E1,5.943E3,4.18E2,9.69E2,1.6E1,6E0,2.49E2,1E1,2.37E2,7.98E2,6.25E2,3.88E2,6.86E2,4.74E2,7.63E2,7.43E2,3.31E2,5.88E2,1.47E2,3.12E2,6.1E1,7E0,6.8E2,9.65E2,3.24E2,1.274E3,8.68E2,2.9E2,4.96E2,3.11E2,1.1E1,1.5E1,5.937E3,6E0],"tree_param":{"num_deleted":"0","num_feature":"69","num_nodes":"63","size_leaf_vector":"1"}},{"base_weights":[2.1127723E-2,-2.1707071E-1,1.5199442E-1,-4.0097126E-1,-2.778948E-2,3.1949308E-2,2.1244118E-1,-5.56613E-1,-3.0169362E-1,-1.2856886E-1,7.3527634E-2,-1.3042602E-1,1.2407591E-1,1.4242762E-1,2.4032098E-1,-6.671265E-1,-4.9505353E-1,-4.7251883E-1,-1.576307E-1,3.6286828E-3,-2.9233763E-1,1.3629231E-1,1.3051422E-4,-2.8384387E-1,-2.4484243E-2,6.261004E-2,1.9022343E-1,2.0097357E-1,6.892388E-2,-2.9338843E-1,2.4252048E-1,-3.4184687E-2,-1.1328125E-2,-3.094602E-2,-1.9909503E-2,-2.4291595E-2,6.7216977E-3,-1.2052692E-2,-3.0386217E-3,-2.6160246E-3,8.225335E-3,-1.7143128E-2,-8.386801E-3,5.419936E-3,1.1415692E-2,-5.667225E-3,4.991447E-3,-1.6193287E-2,2.3413897E-3,-9.643539E-3,3.4126844E-3,7.2062532E-3,-4.1072886E-3,5.102539E-3,1.090776E-2,1.1607143E-2,7.414644E-3,5.7855796E-4,7.957378E-3,-2.2819769E-2,3.6585366E-3,1.2202874E-2,-2.215909E-2],"categories":[],"categories_nodes":[],"categories_segments":[],"categories_sizes":[],"default_left":[0,0,0,0,0,0,0,0,0,0,0,0,0,0,0,0,0,0,0,0,0,0,0,0,0,0,0,0,0,0,0,0,0,0,0,0,0,0,0,0,0,0,0,0,0,0,0,0,0,0,0,0,0,0,0,0,0,0,0,0,0,0,0],"id":10,"left_children":[1,3,5,7,9,11,13,15,17,19,21,23,25,27,29,31,33,35,37,39,41,43,45,47,49,51,53,55,57,59,61,-1,-1,-1,-1,-1,-1,-1,-1,-1,-1,-1,-1,-1,-1,-1,-1,-1,-1,-1,-1,-1,-1,-1,-1,-1,-1,-1,-1,-1,-1,-1,-1],"loss_changes":[5.9255804E2,2.3454144E2,8.898462E1,5.2486877E1,3.395172E1,6.1518265E1,1.5827972E1,8.472107E0,5.1255035E1,3.613917E1,7.6138153E0,2.413366E1,1.0617294E1,9.961945E0,6.9241943E0,3.1168518E0,9.860519E0,7.849472E0,9.117889E0,8.336871E0,4.5457954E0,2.2099037E0,8.679785E0,8.095493E0,1.3810764E1,1.6108952E1,3.033821E0,2.026722E0,5.3289003E0,1.5435479E0,6.222351E0,0E0,0E0,0E0,0E0,0E0,0E0,0E0,0E0,0E0,0E0,0E0,0E0,0E0,0E0,0E0,0E0,0E0,0E0,0E0,0E0,0E0,0E0,0E0,0E0,0E0,0E0,0E0,0E0,0E0,0E0,0E0,0E0],"parents":[2147483647,0,0,1,1,2,2,3,3,4,4,5,5,6,6,7,7,8,8,9,9,10,10,11,11,12,12,13,13,14,14,15,15,16,16,17,17,18,18,19,19,20,20,21,21,22,22,23,23,24,24,25,25,26,26,27,27,28,28,29,29,30,30],"right_children":[2,4,6,8,10,12,14,16,18,20,22,24,26,28,30,32,34,36,38,40,42,44,46,48,50,52,54,56,58,60,62,-1,-1,-1,-1,-1,-1,-1,-1,-1,-1,-1,-1,-1,-1,-1,-1,-1,-1,-1,-1,-1,-1,-1,-1,-1,-1,-1,-1,-1,-1,-1,-1],"split_conditions":[1.2974959E2,3.2360436E4,9.401051E1,5.395441E-7,-5E-1,1.0333371E4,1.6781036E2,1.0967639E-13,0E0,1.3309858E-12,2.447334E-17,5E-1,3.7369315E-8,8.72943E-14,9E0,1.5865646E2,1.2246469E-16,1.1281279E2,7.0710677E-1,8.7040894E5,1.2648474E2,7.0710677E-1,2.5881904E-1,1.9130295E2,2.0059019E6,6E1,-8.660254E-1,5.6E1,1.4565395E2,3.4235453E4,2.1175759E-1,-1.682827E0,-2.1093976E0,-1.064292E0,-6.283207E-1,-8.080902E-1,1.641502E0,-3.5405657E-1,-1.2762108E-1,-1.2432041E-1,4.3344155E-1,-6.244621E-1,-2.8352547E-1,3.0739555E-1,7.5986E-1,-2.0247403E-1,2.034688E-1,-6.372654E-1,2.9835206E-1,-3.0351278E-1,1.4812528E-1,4.0701944E-1,-1.4545536E-1,3.586587E-1,7.891998E-1,1.0234673E0,4.3974304E-1,1.8543243E-2,8.308037E-1,-4.0158844E-1,3.3765793E-1,2.1780908E0,-5.89576E0],"split_indices":[38,0,13,61,18,4,38,61,18,60,59,18,62,60,28,36,18,13,18,55,46,18,18,46,52,31,18,31,46,39,59,0,0,0,0,0,0,0,0,0,0,0,0,0,0,0,0,0,0,0,0,0,0,0,0,0,0,0,0,0,0,0,0],"split_type":[0,0,0,0,0,0,0,0,0,0,0,0,0,0,0,0,0,0,0,0,0,0,0,0,0,0,0,0,0,0,0,0,0,0,0,0,0,0,0,0,0,0,0,0,0,0,0,0,0,0,0,0,0,0,0,0,0,0,0,0,0,0,0],"sum_hessian":[1.9007E4,6.739E3,1.2268E4,3.417E3,3.322E3,4.11E3,8.158E3,1.328E3,2.089E3,1.666E3,1.656E3,1.487E3,2.623E3,2.327E3,5.831E3,4.7E2,8.58E2,9.54E2,1.135E3,9.22E2,7.44E2,8.91E2,7.65E2,6.06E2,8.81E2,1.362E3,1.261E3,1.293E3,1.034E3,2.3E1,5.808E3,4.52E2,1.8E1,3.73E2,4.85E2,9.34E2,2E1,6.08E2,5.27E2,6.84E2,2.38E2,5.27E2,2.17E2,6.87E2,2.04E2,3.57E2,4.08E2,5.41E2,6.5E1,3.13E2,5.68E2,8.72E2,4.9E2,3.06E2,9.55E2,8.08E2,4.85E2,6.34E2,4E2,1.6E1,7E0,5.796E3,1.2E1],"tree_param":{"num_deleted":"0","num_feature":"69","num_nodes":"63","size_leaf_vector":"1"}},{"base_weights":[2.4422646E-2,-1.9382633E-1,1.605195E-1,-4.9532253E-2,-4.0210742E-1,7.9697266E-2,2.3433499E-1,5.8529604E-2,-1.3131334E-1,-2.938193E-1,-5.253743E-1,1.406037E-1,-7.032707E-2,-3.2812502E-2,2.3595312E-1,1.9303355E-1,1.7811973E-2,-2.2572607E-1,5.5089895E-2,-4.562961E-1,-1.5428638E-1,-5.965882E-1,-4.148762E-1,1.8509531E-1,7.970409E-2,-1.379269E-1,1.6732173E-1,-3.148148E-1,2.3740153E-1,1.009995E-2,1.6865078E-3,-3.7606198E-3,2.7143136E-3,-1.4546694E-2,-3.6641457E-3,-9.700521E-3,4.783559E-3,-3.239042E-2,-1.9252606E-2,-3.599363E-3,-1.0454901E-2,-3.0278513E-2,6.026786E-3,-1.7759796E-2,-2.5882948E-2,7.0316554E-3,1.1508568E-2,-1.0526964E-3,8.7176375E-3,-1.5325475E-2,-3.0722057E-3,9.881453E-3,-1.2603305E-2,-3.0208334E-2,-2.9411765E-3,6.031292E-3,1.2166939E-2],"categories":[],"categories_nodes":[],"categories_segments":[],"categories_sizes":[],"default_left":[0,0,0,0,0,0,0,0,0,0,0,0,0,0,0,0,0,0,0,0,0,0,0,0,0,0,0,0,0,0,0,0,0,0,0,0,0,0,0,0,0,0,0,0,0,0,0,0,0,0,0,0,0,0,0,0,0],"id":11,"left_children":[1,3,5,7,9,11,13,15,17,19,21,23,25,-1,27,29,31,33,35,37,39,41,43,45,47,49,51,53,55,-1,-1,-1,-1,-1,-1,-1,-1,-1,-1,-1,-1,-1,-1,-1,-1,-1,-1,-1,-1,-1,-1,-1,-1,-1,-1,-1,-1],"loss_changes":[5.6234576E2,2.1843506E2,6.950043E1,3.7996284E1,3.9405792E1,5.0910686E1,8.903503E0,1.010268E1,4.31084E1,3.5807114E1,1.048291E1,1.0678246E1,2.5859049E1,0E0,4.930908E0,5.6946087E-1,4.830677E0,1.607505E1,8.329096E0,9.535934E0,3.8020477E0,5.578705E0,3.0172806E0,4.4894943E0,1.6012667E1,1.6080551E1,4.5791016E0,1.0578637E0,4.117401E0,0E0,0E0,0E0,0E0,0E0,0E0,0E0,0E0,0E0,0E0,0E0,0E0,0E0,0E0,0E0,0E0,0E0,0E0,0E0,0E0,0E0,0E0,0E0,0E0,0E0,0E0,0E0,0E0],"parents":[2147483647,0,0,1,1,2,2,3,3,4,4,5,5,6,6,7,7,8,8,9,9,10,10,11,11,12,12,14,14,15,15,16,16,17,17,18,18,19,19,20,20,21,21,22,22,23,23,24,24,25,25,26,26,27,27,28,28],"right_children":[2,4,6,8,10,12,14,16,18,20,22,24,26,-1,28,30,32,34,36,38,40,42,44,46,48,50,52,54,56,-1,-1,-1,-1,-1,-1,-1,-1,-1,-1,-1,-1,-1,-1,-1,-1,-1,-1,-1,-1,-1,-1,-1,-1,-1,-1,-1,-1],"split_conditions":[1.3261035E2,1.7602508E-8,1.1424511E2,6E1,4.8E1,1.0080947E-14,1E0,9.748738E-13,4.6801167E-9,2.4749264E4,4.4497438E-20,5.6E1,1.9035187E2,-6.4250703E0,3E0,2.400629E4,8.448938E4,7.3466075E5,-1.3625795E4,1.8861691E4,9.953235E-1,1.0742756E2,-5E-1,1.6423816E4,3.307524E-7,4.1874287E3,1.5491533E-1,2.2339055E4,1.5113844E2,6.5981877E-1,1.6483966E-1,-1.3983002E-1,1.1670571E-1,-5.399271E-1,-1.22288324E-1,-3.9089003E-1,2.7146825E-1,-1.4075783E0,-5.899601E-1,-1.7923222E-1,-3.0503234E-1,-1.2363229E0,1.1057396E-1,-5.104992E-1,-8.152666E-1,4.0141222E-1,9.603287E-1,-5.1831055E-2,5.9178984E-1,-5.1956636E-1,-1.203865E-1,1.0725079E0,-3.3711243E-1,-2.16614E0,-2.682518E-1,3.894932E-1,2.1049118E0],"split_indices":[37,59,13,31,31,59,58,60,62,0,62,31,42,0,28,3,55,55,10,0,60,13,19,4,62,4,50,0,37,0,0,0,0,0,0,0,0,0,0,0,0,0,0,0,0,0,0,0,0,0,0,0,0,0,0,0,0],"split_type":[0,0,0,0,0,0,0,0,0,0,0,0,0,0,0,0,0,0,0,0,0,0,0,0,0,0,0,0,0,0,0,0,0,0,0,0,0,0,0,0,0,0,0,0,0,0,0,0,0,0,0,0,0,0,0,0,0],"sum_hessian":[1.893E4,7.27E3,1.166E4,4.296E3,2.974E3,5.568E3,6.092E3,1.85E3,2.446E3,1.586E3,1.388E3,3.961E3,1.607E3,1E1,6.082E3,4.28E2,1.422E3,1.624E3,8.22E2,7.31E2,8.55E2,8.4E2,5.48E2,2.286E3,1.675E3,1.252E3,3.55E2,1.5E1,6.067E3,4.04E2,2.4E1,3.99E2,1.023E3,1.136E3,4.88E2,1.14E2,7.08E2,1.95E2,5.36E2,3.44E2,5.11E2,8.3E2,1E1,3.51E2,1.97E2,1.155E3,1.131E3,8.11E2,8.64E2,3.89E2,8.63E2,3.32E2,2.3E1,6E0,9E0,2.96E2,5.771E3],"tree_param":{"num_deleted":"0","num_feature":"69","num_nodes":"57","size_leaf_vector":"1"}},{"base_weights":[2.8161716E-2,-1.8847777E-1,1.6012149E-1,-3.716043E-1,-4.0817615E-2,8.3176404E-2,2.3605898E-1,-6.2690353E-1,-3.2266596E-1,1.0137606E-1,-9.133302E-2,1.3145632E-1,-1.589271E-1,-2.7748692E-1,2.3937419E-1,-6.45646E-1,-2.107438E-1,-2.3119913E-1,-4.6704197E-1,1.5098356E-1,6.542316E-3,-2.3516774E-1,9.952276E-3,7.2315216E-2,1.9229327E-1,-1.18079886E-1,-4.5697075E-1,-3.319672E-2,-8.639706E-2,-3.4234235E-1,2.4155596E-1,-1.2704918E-2,-3.2685068E-2,6.026786E-3,-2.3239437E-2,-1.7008146E-2,-6.261945E-3,-2.6890222E-2,-1.9893637E-2,8.64961E-3,3.2537963E-4,-7.4302577E-3,3.0595062E-3,-1.9111348E-2,-9.522659E-3,-1.02984635E-2,1.6804284E-3,6.600793E-3,-1.9820973E-3,1.0319575E-3,1.0179095E-2,-1.2135082E-2,-3.144307E-4,-2.6177024E-2,1.0491072E-2,1.0294118E-2,-1.2637362E-2,-7.007576E-3,-2.7450979E-2,1.2262428E-2,-1.309227E-3],"categories":[],"categories_nodes":[],"categories_segments":[],"categories_sizes":[],"default_left":[0,0,0,0,0,0,0,0,0,0,0,0,0,0,0,0,0,0,0,0,0,0,0,0,0,0,0,0,0,0,0,0,0,0,0,0,0,0,0,0,0,0,0,0,0,0,0,0,0,0,0,0,0,0,0,0,0,0,0,0,0],"id":12,"left_children":[1,3,5,7,9,11,13,15,17,19,21,23,25,27,29,31,33,35,37,39,41,43,45,47,49,51,53,-1,55,57,59,-1,-1,-1,-1,-1,-1,-1,-1,-1,-1,-1,-1,-1,-1,-1,-1,-1,-1,-1,-1,-1,-1,-1,-1,-1,-1,-1,-1,-1,-1],"loss_changes":[5.4068823E2,1.9350821E2,6.860852E1,3.953537E1,2.849152E1,6.8297195E1,1.0143005E1,3.7033386E0,3.521222E1,4.864064E0,4.2681038E1,1.7470032E1,1.1672628E1,2.639541E0,7.5433044E0,1.207489E0,2.1555357E0,1.8885803E1,4.6893005E0,2.1377506E0,3.0432653E0,7.7846375E0,8.758851E0,1.6550793E1,4.6103516E0,1.1889077E1,5.3367844E0,0E0,1.3919572E0,7.3198843E-1,5.830353E0,0E0,0E0,0E0,0E0,0E0,0E0,0E0,0E0,0E0,0E0,0E0,0E0,0E0,0E0,0E0,0E0,0E0,0E0,0E0,0E0,0E0,0E0,0E0,0E0,0E0,0E0,0E0,0E0,0E0,0E0],"parents":[2147483647,0,0,1,1,2,2,3,3,4,4,5,5,6,6,7,7,8,8,9,9,10,10,11,11,12,12,13,13,14,14,15,15,16,16,17,17,18,18,19,19,20,20,21,21,22,22,23,23,24,24,25,25,26,26,28,28,29,29,30,30],"right_children":[2,4,6,8,10,12,14,16,18,20,22,24,26,28,30,32,34,36,38,40,42,44,46,48,50,52,54,-1,56,58,60,-1,-1,-1,-1,-1,-1,-1,-1,-1,-1,-1,-1,-1,-1,-1,-1,-1,-1,-1,-1,-1,-1,-1,-1,-1,-1,-1,-1,-1,-1],"split_conditions":[1.3261035E2,3.1168785E4,1.9035187E2,2.0466424E4,3.7713534E5,8.149427E-5,5.556772E-22,1.5277E2,3.3634172E5,1.9378032E-5,3.730904E4,1.7023117E-8,4.0986416E5,1.8123727E2,3E0,-7.7408165E-2,2.7290627E3,2.6066273E4,4.1284173E-19,-3.9187244E1,4.409647E4,7.416374E-15,-7.299523E3,4.442893E5,-4.614681E3,2.0497724E6,1.6238213E2,-6.1165614E0,2.9560873E4,9.999715E-1,1.7138464E3,-8.4731215E-1,-1.5039564E0,1.2891512E0,-1.2267388E0,-5.597374E-1,-2.2602521E-1,-9.6638995E-1,-5.956273E-1,3.7697697E-1,9.332962E-2,-2.7398625E-1,7.094784E-2,-5.784279E-1,-3.4395647E-1,-5.331742E-1,7.2906114E-2,3.5746384E-1,-6.2154006E-2,6.009331E-2,7.510864E-1,-3.9046326E-1,-9.35297E-3,-8.307478E-1,4.3919298E-1,5.9365314E-1,-1.5448818E0,-3.6719045E-1,-1.5250317E0,2.0978093E0,-5.361786E-2],"split_indices":[37,0,42,0,55,60,61,35,55,60,0,62,55,35,28,5,9,0,62,15,7,62,10,55,10,52,35,0,48,60,44,0,0,0,0,0,0,0,0,0,0,0,0,0,0,0,0,0,0,0,0,0,0,0,0,0,0,0,0,0,0],"split_type":[0,0,0,0,0,0,0,0,0,0,0,0,0,0,0,0,0,0,0,0,0,0,0,0,0,0,0,0,0,0,0,0,0,0,0,0,0,0,0,0,0,0,0,0,0,0,0,0,0,0,0,0,0,0,0,0,0,0,0,0,0],"sum_hessian":[1.8911E4,7.158E3,1.1753E4,3.194E3,3.964E3,5.84E3,5.913E3,5.11E2,2.683E3,1.038E3,2.926E3,4.87E3,9.7E2,3.7E1,5.876E3,4.88E2,2.3E1,1.645E3,1.038E3,6.8E2,3.58E2,1.209E3,1.717E3,2.472E3,2.398E3,8.55E2,1.15E2,1.1E1,2.6E1,2.1E1,5.855E3,1.1E1,4.77E2,1E1,1.3E1,8.09E2,8.36E2,5.08E2,5.3E2,5.89E2,9.1E1,9.2E1,2.66E2,2.79E2,9.3E2,1.68E2,1.549E3,1.613E3,8.59E2,1.49E2,2.249E3,4.03E2,4.52E2,1.05E2,1E1,9E0,1.7E1,1.2E1,9E0,5.776E3,7.9E1],"tree_param":{"num_deleted":"0","num_feature":"69","num_nodes":"61","size_leaf_vector":"1"}},{"base_weights":[2.8755547E-2,-1.7642543E-1,1.5827416E-1,-4.1467946E-2,-3.7254936E-1,2.3390374E-1,7.654026E-2,-1.0310462E-1,9.493811E-2,-5.076208E-1,-2.6720768E-1,-5.4384773E-3,2.4610324E-1,-1.4668295E-1,1.2884091E-1,-6.5896963E-3,-2.543155E-1,1.5900645E-1,6.3497823E-4,-6.5418863E-1,-4.6287864E-1,-5.7681984E-1,-1.9022301E-1,-3.2812502E-2,1.9704433E-2,1.6752283E-1,2.4848762E-1,-3.8488272E-1,-8.063937E-2,6.721185E-2,1.8691169E-1,-3.352136E-3,4.8506362E-3,-1.84663E-2,-9.272987E-3,1.1246636E-2,6.0005873E-3,-6.6692666E-3,2.074493E-3,-3.3257116E-2,-1.0054348E-2,-3.1219661E-2,-2.0485476E-2,-2.9442588E-2,2.4305554E-3,-1.40635E-2,-5.5875103E-3,-7.421875E-3,4.4757663E-3,1.0019974E-2,-1.1450382E-3,6.9819824E-3,1.2442062E-2,-2.1540808E-2,8.516484E-3,-1.3710733E-2,-3.582016E-4,-2.5388426E-3,7.332222E-3,6.872998E-3,1.1176448E-2],"categories":[],"categories_nodes":[],"categories_segments":[],"categories_sizes":[],"default_left":[0,0,0,0,0,0,0,0,0,0,0,0,0,0,0,0,0,0,0,0,0,0,0,0,0,0,0,0,0,0,0,0,0,0,0,0,0,0,0,0,0,0,0,0,0,0,0,0,0,0,0,0,0,0,0,0,0,0,0,0,0],"id":13,"left_children":[1,3,5,7,9,11,13,15,17,19,21,23,25,27,29,31,33,35,37,39,41,43,45,-1,47,49,51,53,55,57,59,-1,-1,-1,-1,-1,-1,-1,-1,-1,-1,-1,-1,-1,-1,-1,-1,-1,-1,-1,-1,-1,-1,-1,-1,-1,-1,-1,-1,-1,-1],"loss_changes":[5.054082E2,1.9470554E2,7.2003296E1,3.6680264E1,4.23956E1,1.7715088E1,6.547081E1,4.3817062E1,8.175923E0,8.074158E0,3.9992172E1,4.9250813E0,9.6710205E-1,1.6634459E1,1.620623E1,1.1503573E1,9.101555E0,1.9909935E0,3.0108886E0,1.214386E0,8.213089E0,2.637825E0,9.578697E0,0E0,3.3430858E0,1.1289697E0,1.1508179E-1,5.997879E0,1.1834496E1,2.0709524E1,4.1411514E0,0E0,0E0,0E0,0E0,0E0,0E0,0E0,0E0,0E0,0E0,0E0,0E0,0E0,0E0,0E0,0E0,0E0,0E0,0E0,0E0,0E0,0E0,0E0,0E0,0E0,0E0,0E0,0E0,0E0,0E0],"parents":[2147483647,0,0,1,1,2,2,3,3,4,4,5,5,6,6,7,7,8,8,9,9,10,10,11,11,12,12,13,13,14,14,15,15,16,16,17,17,18,18,19,19,20,20,21,21,22,22,24,24,25,25,26,26,27,27,28,28,29,29,30,30],"right_children":[2,4,6,8,10,12,14,16,18,20,22,24,26,28,30,32,34,36,38,40,42,44,46,-1,48,50,52,54,56,58,60,-1,-1,-1,-1,-1,-1,-1,-1,-1,-1,-1,-1,-1,-1,-1,-1,-1,-1,-1,-1,-1,-1,-1,-1,-1,-1,-1,-1,-1,-1],"split_conditions":[1.3302011E2,1.7602508E-8,8.436003E-1,1.2246469E-16,1.2246469E-16,1.2580171E6,2.3619415E6,2.76788E-9,1.1448493E-13,7.207895E-30,2.0466424E4,1E0,1.4108348E6,2.5881904E-1,3.2000163E-8,4.343437E4,-7.0710677E-1,9.748738E-13,8.448938E4,1.4491763E2,-7.0710677E-1,7.3332886E1,2.6066273E4,-5.5912848E0,1.2246469E-16,6.4E1,1.0967639E-13,3.63E2,4.6934425E-3,2.5881904E-1,-2.5881904E-1,-1.1102219E-1,2.8534243E-1,-5.9521335E-1,-3.4793207E-1,7.523438E-1,2.2175875E-1,-2.0466386E-1,7.218361E-2,-1.4264723E0,-9.405361E0,-1.0320233E0,-6.693184E-1,-1.1355431E0,1.2238997E0,-4.0394688E-1,-2.1069355E-1,-2.917284E-1,2.4975757E-1,6.772335E-1,-6.701775E-2,4.1970253E-1,2.0954595E0,-6.940482E-1,5.414745E-1,-4.5645675E-1,-1.274395E-2,-8.957672E-2,4.0031585E-1,4.1194344E-1,9.0339226E-1],"split_indices":[37,59,68,18,18,52,52,60,59,62,0,58,52,18,62,0,18,60,55,42,18,14,0,0,18,31,61,28,61,18,18,0,0,0,0,0,0,0,0,0,0,0,0,0,0,0,0,0,0,0,0,0,0,0,0,0,0,0,0,0,0],"split_type":[0,0,0,0,0,0,0,0,0,0,0,0,0,0,0,0,0,0,0,0,0,0,0,0,0,0,0,0,0,0,0,0,0,0,0,0,0,0,0,0,0,0,0,0,0,0,0,0,0,0,0,0,0,0,0,0,0,0,0,0,0],"sum_hessian":[1.9016E4,7.358E3,1.1658E4,4.36E3,2.998E3,6.053E3,5.605E3,3.004E3,1.356E3,1.311E3,1.687E3,2.93E2,5.76E3,1.063E3,4.542E3,1.835E3,1.169E3,8.06E2,5.5E2,3.02E2,1.009E3,3.34E2,1.353E3,1E1,2.83E2,1.74E2,5.586E3,2.29E2,8.34E2,2.206E3,2.336E3,1.16E3,6.75E2,4.35E2,7.34E2,2.96E2,5.1E2,1.27E2,4.23E2,2.94E2,8E0,2.46E2,7.63E2,3.28E2,6E0,6.24E2,7.29E2,8.2E1,2.01E2,1.49E2,2.5E1,2.1E1,5.565E3,2.12E2,1.7E1,2.28E2,6.06E2,8.87E2,1.319E3,9.98E2,1.338E3],"tree_param":{"num_deleted":"0","num_feature":"69","num_nodes":"61","size_leaf_vector":"1"}},{"base_weights":[3.0585779E-2,-1.5047467E-1,1.6658837E-1,-3.3680388E-1,-2.0666916E-2,9.1483966E-2,2.3463957E-1,-2.1274686E-1,-4.310599E-1,-1.0066462E-1,7.985166E-2,6.4966506E-3,1.6979375E-1,-3.401163E-1,2.3635772E-1,-4.505612E-1,-1.2960379E-1,-5.9709996E-1,-3.8829857E-1,1.5267672E-3,-2.3864235E-1,3.0563042E-2,1.758874E-1,-1.315484E-1,5.0954055E-2,1.3713005E-1,2.2533293E-1,-2.7450979E-2,-6.097561E-4,-3.0208334E-2,2.3740126E-1,-2.815338E-2,-1.6041197E-2,-1.1433276E-2,-4.0807207E-3,-3.0893048E-2,-3.3950617E-3,-2.9438142E-2,-1.71875E-2,-1.1062718E-2,1.4837012E-3,-1.7756833E-2,-8.818011E-3,-2.826882E-3,5.319783E-3,1.07920645E-2,7.0183366E-3,-1.423342E-2,-1.7598065E-3,6.9151125E-3,-2.2208675E-4,1.0100475E-2,3.9388533E-3,1.1360637E-2,-2.4305554E-3,8.734328E-3,1.222994E-2],"categories":[],"categories_nodes":[],"categories_segments":[],"categories_sizes":[],"default_left":[0,0,0,0,0,0,0,0,0,0,0,0,0,0,0,0,0,0,0,0,0,0,0,0,0,0,0,0,0,0,0,0,0,0,0,0,0,0,0,0,0,0,0,0,0,0,0,0,0,0,0,0,0,0,0,0,0],"id":14,"left_children":[1,3,5,7,9,11,13,15,17,19,21,23,25,27,29,31,33,35,37,39,41,43,45,47,49,51,53,-1,-1,-1,55,-1,-1,-1,-1,-1,-1,-1,-1,-1,-1,-1,-1,-1,-1,-1,-1,-1,-1,-1,-1,-1,-1,-1,-1,-1,-1],"loss_changes":[4.6807886E2,1.9713928E2,5.540564E1,3.8932617E1,3.8668694E1,3.4335083E1,5.703003E0,2.8477592E1,1.3065552E1,3.779898E1,1.0045816E1,1.5204978E1,4.7816315E0,1.0860492E0,5.09671E0,5.1125717E0,5.042467E0,4.089859E0,1.314859E1,9.630969E0,8.117851E0,9.32917E0,9.337311E-1,8.839283E0,9.099226E0,6.360441E0,5.504799E-1,0E0,0E0,0E0,2.4457703E0,0E0,0E0,0E0,0E0,0E0,0E0,0E0,0E0,0E0,0E0,0E0,0E0,0E0,0E0,0E0,0E0,0E0,0E0,0E0,0E0,0E0,0E0,0E0,0E0,0E0,0E0],"parents":[2147483647,0,0,1,1,2,2,3,3,4,4,5,5,6,6,7,7,8,8,9,9,10,10,11,11,12,12,13,13,14,14,15,15,16,16,17,17,18,18,19,19,20,20,21,21,22,22,23,23,24,24,25,25,26,26,30,30],"right_children":[2,4,6,8,10,12,14,16,18,20,22,24,26,28,30,32,34,36,38,40,42,44,46,48,50,52,54,-1,-1,-1,56,-1,-1,-1,-1,-1,-1,-1,-1,-1,-1,-1,-1,-1,-1,-1,-1,-1,-1,-1,-1,-1,-1,-1,-1,-1,-1],"split_conditions":[1.3684755E2,3.1168785E4,1.7267302E2,1E1,-2.5881904E-1,1.425968E4,3.7E1,2.0640686E-29,2.296298E-30,6.869903E-12,1.3176438E4,1.21448906E2,5E-1,4.432625E4,1E0,2.0466424E4,1.2652002E3,1.4975955E2,-7.0710677E-1,-9.387666E3,3.384738E4,5E-1,6.4109986E-16,5.430579E-16,3.2454836E4,9.9999714E-1,2.86E2,-7.4712676E-1,-1.3387604E-1,-5.8336315E0,1.6862024E2,-9.339048E-1,-5.470006E-1,-3.5550356E-1,-1.4124595E-1,-1.3968381E0,-5.304985E-1,-1.0364302E0,-5.546693E-1,-4.9864846E-1,6.4151384E-2,-6.0009557E-1,-2.9635468E-1,-1.0419579E-1,2.3761292E-1,7.6720905E-1,4.4912863E-1,-5.4429895E-1,-9.979248E-2,4.3267345E-1,-8.986664E-3,6.886959E-1,1.9231987E-1,8.711788E-1,-4.790726E-2,7.851383E-1,2.0252798E0],"split_indices":[38,0,34,32,18,4,28,62,62,60,4,34,18,7,58,0,4,35,18,10,0,18,60,62,39,61,28,0,0,0,38,0,0,0,0,0,0,0,0,0,0,0,0,0,0,0,0,0,0,0,0,0,0,0,0,0,0],"split_type":[0,0,0,0,0,0,0,0,0,0,0,0,0,0,0,0,0,0,0,0,0,0,0,0,0,0,0,0,0,0,0,0,0,0,0,0,0,0,0,0,0,0,0,0,0,0,0,0,0,0,0,0,0,0,0,0,0],"sum_hessian":[1.9006E4,8.152E3,1.0854E4,3.346E3,4.806E3,5.162E3,5.692E3,1.447E3,1.899E3,2.677E3,2.129E3,2.477E3,2.685E3,1.6E1,5.676E3,3.73E2,1.074E3,3.85E2,1.514E3,1.538E3,1.139E3,1.409E3,7.2E2,6.02E2,1.875E3,1.695E3,9.9E2,9E0,7E0,6E0,5.67E3,1.97E2,1.76E2,3.48E2,7.26E2,3.7E2,1.5E1,2.72E2,1.242E3,1.71E2,1.367E3,3.94E2,7.45E2,6.55E2,7.54E2,3.34E2,3.86E2,2.31E2,3.71E2,7.28E2,1.147E3,8E2,8.95E2,9.84E2,6E0,5.89E2,5.081E3],"tree_param":{"num_deleted":"0","num_feature":"69","num_nodes":"57","size_leaf_vector":"1"}},{"base_weights":[3.2898266E-2,-1.6514455E-1,1.5758942E-1,-3.446219E-1,-3.276441E-2,2.3069967E-1,7.645188E-2,-4.5160362E-1,-2.365204E-1,-8.1097245E-2,9.8488845E-2,2.7407788E-2,2.3730482E-1,1.272038E-1,-1.3354066E-1,-6.004316E-1,-4.15626E-1,-4.3740296E-1,-1.3660835E-1,-6.947303E-4,-2.1660008E-1,1.4891674E-1,-4.9571274E-3,-1.4809383E-1,1.21684864E-1,-2.372159E-1,2.4010864E-1,7.450694E-2,1.9213612E-1,-2.6362E-1,-4.1942604E-2,-3.0771881E-2,-8.606558E-3,-2.673167E-2,-1.7238459E-2,-2.9663056E-2,-1.8075386E-2,-1.0309231E-2,-3.121296E-3,-2.2110974E-3,6.1339396E-3,-1.6125642E-2,-7.670533E-3,-1.1328125E-2,7.925688E-3,1.5989341E-3,-7.816712E-3,-1.7559525E-2,-1.2443439E-3,8.483841E-3,-4.3388433E-3,-1.3513513E-3,-2.6760563E-2,6.947296E-3,1.2264605E-2,7.342038E-3,-1.8642843E-3,6.2131207E-3,1.0970286E-2,-1.4593273E-2,9.732825E-3,-1.2517832E-2,8.4309373E-4],"categories":[],"categories_nodes":[],"categories_segments":[],"categories_sizes":[],"default_left":[0,0,0,0,0,0,0,0,0,0,0,0,0,0,0,0,0,0,0,0,0,0,0,0,0,0,0,0,0,0,0,0,0,0,0,0,0,0,0,0,0,0,0,0,0,0,0,0,0,0,0,0,0,0,0,0,0,0,0,0,0,0,0],"id":15,"left_children":[1,3,5,7,9,11,13,15,17,19,21,23,25,27,29,31,33,35,37,39,41,43,45,47,49,51,53,55,57,59,61,-1,-1,-1,-1,-1,-1,-1,-1,-1,-1,-1,-1,-1,-1,-1,-1,-1,-1,-1,-1,-1,-1,-1,-1,-1,-1,-1,-1,-1,-1,-1,-1],"loss_changes":[4.6961966E2,1.744937E2,6.916022E1,3.583026E1,2.6842697E1,8.193359E0,5.900031E1,7.928955E0,3.1035896E1,3.3666924E1,5.9599686E0,3.2474003E0,7.976074E0,1.5197586E1,1.2775747E1,1.6905823E0,1.0315674E1,5.693672E0,5.3130817E0,1.0429931E1,7.573719E0,2.7938805E0,2.1113017E0,1.6396633E0,1.3126786E0,2.1030688E0,3.000061E0,1.9949482E1,3.6086273E0,5.8325844E0,7.812642E0,0E0,0E0,0E0,0E0,0E0,0E0,0E0,0E0,0E0,0E0,0E0,0E0,0E0,0E0,0E0,0E0,0E0,0E0,0E0,0E0,0E0,0E0,0E0,0E0,0E0,0E0,0E0,0E0,0E0,0E0,0E0,0E0],"parents":[2147483647,0,0,1,1,2,2,3,3,4,4,5,5,6,6,7,7,8,8,9,9,10,10,11,11,12,12,13,13,14,14,15,15,16,16,17,17,18,18,19,19,20,20,21,21,22,22,23,23,24,24,25,25,26,26,27,27,28,28,29,29,30,30],"right_children":[2,4,6,8,10,12,14,16,18,20,22,24,26,28,30,32,34,36,38,40,42,44,46,48,50,52,54,56,58,60,62,-1,-1,-1,-1,-1,-1,-1,-1,-1,-1,-1,-1,-1,-1,-1,-1,-1,-1,-1,-1,-1,-1,-1,-1,-1,-1,-1,-1,-1,-1,-1,-1],"split_conditions":[1.3302011E2,5.9168203E3,8.436003E-1,2.5881904E-1,2.5881904E-1,1.2868602E2,4.4652375E-6,2.4882132E-12,2.6337328E-9,3.8852344E-9,2.7191994E-5,6.0068095E-1,5.556772E-22,5E-1,7.0710677E-1,1.27783615E2,-5E-1,8.8792045E-16,1.21448906E2,4.5143996E4,-7.0710677E-1,5.56638E-1,8.660254E-1,1.6972447E2,1.6E1,4.0815656E4,2.1159137E4,5.2675672E-17,1.3349801E4,1.3520389E2,6.456243E-4,-1.4192126E0,-8.901268E-1,-8.5386676E-1,-5.665118E-1,-1.3420479E0,-5.153212E-1,-3.1223193E-1,-1.2001782E-1,-7.66922E-2,3.75762E-1,-5.354477E-1,-2.70644E-1,-2.9105932E-1,4.0729028E-1,7.108574E-2,-1.9929448E-1,-2.8449622E-1,-1.0646172E-1,3.94555E-1,-2.1911393E-1,-1.2845154E-1,-4.97316E0,4.6826097E-1,1.9047912E0,4.3178597E-1,-5.7774734E-2,3.195549E-1,7.8602904E-1,-5.462848E-1,1.2323071E0,-3.7247583E-1,2.2257138E-2],"split_indices":[37,4,68,18,18,42,60,61,61,60,60,1,61,18,18,34,18,61,34,0,18,1,19,44,32,3,0,60,4,45,61,0,0,0,0,0,0,0,0,0,0,0,0,0,0,0,0,0,0,0,0,0,0,0,0,0,0,0,0,0,0,0,0],"split_type":[0,0,0,0,0,0,0,0,0,0,0,0,0,0,0,0,0,0,0,0,0,0,0,0,0,0,0,0,0,0,0,0,0,0,0,0,0,0,0,0,0,0,0,0,0,0,0,0,0,0,0,0,0,0,0,0,0,0,0,0,0,0,0],"sum_hessian":[1.9015E4,7.346E3,1.1669E4,3.117E3,4.229E3,6.136E3,5.533E3,1.564E3,1.553E3,3.092E3,1.137E3,1.94E2,5.942E3,4.457E3,1.076E3,3E2,1.264E3,5.14E2,1.039E3,1.942E3,1.15E3,7.65E2,3.72E2,6.7E1,1.27E2,3.4E1,5.908E3,2.463E3,1.994E3,4.43E2,6.33E2,2.89E2,1.1E1,4.68E2,7.96E2,1.65E2,3.49E2,5.34E2,5.05E2,1.437E3,5.05E2,4.27E2,7.23E2,1.8E1,7.47E2,2.99E2,7.3E1,2.4E1,4.3E1,1.04E2,2.3E1,2.1E1,1.3E1,2.91E2,5.617E3,1.496E3,9.67E2,5.75E2,1.419E3,4.18E2,2.5E1,1.39E2,4.94E2],"tree_param":{"num_deleted":"0","num_feature":"69","num_nodes":"63","size_leaf_vector":"1"}},{"base_weights":[3.22043E-2,-1.5756777E-1,1.525049E-1,-3.461234E-1,-4.309705E-2,7.536867E-2,2.2748674E-1,-4.5593062E-1,-2.3407343E-1,2.9596278E-2,-1.19278565E-1,-1.0033097E-1,1.2696601E-1,-4.478708E-2,2.339167E-1,-5.755737E-1,-3.9807206E-1,-4.882904E-1,-1.7570335E-1,-5.265411E-2,9.654346E-2,-7.5318655E-3,-2.5004855E-1,-3.137718E-1,-4.277214E-2,7.922874E-2,1.886015E-1,-3.2352943E-2,2.7515723E-3,2.3987481E-1,4.075775E-2,-2.9202152E-2,-6.097561E-4,-2.3416052E-2,-1.4599686E-2,-2.706998E-2,-1.6809117E-2,-1.1752254E-2,-3.1998982E-3,-5.159753E-3,4.453295E-3,2.7927717E-3,8.717774E-3,-3.3887092E-3,3.4816705E-3,-1.5374874E-2,-8.5780965E-3,5.392157E-3,-1.6453793E-2,-1.6481776E-2,-1.1664075E-4,9.027491E-3,7.3173124E-4,7.4049453E-3,1.1655922E-2,-2.0923913E-2,1.8246645E-3,9.539667E-3,1.23319095E-2,5.076058E-3,-1.6735537E-2],"categories":[],"categories_nodes":[],"categories_segments":[],"categories_sizes":[],"default_left":[0,0,0,0,0,0,0,0,0,0,0,0,0,0,0,0,0,0,0,0,0,0,0,0,0,0,0,0,0,0,0,0,0,0,0,0,0,0,0,0,0,0,0,0,0,0,0,0,0,0,0,0,0,0,0,0,0,0,0,0,0],"id":16,"left_children":[1,3,5,7,9,11,13,15,17,19,21,23,25,27,29,31,33,35,37,39,41,43,45,47,49,51,53,-1,55,57,59,-1,-1,-1,-1,-1,-1,-1,-1,-1,-1,-1,-1,-1,-1,-1,-1,-1,-1,-1,-1,-1,-1,-1,-1,-1,-1,-1,-1,-1,-1],"loss_changes":[4.3288364E2,1.5870065E2,6.7056366E1,3.395114E1,2.5376785E1,5.1903717E1,1.0340698E1,9.2786255E0,2.0248085E1,1.2915355E1,3.2651566E1,1.5891608E1,1.2962212E1,3.9983504E0,6.5615234E0,2.0644531E0,6.7951965E0,1.7196236E0,7.3825493E0,7.5425396E0,4.0480766E0,5.621841E0,4.5099716E0,1.8514805E0,1.1842177E1,1.6311092E1,3.3798294E0,0E0,1.768924E0,1.7286377E0,3.9801269E0,0E0,0E0,0E0,0E0,0E0,0E0,0E0,0E0,0E0,0E0,0E0,0E0,0E0,0E0,0E0,0E0,0E0,0E0,0E0,0E0,0E0,0E0,0E0,0E0,0E0,0E0,0E0,0E0,0E0,0E0],"parents":[2147483647,0,0,1,1,2,2,3,3,4,4,5,5,6,6,7,7,8,8,9,9,10,10,11,11,12,12,13,13,14,14,15,15,16,16,17,17,18,18,19,19,20,20,21,21,22,22,23,23,24,24,25,25,26,26,28,28,29,29,30,30],"right_children":[2,4,6,8,10,12,14,16,18,20,22,24,26,28,30,32,34,36,38,40,42,44,46,48,50,52,54,-1,56,58,60,-1,-1,-1,-1,-1,-1,-1,-1,-1,-1,-1,-1,-1,-1,-1,-1,-1,-1,-1,-1,-1,-1,-1,-1,-1,-1,-1,-1,-1,-1],"split_conditions":[1.3302011E2,1.6376978E-16,1.9035187E2,2.5881904E-1,3.8852344E-9,3.48132E4,1.2580171E6,1.8747579E-28,1.0967639E-13,-7.0710677E-1,5.6E1,2.5881904E-1,5E-1,1E0,8.436003E-1,1.6109134E2,-2.5881904E-1,4.5169554E0,8.660254E-1,4.6688258E4,1.7023117E-8,7.0710677E-1,3.37361E4,2.5294384E-1,6.303927E-6,9.999985E-1,1.4938054E-8,-5.612383E0,-8.9698456E2,7.5498854E-23,5E-1,-1.2031599E0,-1.1846848E0,-7.776188E-1,-4.501751E-1,-9.549452E-1,-7.2336257E-1,-3.7891236E-1,-1.1652527E-1,-2.0190659E-1,3.119568E-1,1.31995E-1,5.4346466E-1,-1.1246796E-1,1.4504471E-1,-5.2442664E-1,-2.7017996E-1,6.3819505E-2,-5.378546E-1,-5.203659E-1,-3.98407E-3,5.797329E-1,3.4574796E-2,4.2723247E-1,9.2010975E-1,-7.8862876E-1,1.4947739E-1,6.8143713E-1,2.0120876E0,2.8081408E-1,-1.2288818E0],"split_indices":[37,62,42,18,60,0,52,62,61,18,31,18,18,58,68,35,18,17,18,0,62,18,0,49,61,61,62,0,10,62,22,0,0,0,0,0,0,0,0,0,0,0,0,0,0,0,0,0,0,0,0,0,0,0,0,0,0,0,0,0,0],"split_type":[0,0,0,0,0,0,0,0,0,0,0,0,0,0,0,0,0,0,0,0,0,0,0,0,0,0,0,0,0,0,0,0,0,0,0,0,0,0,0,0,0,0,0,0,0,0,0,0,0,0,0,0,0,0,0,0,0,0,0,0,0],"sum_hessian":[1.8959E4,7.355E3,1.1604E4,2.777E3,4.578E3,5.722E3,5.882E3,1.4E3,1.377E3,2.342E3,2.236E3,1.298E3,4.424E3,1.35E2,5.747E3,4.52E2,9.48E2,2.55E2,1.122E3,1.05E3,1.292E3,1.207E3,1.029E3,2.74E2,1.024E3,2.496E3,1.928E3,9E0,1.26E2,5.574E3,1.73E2,4.45E2,7E0,5.67E2,3.81E2,1.86E2,6.9E1,7.31E2,3.91E2,7.75E2,2.75E2,8.51E2,4.41E2,6.79E2,5.28E2,5.91E2,4.38E2,9E0,2.65E2,1.25E2,8.99E2,9.7E2,1.526E3,1.014E3,9.14E2,8E0,1.18E2,6.82E2,4.892E3,1.5E2,2.3E1],"tree_param":{"num_deleted":"0","num_feature":"69","num_nodes":"61","size_leaf_vector":"1"}},{"base_weights":[3.6747873E-2,-1.4529158E-1,1.5052888E-1,-3.2043025E-1,-3.4391653E-2,7.2138615E-2,2.267554E-1,-2.229251E-1,-4.134469E-1,-7.5456515E-2,9.912398E-2,1.2039568E-1,-9.4490014E-2,5.9848923E-2,2.3699328E-1,-3.7222907E-1,-1.413843E-1,-6.139352E-1,-3.7532863E-1,3.5354856E-2,-1.652897E-1,-1.6287215E-1,1.3108195E-1,1.6937494E-1,5.8689717E-2,-5.4655872E-2,-3.807252E-1,-3.2812502E-2,8.408139E-2,2.4113968E-1,1.3081395E-2,-2.4597207E-2,-1.482462E-2,-1.1766161E-2,-4.649698E-3,-3.1963628E-2,-4.508197E-3,-1.3982281E-2,-2.143408E-2,-1.5950975E-3,3.7962769E-3,-1.2502926E-2,-4.75029E-3,-2.7480159E-2,-2.5498893E-3,4.6596364E-3,9.62134E-3,5.954022E-3,1.0927285E-2,-9.135121E-4,8.17824E-3,-4.6637622E-4,-1.1065235E-2,1.0054348E-2,-2.0727212E-2,7.1843537E-3,-5.7318653E-3,9.946701E-3,1.2359168E-2,-1.4361702E-2,6.2992126E-3],"categories":[],"categories_nodes":[],"categories_segments":[],"categories_sizes":[],"default_left":[0,0,0,0,0,0,0,0,0,0,0,0,0,0,0,0,0,0,0,0,0,0,0,0,0,0,0,0,0,0,0,0,0,0,0,0,0,0,0,0,0,0,0,0,0,0,0,0,0,0,0,0,0,0,0,0,0,0,0,0,0],"id":17,"left_children":[1,3,5,7,9,11,13,15,17,19,21,23,25,27,29,31,33,35,37,39,41,43,45,47,49,51,53,-1,55,57,59,-1,-1,-1,-1,-1,-1,-1,-1,-1,-1,-1,-1,-1,-1,-1,-1,-1,-1,-1,-1,-1,-1,-1,-1,-1,-1,-1,-1,-1,-1],"loss_changes":[3.926598E2,1.4154958E2,6.9645935E1,2.5426453E1,2.449271E1,4.628711E1,1.0042755E1,1.6699394E1,1.0612061E1,3.4043148E1,8.8140335E0,1.3443047E1,1.4643301E1,5.953237E0,5.129608E0,4.124054E0,4.002926E0,2.8498611E0,5.963669E0,4.1848965E0,1.1169411E1,4.817171E0,2.1139812E0,6.066551E0,1.5991789E1,8.545687E0,3.2251701E0,0E0,3.9826434E0,1.2688904E0,3.5183847E0,0E0,0E0,0E0,0E0,0E0,0E0,0E0,0E0,0E0,0E0,0E0,0E0,0E0,0E0,0E0,0E0,0E0,0E0,0E0,0E0,0E0,0E0,0E0,0E0,0E0,0E0,0E0,0E0,0E0,0E0],"parents":[2147483647,0,0,1,1,2,2,3,3,4,4,5,5,6,6,7,7,8,8,9,9,10,10,11,11,12,12,13,13,14,14,15,15,16,16,17,17,18,18,19,19,20,20,21,21,22,22,23,23,24,24,25,25,26,26,28,28,29,29,30,30],"right_children":[2,4,6,8,10,12,14,16,18,20,22,24,26,28,30,32,34,36,38,40,42,44,46,48,50,52,54,-1,56,58,60,-1,-1,-1,-1,-1,-1,-1,-1,-1,-1,-1,-1,-1,-1,-1,-1,-1,-1,-1,-1,-1,-1,-1,-1,-1,-1,-1,-1,-1,-1],"split_conditions":[1.3302011E2,2E0,1.9035187E2,1.1E1,8.098574E-9,7.047696E-15,1.4870532E6,2.3516855E4,1.7414363E-33,1.4E1,-1.3625795E4,1.2E1,1.4E1,1E0,8.5386723E-1,1.2081206E-35,7.243579E4,1.4788672E2,-8.660254E-1,3.2974324E4,3.517559E4,3.2183482E6,1.384867E2,4.1582234E4,4.6365297E4,7.241191E-7,2.907341E4,-4.6974654E0,1.4E1,3.6910984E-21,1.3479363E-10,-8.543234E-1,-4.140215E-1,-4.0694124E-1,-1.3060036E-1,-1.6689342E0,-1.1254505E0,-4.5517656E-1,-7.298716E-1,-4.5848753E-2,1.8268013E-1,-4.3907318E-1,-1.6588716E-1,-8.929071E-1,-7.5852014E-2,2.0653152E-1,5.6944925E-1,3.1738493E-1,7.8620034E-1,-1.9136429E-2,5.116005E-1,-1.8067837E-2,-3.8958666E-1,4.1650954E-1,-6.2329286E-1,5.0805205E-1,-2.6017055E-1,7.582688E-1,1.9682654E0,-4.1959572E-1,2.6807556E-1],"split_indices":[37,58,42,32,62,59,52,0,62,32,10,32,32,58,68,62,55,35,19,0,0,52,38,0,0,59,48,0,32,62,62,0,0,0,0,0,0,0,0,0,0,0,0,0,0,0,0,0,0,0,0,0,0,0,0,0,0,0,0,0,0],"split_type":[0,0,0,0,0,0,0,0,0,0,0,0,0,0,0,0,0,0,0,0,0,0,0,0,0,0,0,0,0,0,0,0,0,0,0,0,0,0,0,0,0,0,0,0,0,0,0,0,0,0,0,0,0,0,0,0,0,0,0,0,0],"sum_hessian":[1.8955E4,7.29E3,1.1665E4,2.825E3,4.465E3,5.753E3,5.912E3,1.382E3,1.443E3,3.416E3,1.049E3,4.462E3,1.291E3,3.43E2,5.569E3,4.86E2,8.96E2,2.27E2,1.216E3,1.529E3,1.887E3,1.13E2,9.36E2,2.485E3,1.977E3,1.135E3,1.56E2,1E1,3.33E2,5.467E3,1.02E2,1.85E2,3.01E2,3.02E2,5.94E2,2.16E2,1.1E1,4.39E2,7.77E2,5.74E2,9.55E2,8.53E2,1.034E3,2.4E1,8.9E1,5.82E2,3.54E2,1.232E3,1.253E3,1.14E3,8.37E2,8.94E2,2.41E2,8E0,1.48E2,2.57E2,7.6E1,6.93E2,4.774E3,2.7E1,7.5E1],"tree_param":{"num_deleted":"0","num_feature":"69","num_nodes":"61","size_leaf_vector":"1"}},{"base_weights":[3.7009723E-2,-1.3822119E-1,1.4845501E-1,-3.0746657E-1,-3.404665E-2,2.2402322E-1,7.0071235E-2,-2.2509909E-1,-4.1027078E-1,-9.494677E-2,5.417426E-2,2.9788282E-2,2.3828651E-1,1.1695125E-1,-1.265494E-1,-3.5458028E-1,-1.4966707E-1,-6.165557E-1,-3.6792725E-1,-2.3785603E-1,-7.64335E-3,-1.5817435E-2,1.1003657E-1,-2.9098362E-2,4.8962552E-2,2.013797E-1,2.4697426E-1,5.1787473E-2,1.7814687E-1,-3.2690713E-1,-6.9820344E-2,-2.905649E-2,-1.5755791E-2,-1.1609814E-2,-5.363112E-3,-3.1856027E-2,2.4305554E-3,-2.6732791E-2,-1.6262634E-2,-1.6575161E-2,-6.884785E-3,-3.1204347E-3,4.713045E-3,-3.8166996E-3,7.448245E-3,-2.0145044E-5,7.2330222E-3,-5.2227345E-3,6.21713E-3,3.2608695E-3,1.1350091E-2,2.4305554E-3,1.2359772E-2,-2.5509037E-3,5.8986903E-3,6.974832E-3,1.12596145E-2,-2.4406176E-2,-1.1883692E-2,-1.1677769E-2,-2.911679E-4],"categories":[],"categories_nodes":[],"categories_segments":[],"categories_sizes":[],"default_left":[0,0,0,0,0,0,0,0,0,0,0,0,0,0,0,0,0,0,0,0,0,0,0,0,0,0,0,0,0,0,0,0,0,0,0,0,0,0,0,0,0,0,0,0,0,0,0,0,0,0,0,0,0,0,0,0,0,0,0,0,0],"id":18,"left_children":[1,3,5,7,9,11,13,15,17,19,21,23,25,27,29,31,33,35,37,39,41,43,45,-1,47,49,51,53,55,57,59,-1,-1,-1,-1,-1,-1,-1,-1,-1,-1,-1,-1,-1,-1,-1,-1,-1,-1,-1,-1,-1,-1,-1,-1,-1,-1,-1,-1,-1,-1],"loss_changes":[3.707621E2,1.3005698E2,6.8678375E1,2.3598328E1,2.4566435E1,1.6316742E1,5.254914E1,1.513826E1,1.0482941E1,3.3712337E1,7.312874E0,4.718954E0,1.6372681E0,1.8310806E1,1.2383989E1,4.779541E0,3.3880348E0,3.0007706E0,7.05632E0,9.490936E0,9.384758E0,8.26161E0,3.9954443E0,0E0,4.588898E0,3.630207E0,1.3623047E-1,1.5205874E1,4.2210083E0,3.2217865E0,8.944672E0,0E0,0E0,0E0,0E0,0E0,0E0,0E0,0E0,0E0,0E0,0E0,0E0,0E0,0E0,0E0,0E0,0E0,0E0,0E0,0E0,0E0,0E0,0E0,0E0,0E0,0E0,0E0,0E0,0E0,0E0],"parents":[2147483647,0,0,1,1,2,2,3,3,4,4,5,5,6,6,7,7,8,8,9,9,10,10,11,11,12,12,13,13,14,14,15,15,16,16,17,17,18,18,19,19,20,20,21,21,22,22,24,24,25,25,26,26,27,27,28,28,29,29,30,30],"right_children":[2,4,6,8,10,12,14,16,18,20,22,24,26,28,30,32,34,36,38,40,42,44,46,-1,48,50,52,54,56,58,60,-1,-1,-1,-1,-1,-1,-1,-1,-1,-1,-1,-1,-1,-1,-1,-1,-1,-1,-1,-1,-1,-1,-1,-1,-1,-1,-1,-1,-1,-1],"split_conditions":[1.3284361E2,2E0,8.436003E-1,4.8E1,1.0197169E-10,1.3869214E6,2.7191994E-5,2.6337328E-9,1.0567981E-32,-5E-1,-7.0710677E-1,1E0,4.8649933E-18,2.7216652E-8,1.2246469E-16,1.6259523E4,-1.2053668E-1,1.4788672E2,-7.0710677E-1,6.431472E5,7.0710677E-1,8.7040894E5,3.7978254E4,-4.424974E0,1.2246469E-16,-5E-1,-5.9384254E1,2.5881904E-1,2.5881904E-1,1.8338885E-2,1.8994539E6,-1.6329815E0,-4.8984146E-1,-2.7295208E-1,-2.135992E-1,-1.4272957E0,4.4289342E-1,-8.7700385E-1,-5.4549724E-1,-6.0033494E-1,-2.5217858E-1,-1.20932676E-1,2.538042E-1,-1.6253816E-1,3.4926683E-1,-3.024292E-3,4.345154E-1,-1.4904976E-1,3.1270963E-1,2.3605347E-1,9.486567E-1,9.723645E-2,1.9677647E0,-9.229507E-2,2.811261E-1,3.8592035E-1,8.273625E-1,-1.0876973E0,-4.3588486E-1,-3.076435E-1,-9.6382145E-3],"split_indices":[38,58,68,31,62,52,60,61,62,18,18,58,62,62,18,0,25,35,18,55,18,55,0,0,18,18,15,18,18,61,52,0,0,0,0,0,0,0,0,0,0,0,0,0,0,0,0,0,0,0,0,0,0,0,0,0,0,0,0,0,0],"split_type":[0,0,0,0,0,0,0,0,0,0,0,0,0,0,0,0,0,0,0,0,0,0,0,0,0,0,0,0,0,0,0,0,0,0,0,0,0,0,0,0,0,0,0,0,0,0,0,0,0,0,0,0,0,0,0,0,0,0,0,0,0],"sum_hessian":[1.8983E4,7.379E3,1.1604E4,2.81E3,4.569E3,5.906E3,5.698E3,1.563E3,1.247E3,2.704E3,1.865E3,4.05E2,5.501E3,4.602E3,1.096E3,5.73E2,9.9E2,2.09E2,1.038E3,1.024E3,1.68E3,8.27E2,1.038E3,1.1E1,3.94E2,1.057E3,4.444E3,2.231E3,2.371E3,2.4E2,8.56E2,8.2E1,4.91E2,3.33E2,6.57E2,2.03E2,6E0,2.08E2,8.3E2,5.27E2,4.97E2,1.094E3,5.86E2,6.06E2,2.21E2,2.47E2,7.91E2,1.29E2,2.65E2,1.69E2,8.88E2,6E0,4.438E3,8.73E2,1.358E3,1.306E3,1.065E3,8.3E1,1.57E2,2.39E2,6.17E2],"tree_param":{"num_deleted":"0","num_feature":"69","num_nodes":"61","size_leaf_vector":"1"}},{"base_weights":[4.234065E-2,-1.0852534E-1,1.5616454E-1,1.697963E-2,-2.3603551E-1,7.6021045E-2,2.2356012E-1,1.0087269E-1,-4.4475578E-2,-4.049783E-1,-1.8332155E-1,1.3231717E-1,-8.652045E-2,-2.9734848E-2,2.2536917E-1,1.7611337E-1,5.718396E-2,-1.0432587E-1,6.437161E-2,-6.107804E-1,-3.6616963E-1,-9.707285E-2,-3.319751E-1,8.3706245E-2,1.8997751E-1,-4.6914585E-2,-3.321106E-1,-2.1643518E-1,2.2860384E-1,-3.7076272E-4,9.527004E-3,4.7872975E-3,-3.0269877E-3,-8.397925E-3,-2.110431E-3,-7.588699E-3,5.5830465E-3,-3.24893E-2,-4.508197E-3,-2.1220146E-2,-1.3174551E-2,-2.2708368E-3,-8.867826E-3,-1.7107852E-2,7.4380166E-3,6.7111216E-3,-2.465078E-4,1.1076541E-2,7.3810504E-3,6.197222E-4,-8.207954E-3,-2.6228933E-2,-9.958022E-3,-2.9098362E-2,-3.2608695E-3,7.511546E-3,1.1988613E-2],"categories":[],"categories_nodes":[],"categories_segments":[],"categories_sizes":[],"default_left":[0,0,0,0,0,0,0,0,0,0,0,0,0,0,0,0,0,0,0,0,0,0,0,0,0,0,0,0,0,0,0,0,0,0,0,0,0,0,0,0,0,0,0,0,0,0,0,0,0,0,0,0,0,0,0,0,0],"id":19,"left_children":[1,3,5,7,9,11,13,15,17,19,21,23,25,-1,27,29,31,33,35,37,39,41,43,45,47,49,51,53,55,-1,-1,-1,-1,-1,-1,-1,-1,-1,-1,-1,-1,-1,-1,-1,-1,-1,-1,-1,-1,-1,-1,-1,-1,-1,-1,-1,-1],"loss_changes":[3.282766E2,1.3158684E2,5.8788513E1,2.1374796E1,3.6141647E1,4.5591713E1,8.86441E0,5.7159863E0,1.5591611E1,7.317993E0,3.9786224E1,1.0311241E1,1.2386439E1,0E0,8.500275E0,1.7295284E0,5.061247E0,6.0636997E0,8.6840925E0,2.8891144E0,4.654907E0,8.131765E0,5.6760406E0,9.025483E0,2.1643143E0,7.7103853E0,4.300379E0,2.2452548E0,5.030304E0,0E0,0E0,0E0,0E0,0E0,0E0,0E0,0E0,0E0,0E0,0E0,0E0,0E0,0E0,0E0,0E0,0E0,0E0,0E0,0E0,0E0,0E0,0E0,0E0,0E0,0E0,0E0,0E0],"parents":[2147483647,0,0,1,1,2,2,3,3,4,4,5,5,6,6,7,7,8,8,9,9,10,10,11,11,12,12,14,14,15,15,16,16,17,17,18,18,19,19,20,20,21,21,22,22,23,23,24,24,25,25,26,26,27,27,28,28],"right_children":[2,4,6,8,10,12,14,16,18,20,22,24,26,-1,28,30,32,34,36,38,40,42,44,46,48,50,52,54,56,-1,-1,-1,-1,-1,-1,-1,-1,-1,-1,-1,-1,-1,-1,-1,-1,-1,-1,-1,-1,-1,-1,-1,-1,-1,-1,-1,-1],"split_conditions":[1.372436E2,8.149427E-5,1.780134E2,6E1,2.3284258E4,2.4355193E-8,1E0,1.3309858E-12,1.8129396E4,1.6259523E4,5.6E1,2.0510657E-7,6E1,-5.1864185E0,3E0,1.1074646E2,4.8E1,6.123234E-17,-9.387666E3,1.4397305E2,1.1701957E2,7.241191E-7,1.1281279E2,4.8E1,6E1,5.606874E-1,3.1168785E4,1.7178238E2,4.029776E-24,-1.3871728E-1,5.3470916E-1,2.0269556E-1,-7.686806E-2,-3.482046E-1,-7.280312E-2,-4.5130348E-1,3.0332765E-1,-6.289871E0,-2.6475868E-1,-7.00556E-1,-5.023621E-1,-9.07095E-2,-2.5350514E-1,-5.6995505E-1,1.0073608E0,3.723591E-1,-1.1853218E-2,7.9846495E-1,4.188635E-1,1.3512993E-2,-2.6134682E-1,-9.21785E-1,-4.1974068E-1,-1.5190166E0,-2.2569084E-1,5.072411E-1,1.6421067E0],"split_indices":[38,60,42,31,0,60,58,60,4,0,31,62,31,0,28,34,31,19,10,35,35,59,13,31,31,60,0,38,62,0,0,0,0,0,0,0,0,0,0,0,0,0,0,0,0,0,0,0,0,0,0,0,0,0,0,0,0],"split_type":[0,0,0,0,0,0,0,0,0,0,0,0,0,0,0,0,0,0,0,0,0,0,0,0,0,0,0,0,0,0,0,0,0,0,0,0,0,0,0,0,0,0,0,0,0,0,0,0,0,0,0,0,0,0,0,0,0],"sum_hessian":[1.9114E4,8.219E3,1.0895E4,4.142E3,4.077E3,4.979E3,5.916E3,1.752E3,2.39E3,9.67E2,3.11E3,3.699E3,1.28E3,1.2E1,5.904E3,6.41E2,1.111E3,1.543E3,8.47E2,1.5E2,8.17E2,1.97E3,1.14E3,2.01E3,1.689E3,1.104E3,1.76E2,4.2E1,5.862E3,4.6E1,5.95E2,8.38E2,2.73E2,7.6E2,7.83E2,1.51E2,6.96E2,1.39E2,1.1E1,5.18E2,2.99E2,1.201E3,7.69E2,1.117E3,2.3E1,1.281E3,7.29E2,9.63E2,7.26E2,7.33E2,3.71E2,7E1,1.06E2,1.1E1,3.1E1,7.35E2,5.127E3],"tree_param":{"num_deleted":"0","num_feature":"69","num_nodes":"57","size_leaf_vector":"1"}},{"base_weights":[4.151133E-2,-1.1532135E-1,1.4612664E-1,-2.6521784E-1,-1.7874196E-2,2.2072256E-1,6.6240326E-2,-3.5419932E-1,-1.7178103E-1,6.0761552E-2,-6.755274E-2,-4.1728765E-2,2.2682033E-1,-8.117702E-2,1.2182982E-1,-5.543006E-1,-3.1838426E-1,-4.7016557E-2,-2.6826012E-1,-1.9411376E-1,8.440485E-2,3.739648E-2,-1.4056502E-1,1.9074675E-2,-3.319672E-2,-1.287594E-1,2.3011464E-1,-2.0291643E-1,2.11792E-2,7.030512E-2,1.7963022E-1,-2.956292E-2,-9.375E-3,-1.6510768E-2,8.573717E-3,-9.838275E-3,-1.3531382E-3,-1.169509E-2,-2.129821E-2,-2.1334311E-2,-5.938242E-5,8.339717E-3,2.2747708E-3,-7.3343E-4,4.242026E-3,-9.332779E-3,-3.8657605E-3,3.5120149E-3,-1.5740741E-2,4.72973E-3,-1.4130435E-2,9.137916E-3,1.2071121E-2,-2.0086985E-2,-7.2262706E-3,-2.0657487E-3,4.8757433E-3,-6.3678186E-4,6.5331655E-3,7.166572E-3,1.1266883E-2],"categories":[],"categories_nodes":[],"categories_segments":[],"categories_sizes":[],"default_left":[0,0,0,0,0,0,0,0,0,0,0,0,0,0,0,0,0,0,0,0,0,0,0,0,0,0,0,0,0,0,0,0,0,0,0,0,0,0,0,0,0,0,0,0,0,0,0,0,0,0,0,0,0,0,0,0,0,0,0,0,0],"id":20,"left_children":[1,3,5,7,9,11,13,15,17,19,21,23,25,27,29,31,33,35,37,39,41,43,45,47,-1,49,51,53,55,57,59,-1,-1,-1,-1,-1,-1,-1,-1,-1,-1,-1,-1,-1,-1,-1,-1,-1,-1,-1,-1,-1,-1,-1,-1,-1,-1,-1,-1,-1,-1],"loss_changes":[3.1161533E2,1.1095325E2,6.783368E1,2.4733994E1,1.8004017E1,9.465607E0,4.5124092E1,1.0630875E1,1.7550354E1,1.0748932E1,2.1670109E1,5.1890135E0,6.794647E0,1.8813313E1,1.1854591E1,2.870781E0,7.6387634E0,1.8729916E0,4.247345E0,6.71945E0,5.194646E0,2.8754482E0,4.803337E0,2.0945563E0,0E0,1.8883858E0,2.9385376E0,7.8496456E0,3.9212854E0,1.0631494E1,3.0287476E0,0E0,0E0,0E0,0E0,0E0,0E0,0E0,0E0,0E0,0E0,0E0,0E0,0E0,0E0,0E0,0E0,0E0,0E0,0E0,0E0,0E0,0E0,0E0,0E0,0E0,0E0,0E0,0E0,0E0,0E0],"parents":[2147483647,0,0,1,1,2,2,3,3,4,4,5,5,6,6,7,7,8,8,9,9,10,10,11,11,12,12,13,13,14,14,15,15,16,16,17,17,18,18,19,19,20,20,21,21,22,22,23,23,25,25,26,26,27,27,28,28,29,29,30,30],"right_children":[2,4,6,8,10,12,14,16,18,20,22,24,26,28,30,32,34,36,38,40,42,44,46,48,-1,50,52,54,56,58,60,-1,-1,-1,-1,-1,-1,-1,-1,-1,-1,-1,-1,-1,-1,-1,-1,-1,-1,-1,-1,-1,-1,-1,-1,-1,-1,-1,-1,-1,-1],"split_conditions":[1.3405482E2,8.8151926E-16,8.436003E-1,2.5881904E-1,1.3309858E-12,9.421618E-38,3.5662266E4,1.7414363E-33,1.3128266E-6,-9.387666E3,4.8E1,3.4207863E4,1.1683116E2,7.0710677E-1,2.0510657E-7,-3.8753426E1,1.1424511E2,-2.625283E-1,2.3314148E4,7.0585666E-5,6E1,7.0710677E-1,-5E-1,3.7713534E5,-3.4791062E0,2.1975531E4,1.8410019E2,1.4667446E-19,3.197618E4,2.5881904E-1,1.2246469E-16,-1.1972382E0,-7.301971E-1,-5.283352E-1,1.0519819E0,-3.905243E-1,-6.118002E-2,-3.6359826E-1,-7.144065E-1,-7.495022E-1,-1.0445023E-2,4.7207376E-1,8.719788E-2,-2.153778E-2,2.0811081E-1,-3.430748E-1,-1.4015102E-1,2.0262603E-1,-4.9108735E-1,1.3955365E-1,-2.6091385E-1,6.952519E-1,1.6218668E0,-7.7542686E-1,-2.0641842E-1,-7.4345015E-2,1.7280312E-1,-1.6278649E-2,3.4230328E-1,3.914833E-1,8.624325E-1],"split_indices":[38,62,68,18,60,62,0,62,59,10,31,54,46,18,62,15,13,50,54,62,31,18,18,55,0,3,38,62,0,18,18,0,0,0,0,0,0,0,0,0,0,0,0,0,0,0,0,0,0,0,0,0,0,0,0,0,0,0,0,0,0],"split_type":[0,0,0,0,0,0,0,0,0,0,0,0,0,0,0,0,0,0,0,0,0,0,0,0,0,0,0,0,0,0,0,0,0,0,0,0,0,0,0,0,0,0,0,0,0,0,0,0,0,0,0,0,0,0,0,0,0,0,0,0,0],"sum_hessian":[1.899E4,7.598E3,1.1392E4,2.992E3,4.606E3,5.889E3,5.503E3,1.53E3,1.462E3,1.782E3,2.824E3,1.33E2,5.756E3,1.506E3,3.997E3,2.29E2,1.301E3,6.39E2,8.23E2,1.5E2,1.632E3,1.158E3,1.666E3,1.22E2,1.1E1,5.2E1,5.704E3,6.88E2,8.18E2,2.116E3,1.881E3,2.07E2,2.2E1,1.271E3,3E1,7.3E1,5.66E2,6.79E2,1.44E2,6.7E1,8.3E1,5.21E2,1.111E3,5.51E2,6.07E2,9.61E2,7.05E2,1.07E2,1.5E1,2.1E1,3.1E1,1.106E3,4.598E3,1.54E2,5.34E2,4.49E2,3.69E2,8.9E2,1.226E3,1.053E3,8.28E2],"tree_param":{"num_deleted":"0","num_feature":"69","num_nodes":"61","size_leaf_vector":"1"}},{"base_weights":[4.3029066E-2,-8.109746E-2,1.7208569E-1,-2.2433311E-1,1.2520983E-2,9.606767E-2,2.2883971E-1,-1.3281818E-1,-3.1751534E-1,9.22792E-2,-3.334952E-2,5.5588257E-2,1.8351658E-1,7.594562E-2,2.3378415E-1,-2.9277313E-1,-7.245757E-2,-4.6043316E-1,-2.6847255E-1,1.7176833E-2,1.4769205E-1,-1.0833082E-1,5.3488236E-2,-5.679496E-2,8.6577244E-2,2.158667E-1,1.2516585E-1,1.5048209E-1,-3.5119048E-1,2.3881517E-1,1.4452006E-1,-1.1625514E-2,-1.9952178E-2,-2.2153042E-3,-8.86687E-3,-2.524027E-2,-8.320552E-3,-8.5864775E-3,-1.5368322E-2,2.1354773E-3,-3.0603062E-3,8.906919E-3,4.026411E-3,-8.378596E-3,-2.4493583E-3,1.3428195E-4,6.759738E-3,-1.6508574E-3,-1.8781094E-2,4.5581157E-3,-2.7467106E-2,1.12686865E-2,4.092527E-3,2.7726433E-4,8.0895135E-3,-1.0054348E-2,8.691691E-3,-2.3626374E-2,-6.097561E-4,1.0260704E-2,1.2283671E-2,8.5089775E-3,-6.4049587E-3],"categories":[],"categories_nodes":[],"categories_segments":[],"categories_sizes":[],"default_left":[0,0,0,0,0,0,0,0,0,0,0,0,0,0,0,0,0,0,0,0,0,0,0,0,0,0,0,0,0,0,0,0,0,0,0,0,0,0,0,0,0,0,0,0,0,0,0,0,0,0,0,0,0,0,0,0,0,0,0,0,0,0,0],"id":21,"left_children":[1,3,5,7,9,11,13,15,17,19,21,23,25,27,29,31,33,35,37,39,41,43,45,47,49,51,53,55,57,59,61,-1,-1,-1,-1,-1,-1,-1,-1,-1,-1,-1,-1,-1,-1,-1,-1,-1,-1,-1,-1,-1,-1,-1,-1,-1,-1,-1,-1,-1,-1,-1,-1],"loss_changes":[3.0339203E2,1.294797E2,3.9984283E1,3.242476E1,2.137188E1,1.4013004E1,3.949646E0,1.8536488E1,1.2983887E1,8.849831E0,2.4147018E1,9.476886E0,2.2858086E0,5.4201684E0,2.2121887E0,3.1702003E0,4.097353E0,6.0633926E0,5.170967E0,1.8179698E0,2.4514294E0,6.95438E0,7.106814E0,4.375389E0,6.208289E0,9.564018E-1,1.954926E0,1.229914E0,9.569199E-1,9.937134E-1,1.9855514E0,0E0,0E0,0E0,0E0,0E0,0E0,0E0,0E0,0E0,0E0,0E0,0E0,0E0,0E0,0E0,0E0,0E0,0E0,0E0,0E0,0E0,0E0,0E0,0E0,0E0,0E0,0E0,0E0,0E0,0E0,0E0,0E0],"parents":[2147483647,0,0,1,1,2,2,3,3,4,4,5,5,6,6,7,7,8,8,9,9,10,10,11,11,12,12,13,13,14,14,15,15,16,16,17,17,18,18,19,19,20,20,21,21,22,22,23,23,24,24,25,25,26,26,27,27,28,28,29,29,30,30],"right_children":[2,4,6,8,10,12,14,16,18,20,22,24,26,28,30,32,34,36,38,40,42,44,46,48,50,52,54,56,58,60,62,-1,-1,-1,-1,-1,-1,-1,-1,-1,-1,-1,-1,-1,-1,-1,-1,-1,-1,-1,-1,-1,-1,-1,-1,-1,-1,-1,-1,-1,-1,-1,-1],"split_conditions":[1.4566867E2,6.268357E-15,1.7727032E2,4.4E1,4.8E1,2.4120837E-7,1.4588335E6,2.6337328E-9,1.0077672E-27,1.0492121E4,1.145989E-9,1.2629713E2,6.8E1,6E1,8.436003E-1,8.660254E-1,4.113671E-1,1.3114113E2,-8.660254E-1,8.660254E-1,8.660254E-1,1.3773516E4,4.6688258E4,3.8910198E-1,2.1175759E-1,1E0,6.123234E-17,1.3159122E4,7.186125E1,3.3327742E-17,1.8404369E-1,-3.341053E-1,-6.406666E-1,-9.356995E-2,-2.575903E-1,-9.9113655E-1,-5.3272885E-1,-3.0886918E-1,-4.869322E-1,1.01280406E-1,-1.4862119E-1,5.0771856E-1,2.4495125E-1,-2.9840335E-1,-1.2360201E-1,4.5930864E-3,3.679943E-1,-7.2005466E-2,-7.002495E-1,2.4231206E-1,-3.4800878E0,7.477932E-1,2.0404588E-1,4.4929506E-3,4.6436843E-1,-2.5989666E0,5.0921136E-1,-4.8078996E-1,-4.9438247E-1,6.992119E-1,1.8427466E0,6.0286564E-1,-2.887848E-1],"split_indices":[37,62,34,31,31,62,52,61,62,4,62,35,31,31,68,19,8,36,19,19,19,41,0,50,59,19,19,0,12,62,57,0,0,0,0,0,0,0,0,0,0,0,0,0,0,0,0,0,0,0,0,0,0,0,0,0,0,0,0,0,0,0,0],"split_type":[0,0,0,0,0,0,0,0,0,0,0,0,0,0,0,0,0,0,0,0,0,0,0,0,0,0,0,0,0,0,0,0,0,0,0,0,0,0,0,0,0,0,0,0,0,0,0,0,0,0,0,0,0,0,0,0,0,0,0,0,0,0,0],"sum_hessian":[1.8936E4,9.652E3,9.284E3,3.815E3,5.837E3,3.971E3,5.313E3,1.927E3,1.888E3,2.132E3,3.705E3,2.717E3,1.254E3,1.68E2,5.145E3,5.26E2,1.401E3,4.79E2,1.409E3,9.07E2,1.225E3,1.989E3,1.716E3,5.86E2,2.131E3,8.03E2,4.51E2,1.44E2,2.4E1,4.867E3,2.78E2,3.39E2,1.87E2,1.107E3,2.94E2,4.15E2,6.4E1,4.07E2,1.002E3,6.86E2,2.21E2,8.4E2,3.85E2,9.93E2,9.96E2,1.06E3,6.56E2,5.47E2,3.9E1,2.117E3,1.4E1,7.48E2,5.5E1,1.07E2,3.44E2,8E0,1.36E2,1.7E1,7E0,8.35E2,4.032E3,2.55E2,2.3E1],"tree_param":{"num_deleted":"0","num_feature":"69","num_nodes":"63","size_leaf_vector":"1"}},{"base_weights":[4.6835285E-2,-1.07299976E-1,1.4372821E-1,-2.8875366E-1,-3.9589662E-2,6.96314E-2,2.1557645E-1,-4.0032715E-1,-1.803303E-1,5.1894702E-2,-8.580215E-2,-2.5597725E-2,1.3111697E-1,8.034585E-2,2.272953E-1,-3.4559056E-1,-4.9644077E-1,-1.2884772E-1,-3.1488138E-1,-4.6388224E-2,9.9568896E-2,-1.8996128E-1,-9.451934E-3,-1.653407E-1,2.2621324E-2,1.7403655E-1,6.497237E-2,9.7576804E-2,-2.594697E-2,1.7529815E-1,2.4229984E-1,-1.7631622E-2,5.392157E-3,-2.7644057E-2,-1.4450128E-2,-1.2897029E-2,-4.0818215E-3,-1.3459106E-2,-2.7962087E-2,1.3940032E-3,-9.22271E-3,7.670544E-3,1.9564077E-3,-1.287341E-2,-6.7025023E-3,-2.2260945E-3,4.759353E-3,-1.8502476E-2,-5.521606E-3,-5.554791E-3,2.9877212E-3,1.7441862E-3,9.209791E-3,8.583711E-3,-7.9674224E-5,-3.179348E-2,5.6252754E-3,4.0880926E-3,1.0776165E-2,-4.6195653E-3,1.2149922E-2],"categories":[],"categories_nodes":[],"categories_segments":[],"categories_sizes":[],"default_left":[0,0,0,0,0,0,0,0,0,0,0,0,0,0,0,0,0,0,0,0,0,0,0,0,0,0,0,0,0,0,0,0,0,0,0,0,0,0,0,0,0,0,0,0,0,0,0,0,0,0,0,0,0,0,0,0,0,0,0,0,0],"id":22,"left_children":[1,3,5,7,9,11,13,15,17,19,21,23,25,27,29,31,33,35,37,39,41,43,45,47,49,51,53,55,-1,57,59,-1,-1,-1,-1,-1,-1,-1,-1,-1,-1,-1,-1,-1,-1,-1,-1,-1,-1,-1,-1,-1,-1,-1,-1,-1,-1,-1,-1,-1,-1],"loss_changes":[2.8321716E2,8.986281E1,6.1929733E1,2.3877869E1,2.255348E1,3.36007E1,9.298126E0,4.814041E0,6.88937E0,8.396923E0,2.815344E1,1.5188359E1,9.847549E0,4.894273E0,4.1284485E0,2.088211E0,3.793785E0,4.3984804E0,2.801777E0,6.02E0,3.8891916E0,5.554657E0,7.510064E0,6.3780136E0,8.308258E0,2.9454155E0,9.793474E0,5.0681543E0,0E0,4.540325E0,1.0348816E0,0E0,0E0,0E0,0E0,0E0,0E0,0E0,0E0,0E0,0E0,0E0,0E0,0E0,0E0,0E0,0E0,0E0,0E0,0E0,0E0,0E0,0E0,0E0,0E0,0E0,0E0,0E0,0E0,0E0,0E0],"parents":[2147483647,0,0,1,1,2,2,3,3,4,4,5,5,6,6,7,7,8,8,9,9,10,10,11,11,12,12,13,13,14,14,15,15,16,16,17,17,18,18,19,19,20,20,21,21,22,22,23,23,24,24,25,25,26,26,27,27,29,29,30,30],"right_children":[2,4,6,8,10,12,14,16,18,20,22,24,26,28,30,32,34,36,38,40,42,44,46,48,50,52,54,56,-1,58,60,-1,-1,-1,-1,-1,-1,-1,-1,-1,-1,-1,-1,-1,-1,-1,-1,-1,-1,-1,-1,-1,-1,-1,-1,-1,-1,-1,-1,-1,-1],"split_conditions":[1.3302011E2,7.855806E-20,1.9035187E2,2.5881904E-1,6.869903E-12,1.3601361E4,1.7017482E2,4.8270994E-1,3.8003502E-4,-8.660254E-1,-2.5881904E-1,2.5881904E-1,6E1,7.300023E-1,4.405837E3,5.2101006E1,6.521695E1,5.0164395E4,8.926264E-2,2.1E2,1.1480765E-25,9.9990875E-1,8.660254E-1,6.454083E3,4.8008164E3,6.42681E-1,9.9997085E-1,3E0,-2.6245656E0,0E0,1.1452212E2,-5.891674E-1,1.8008767E-1,-9.731869E-1,-5.3382075E-1,-3.8417035E-1,-1.4835206E-1,-4.2601785E-1,-8.35474E-1,4.047661E-2,-3.6810312E-1,4.0982515E-1,7.736216E-2,-4.2272568E-1,-2.6387587E-1,-7.1147636E-2,1.866808E-1,-6.61479E-1,-1.8223324E-1,-2.1592398E-1,1.2321339E-1,1.1431332E-1,5.5303174E-1,4.6240196E-1,-3.6779405E-3,-1.3999897E0,3.4561846E-1,2.1753407E-1,8.5175437E-1,-3.3861598E-1,1.6865433E0],"split_indices":[37,62,42,18,60,4,37,57,59,18,18,18,31,57,4,14,45,55,5,28,59,61,18,4,4,1,61,28,0,18,35,0,0,0,0,0,0,0,0,0,0,0,0,0,0,0,0,0,0,0,0,0,0,0,0,0,0,0,0,0,0],"split_type":[0,0,0,0,0,0,0,0,0,0,0,0,0,0,0,0,0,0,0,0,0,0,0,0,0,0,0,0,0,0,0,0,0,0,0,0,0,0,0,0,0,0,0,0,0,0,0,0,0,0,0,0,0,0,0,0,0,0,0,0,0],"sum_hessian":[1.8961E4,7.318E3,1.1643E4,1.987E3,5.331E3,5.734E3,5.909E3,9.77E2,1.01E3,1.788E3,3.543E3,2.249E3,3.485E3,4.73E2,5.436E3,6.27E2,3.5E2,7.33E2,2.77E2,5.83E2,1.205E3,1.497E3,2.046E3,5.77E2,1.672E3,2.111E3,1.374E3,4.61E2,1.2E1,1.223E3,4.213E3,6.18E2,9E0,2.73E2,7.7E1,1.94E2,5.39E2,2.36E2,4.1E1,3.79E2,2.04E2,6.35E2,5.7E2,6.75E2,8.22E2,1.534E3,5.12E2,1.2E2,4.57E2,3.62E2,1.31E3,1.45E2,1.966E3,5.28E2,8.46E2,8E0,4.53E2,3.7E2,8.53E2,8E0,4.205E3],"tree_param":{"num_deleted":"0","num_feature":"69","num_nodes":"61","size_leaf_vector":"1"}},{"base_weights":[4.8987146E-2,-8.91184E-2,1.4173982E-1,1.536143E-2,-1.9205824E-1,6.733039E-2,2.2315034E-1,-5.5828653E-2,8.363523E-2,-2.706183E-1,-1.0511177E-1,1.700765E-2,1.4529933E-1,3.40106E-2,2.2710736E-1,-8.480136E-2,1.7507274E-1,4.6859544E-2,1.4523743E-1,-4.236691E-1,-2.344171E-1,-2.104804E-1,-3.2232706E-2,-1.3397282E-2,1.2685138E-1,8.211643E-2,1.9500461E-1,7.461977E-2,-2.0923913E-2,2.3405322E-1,1.19062304E-1,-6.2622163E-3,4.2323456E-3,9.359233E-3,-4.6195653E-3,4.1034567E-4,6.106777E-3,7.901826E-3,-7.988722E-4,-3.3234797E-2,-1.8888377E-2,-1.5531962E-2,-8.947008E-3,-1.7508563E-2,-8.346464E-3,-3.1875595E-4,-6.0341284E-3,-4.577871E-3,3.0976222E-3,7.2039114E-3,-5.49812E-3,7.223874E-3,-1.0084789E-3,7.893935E-3,1.16113005E-2,-1.036036E-2,7.4821855E-3,1.22143915E-2,9.772598E-3,9.836901E-3,-0E0],"categories":[],"categories_nodes":[],"categories_segments":[],"categories_sizes":[],"default_left":[0,0,0,0,0,0,0,0,0,0,0,0,0,0,0,0,0,0,0,0,0,0,0,0,0,0,0,0,0,0,0,0,0,0,0,0,0,0,0,0,0,0,0,0,0,0,0,0,0,0,0,0,0,0,0,0,0,0,0,0,0],"id":23,"left_children":[1,3,5,7,9,11,13,15,17,19,21,23,25,27,29,31,33,35,37,39,41,43,45,47,49,51,53,55,-1,57,59,-1,-1,-1,-1,-1,-1,-1,-1,-1,-1,-1,-1,-1,-1,-1,-1,-1,-1,-1,-1,-1,-1,-1,-1,-1,-1,-1,-1,-1,-1],"loss_changes":[2.4297356E2,8.1986336E1,6.867645E1,1.8392845E1,2.6133255E1,2.3244411E1,4.0059814E0,1.2388504E1,4.3403463E0,1.0947571E1,1.3971468E1,1.2066352E1,7.241562E0,2.0659657E0,3.8949585E0,1.1300205E1,7.029581E-1,3.509191E0,1.5104008E0,3.781845E0,6.765953E0,4.3858604E0,2.4528303E0,1.6649822E1,3.2192354E0,6.5743036E0,1.6928215E0,2.2528987E0,0E0,1.8450623E0,2.998283E0,0E0,0E0,0E0,0E0,0E0,0E0,0E0,0E0,0E0,0E0,0E0,0E0,0E0,0E0,0E0,0E0,0E0,0E0,0E0,0E0,0E0,0E0,0E0,0E0,0E0,0E0,0E0,0E0,0E0,0E0],"parents":[2147483647,0,0,1,1,2,2,3,3,4,4,5,5,6,6,7,7,8,8,9,9,10,10,11,11,12,12,13,13,14,14,15,15,16,16,17,17,18,18,19,19,20,20,21,21,22,22,23,23,24,24,25,25,26,26,27,27,29,29,30,30],"right_children":[2,4,6,8,10,12,14,16,18,20,22,24,26,28,30,32,34,36,38,40,42,44,46,48,50,52,54,56,-1,58,60,-1,-1,-1,-1,-1,-1,-1,-1,-1,-1,-1,-1,-1,-1,-1,-1,-1,-1,-1,-1,-1,-1,-1,-1,-1,-1,-1,-1,-1,-1],"split_conditions":[1.3421481E2,1.1374278E-4,1.7920811E2,-5E-1,2.5881904E-1,1.6423816E4,8.523511E-15,9.170979E5,1.425968E4,5.903777E-11,1.7483522E6,2.2262254E2,-2.5881904E-1,3.6355394E5,8.436003E-1,8.2298386E-1,9.999994E-1,7.0710677E-1,1E0,-5E-1,-5E-1,3.126261E-15,6.239749E-1,7.0710677E-1,8.436003E-1,9.999991E-1,2.0212666E4,9.788391E5,-4.6477604E-1,2.5977373E-1,1.422968E-22,-2.2016335E-1,1.7263432E-1,4.7257957E-1,-1.6018467E-1,1.1286164E-2,3.0133706E-1,4.426201E-1,-2.2924805E-2,-8.973423E-1,-7.696037E-1,-5.7866806E-1,-2.925314E-1,-7.157798E-1,-2.2624055E-1,-2.4258137E-2,-1.9030257E-1,-1.7195359E-1,1.4194317E-1,5.013549E-1,-1.5922575E-1,3.8106385E-1,-1.7894555E-2,4.1830063E-1,7.962494E-1,-1.435333E0,2.7042466E-1,1.7484044E0,6.8148595E-1,5.853409E-1,-4.2118646E-2],"split_indices":[34,60,34,18,18,4,61,55,4,61,52,44,18,55,68,24,61,18,19,18,18,61,65,18,68,61,4,52,0,60,59,0,0,0,0,0,0,0,0,0,0,0,0,0,0,0,0,0,0,0,0,0,0,0,0,0,0,0,0,0,0],"split_type":[0,0,0,0,0,0,0,0,0,0,0,0,0,0,0,0,0,0,0,0,0,0,0,0,0,0,0,0,0,0,0,0,0,0,0,0,0,0,0,0,0,0,0,0,0,0,0,0,0,0,0,0,0,0,0,0,0,0,0,0,0],"sum_hessian":[1.8965E4,7.619E3,1.1346E4,3.781E3,3.838E3,5.93E3,5.416E3,1.85E3,1.931E3,2.014E3,1.824E3,3.606E3,2.324E3,1.12E2,5.304E3,1.645E3,2.05E2,1.212E3,7.19E2,3.82E2,1.632E3,7.44E2,1.08E3,2.824E3,7.82E2,1.026E3,1.298E3,1.04E2,8E0,4.981E3,3.23E2,1.329E3,3.16E2,1.97E2,8E0,8.03E2,4.09E2,6.67E2,5.2E1,5.8E1,3.24E2,6.84E2,9.48E2,1.74E2,5.7E2,8.38E2,2.42E2,1.387E3,1.437E3,7.3E2,5.2E1,6.38E2,3.88E2,6.55E2,6.43E2,2.1E1,8.3E1,3.929E3,1.052E3,1.95E2,1.28E2],"tree_param":{"num_deleted":"0","num_feature":"69","num_nodes":"61","size_leaf_vector":"1"}},{"base_weights":[4.795556E-2,-4.7405783E-2,1.8814239E-1,-1.787504E-1,3.4802567E-2,2.1929274E-1,9.573975E-2,-2.312083E-1,-5.4551072E-2,-9.560357E-3,1.16739005E-1,1.625113E-1,2.4012907E-1,-4.1410547E-2,1.597946E-1,-3.6652708E-1,-1.8594716E-1,-2.2831383E-1,-2.1647405E-2,-4.58858E-2,1.12829715E-1,5.3668037E-2,1.5491706E-1,4.0479958E-2,2.0176038E-1,2.1322303E-1,2.4556187E-1,-1.5026902E-1,3.7165925E-2,-8.545918E-2,1.6723682E-1,-1.9609023E-2,-2.233677E-3,-1.3575412E-2,-6.358201E-3,-8.571846E-3,-2.4644887E-2,-4.2735046E-4,-8.714789E-3,-5.5169477E-3,-9.303112E-5,-5.2368725E-3,7.865726E-3,7.058945E-4,4.8387097E-3,6.614521E-3,1.1563045E-2,-7.933579E-3,3.6940526E-3,-2.6358698E-2,1.037257E-2,-1.10197365E-2,1.1120959E-2,4.6195653E-3,1.2291978E-2,-9.687229E-3,8.573717E-3,2.8863365E-3,-1.1607143E-2,-1.7598685E-2,3.6706352E-3,8.978288E-3,3.391873E-3],"categories":[],"categories_nodes":[],"categories_segments":[],"categories_sizes":[],"default_left":[0,0,0,0,0,0,0,0,0,0,0,0,0,0,0,0,0,0,0,0,0,0,0,0,0,0,0,0,0,0,0,0,0,0,0,0,0,0,0,0,0,0,0,0,0,0,0,0,0,0,0,0,0,0,0,0,0,0,0,0,0,0,0],"id":24,"left_children":[1,3,5,7,9,11,13,15,17,19,21,23,25,27,29,31,33,35,37,39,41,43,45,47,49,51,53,55,57,59,61,-1,-1,-1,-1,-1,-1,-1,-1,-1,-1,-1,-1,-1,-1,-1,-1,-1,-1,-1,-1,-1,-1,-1,-1,-1,-1,-1,-1,-1,-1,-1,-1],"loss_changes":[2.5380688E2,1.2202278E2,2.205133E1,2.8284592E1,2.5277344E1,6.6911926E0,1.707941E1,1.8559692E1,7.3560762E0,2.0039059E1,5.8393745E0,7.369152E0,4.8217773E-1,5.311574E0,2.4463997E0,6.22316E0,1.1437561E1,2.8869448E0,2.1509178E0,9.852531E0,1.0008059E1,1.5573533E0,2.5330276E0,2.5237417E0,4.9376984E0,2.9270172E0,7.009888E-2,3.6828775E0,1.9788828E0,1.7325845E0,1.5244904E0,0E0,0E0,0E0,0E0,0E0,0E0,0E0,0E0,0E0,0E0,0E0,0E0,0E0,0E0,0E0,0E0,0E0,0E0,0E0,0E0,0E0,0E0,0E0,0E0,0E0,0E0,0E0,0E0,0E0,0E0,0E0,0E0],"parents":[2147483647,0,0,1,1,2,2,3,3,4,4,5,5,6,6,7,7,8,8,9,9,10,10,11,11,12,12,13,13,14,14,15,15,16,16,17,17,18,18,19,19,20,20,21,21,22,22,23,23,24,24,25,25,26,26,27,27,28,28,29,29,30,30],"right_children":[2,4,6,8,10,12,14,16,18,20,22,24,26,28,30,32,34,36,38,40,42,44,46,48,50,52,54,56,58,60,62,-1,-1,-1,-1,-1,-1,-1,-1,-1,-1,-1,-1,-1,-1,-1,-1,-1,-1,-1,-1,-1,-1,-1,-1,-1,-1,-1,-1,-1,-1,-1,-1],"split_conditions":[1.5706294E2,7.3293325E3,8.436003E-1,7.0710677E-1,2.5881904E-1,5.430579E-16,1.4363818E4,4.510146E-28,1.8474308E-10,2.0990205E4,1.1342468E4,-2.5881904E-1,2.972777E-13,7.0710677E-1,-9.659258E-1,1.5915244E2,-2.5881904E-1,1.25451515E2,8.090823E1,-7.0710677E-1,-9.387666E3,8.660254E-1,1.877118E4,5.685661E-29,1E0,-5.1567534E3,1.5756984E2,1.3520389E2,5.0784515E-6,6.674842E1,5.0833267E3,-7.084652E-1,-9.5682144E-2,-4.972046E-1,-2.2254467E-1,-2.2849217E-1,-7.526038E-1,-1.7850304E-2,-2.0641127E-1,-2.0878105E-1,-3.6507607E-3,-1.3529272E-1,4.5554408E-1,4.9934674E-2,2.2719231E-1,3.434723E-1,7.802971E-1,-2.854599E-1,1.700615E-1,-4.612489E0,7.373325E-1,-3.1739408E-1,1.0058835E0,4.3247604E-1,1.7511879E0,-3.2701322E-1,1.2144598E0,1.4602299E-1,-1.5493193E-1,-5.4470205E-1,3.280571E-1,4.7868806E-1,2.022293E-1],"split_indices":[37,4,68,18,18,62,4,62,61,4,4,18,62,18,18,36,18,37,45,18,10,18,4,62,58,10,37,45,59,45,9,0,0,0,0,0,0,0,0,0,0,0,0,0,0,0,0,0,0,0,0,0,0,0,0,0,0,0,0,0,0,0,0],"split_type":[0,0,0,0,0,0,0,0,0,0,0,0,0,0,0,0,0,0,0,0,0,0,0,0,0,0,0,0,0,0,0,0,0,0,0,0,0,0,0,0,0,0,0,0,0,0,0,0,0,0,0,0,0,0,0,0,0,0,0,0,0,0,0],"sum_hessian":[1.8982E4,1.1297E4,7.685E3,4.349E3,6.948E3,5.745E3,1.94E3,3.056E3,1.293E3,4.507E3,2.441E3,1.547E3,4.198E3,6.17E2,1.323E3,7.63E2,2.293E3,2.04E2,1.089E3,3.477E3,1.03E3,9.23E2,1.518E3,3.78E2,1.169E3,7.18E2,3.48E3,2.59E2,3.58E2,3.8E1,1.285E3,7.06E2,5.7E1,9.31E2,1.362E3,1.7E2,3.4E1,1.005E3,8.4E1,1.409E3,2.068E3,1.74E2,8.56E2,4.84E2,4.39E2,1.175E3,3.43E2,5.3E1,3.25E2,8E0,1.161E3,1.4E1,7.04E2,8E0,3.472E3,2.29E2,3E1,3.34E2,2.4E1,1.4E1,2.4E1,1.141E3,1.44E2],"tree_param":{"num_deleted":"0","num_feature":"69","num_nodes":"63","size_leaf_vector":"1"}},{"base_weights":[5.019925E-2,-3.895173E-2,1.8264909E-1,3.884852E-2,-1.5465203E-1,1.0845912E-1,2.2096665E-1,-3.0508414E-2,8.68797E-2,-2.3668475E-1,-8.017256E-2,-1.4573269E-1,1.2116034E-1,2.3247421E-1,1.3909294E-1,1.193609E-1,-7.047606E-2,1.9065829E-1,6.368642E-2,-3.29917E-1,-1.826547E-1,-2.2738537E-1,-4.2845216E-2,-3.028274E-1,3.6082473E-2,1.6439928E-1,7.932503E-2,1.5744814E-1,2.3818927E-1,1.929551E-1,-3.8303692E-2,-1.960456E-3,8.67452E-3,-6.1214534E-3,4.6755947E-4,1.0146663E-2,2.9524541E-3,1.5045125E-3,7.514719E-3,-1.782759E-2,2.956081E-4,-1.1162058E-2,-2.2941546E-3,-1.4417787E-2,-4.930468E-3,-4.752618E-3,5.4866413E-4,-2.303665E-2,-4.304636E-3,-8.2848845E-3,6.042654E-3,6.106961E-3,1.0435664E-2,7.347443E-3,-2.396638E-3,8.854521E-3,-3.6706352E-3,1.0932284E-2,1.2333931E-2,-1.5936255E-3,1.0944008E-2,3.816106E-3,-9.423676E-3],"categories":[],"categories_nodes":[],"categories_segments":[],"categories_sizes":[],"default_left":[0,0,0,0,0,0,0,0,0,0,0,0,0,0,0,0,0,0,0,0,0,0,0,0,0,0,0,0,0,0,0,0,0,0,0,0,0,0,0,0,0,0,0,0,0,0,0,0,0,0,0,0,0,0,0,0,0,0,0,0,0,0,0],"id":25,"left_children":[1,3,5,7,9,11,13,15,17,19,21,23,25,27,29,31,33,35,37,39,41,43,45,47,49,51,53,55,57,59,61,-1,-1,-1,-1,-1,-1,-1,-1,-1,-1,-1,-1,-1,-1,-1,-1,-1,-1,-1,-1,-1,-1,-1,-1,-1,-1,-1,-1,-1,-1,-1,-1],"loss_changes":[2.2463304E2,1.0236457E2,2.1678177E1,2.265845E1,2.7864716E1,8.444651E0,4.6579285E0,1.6661938E1,9.618942E0,1.0803009E1,1.3131529E1,3.6005492E0,4.446926E0,1.7905273E0,6.0153856E0,5.051261E0,9.130708E0,1.1291904E0,9.532269E0,7.1679916E0,7.6089363E0,3.7095413E0,5.397828E0,2.1702042E0,1.0128158E0,2.2048645E0,1.0937002E1,1.474072E0,5.460968E-1,2.841179E0,2.5506744E0,0E0,0E0,0E0,0E0,0E0,0E0,0E0,0E0,0E0,0E0,0E0,0E0,0E0,0E0,0E0,0E0,0E0,0E0,0E0,0E0,0E0,0E0,0E0,0E0,0E0,0E0,0E0,0E0,0E0,0E0,0E0,0E0],"parents":[2147483647,0,0,1,1,2,2,3,3,4,4,5,5,6,6,7,7,8,8,9,9,10,10,11,11,12,12,13,13,14,14,15,15,16,16,17,17,18,18,19,19,20,20,21,21,22,22,23,23,24,24,25,25,26,26,27,27,28,28,29,29,30,30],"right_children":[2,4,6,8,10,12,14,16,18,20,22,24,26,28,30,32,34,36,38,40,42,44,46,48,50,52,54,56,58,60,62,-1,-1,-1,-1,-1,-1,-1,-1,-1,-1,-1,-1,-1,-1,-1,-1,-1,-1,-1,-1,-1,-1,-1,-1,-1,-1,-1,-1,-1,-1,-1,-1],"split_conditions":[1.5706294E2,9.638134E-12,1.2582299E2,-5E-1,2.5881904E-1,9E0,3.2336628E-1,5.5446054E-35,3.2354654E-29,1.1799467E-6,1.8474308E-10,9.9734974E-1,9.412403E-23,1.7817934E2,1.5E1,-9.387666E3,1.27757935E2,4.799156E4,8.660254E-1,1.0383638E2,7.818315E-1,1.2779573E2,1.8338885E-2,5E-1,-5E-1,7.695183E1,1E0,4.242199E4,2.5802466E2,3.09136E-16,4.052343E-1,-3.9761066E-2,4.3725204E-1,-2.2679977E-1,1.7312622E-2,5.796936E-1,2.3171882E-1,6.0816098E-2,3.4334335E-1,-6.186334E-1,3.850937E-4,-3.9334297E-1,-1.0988045E-1,-5.566422E-1,-2.268837E-1,-1.6022797E-1,2.1862699E-2,-9.436793E-1,-2.6106033E-1,-3.97204E-1,1.9958344E-1,3.626488E-1,5.456711E-1,4.4160682E-1,-8.934708E-2,6.3165855E-1,-4.7026064E-2,1.0396649E0,1.6909918E0,-5.2508544E-2,8.9046633E-1,1.04291156E-1,-2.968895E-1],"split_indices":[37,59,13,18,18,28,57,59,59,61,61,61,59,37,32,10,42,40,18,13,20,35,61,18,18,45,67,48,44,61,57,0,0,0,0,0,0,0,0,0,0,0,0,0,0,0,0,0,0,0,0,0,0,0,0,0,0,0,0,0,0,0,0],"split_type":[0,0,0,0,0,0,0,0,0,0,0,0,0,0,0,0,0,0,0,0,0,0,0,0,0,0,0,0,0,0,0,0,0,0,0,0,0,0,0,0,0,0,0,0,0,0,0,0,0,0,0,0,0,0,0,0,0,0,0,0,0,0,0],"sum_hessian":[1.902E4,1.1368E4,7.652E3,6.797E3,4.571E3,2.609E3,5.043E3,2.78E3,4.017E3,2.173E3,2.398E3,1.23E2,2.486E3,4.418E3,6.25E2,5.84E2,2.196E3,7.31E2,3.286E3,7.94E2,1.379E3,4.83E2,1.915E3,6.6E1,5.7E1,1.219E3,1.267E3,3.17E2,4.101E3,4.8E2,1.45E2,1.48E2,4.36E2,1.331E3,8.65E2,6.67E2,6.4E1,2.37E3,9.16E2,7.36E2,5.8E1,1.062E3,3.17E2,3.26E2,1.57E2,9.73E2,9.42E2,3.7E1,2.9E1,1.6E1,4.1E1,6.28E2,5.91E2,8.28E2,4.39E2,2.93E2,2.4E1,1.257E3,2.844E3,4.9E1,4.31E2,8.2E1,6.3E1],"tree_param":{"num_deleted":"0",