{"learner":{"attributes":{"scikit_learn":"{\"_estimator_type\": \"regressor\"}"},"feature_names":["residual_load","residual_load_normalised","renewable_penetration","wind_solar_combined","thermal_gap","net_import_ratio","de_fr_flow","fr_nuclear_avail","solar_share_of_peak_hours","wind_ramp_rate","solar_ramp_rate","actual_gas_generation_mw","actual_lignite_generation_mw","gas_plus_lignite_mw","thermal_share","ttf_gas_price","eua_carbon_price","clean_spark_spread","dark_spread","gas_to_coal_switch_price","ttf_7d_change","eua_7d_change","hour_sin","hour_cos","dow_sin","dow_cos","month_sin","month_cos","woy_sin","woy_cos","is_weekend","is_german_holiday","days_since_year_start","season","is_peak_hour","quarter_hour_of_day","hour_of_day","week_of_year","price_lag_24h","price_lag_48h","price_lag_72h","price_lag_168h","price_lag_336h","price_lag_672h","price_lag_8736h","residual_load_lag_24h","residual_load_lag_168h","wind_lag_24h","price_roll7d_mean","price_roll7d_std","price_roll7d_max","price_roll7d_min","price_roll28d_mean","price_roll28d_std","residual_load_roll7d_mean","renewable_pen_roll7d_mean","price_roll7d_skewness","negative_price_freq_7d","month_in_summer","gas_x_residual_load","wind_x_offpeak","solar_x_summer_weekend","summer_solar_weekend","residual_load_x_hour","fr_nuclear_x_de_load","renewable_pen_x_weekend","price_regime","regime_probability_0","regime_probability_1","regime_probability_2","regime_probability_3","dunkelflaute_day_index","dunkelflaute_severity","solar_cannibal_risk","post_ukraine_war","post_nuclear_phaseout","years_since_ukraine_war","negative_price_probability"],"feature_types":["float","float","float","float","float","float","float","float","float","float","float","float","float","float","float","float","float","float","float","float","float","float","float","float","float","float","float","float","float","float","float","float","float","float","float","float","float","float","float","float","float","float","float","float","float","float","float","float","float","float","float","float","float","float","float","float","float","float","float","float","float","float","float","float","float","float","int","float","float","float","float","int","int","float","float","float","float","float"],"gradient_booster":{"model":{"gbtree_model_param":{"num_parallel_tree":"1","num_trees":"200"},"iteration_indptr":[0,1,2,3,4,5,6,7,8,9,10,11,12,13,14,15,16,17,18,19,20,21,22,23,24,25,26,27,28,29,30,31,32,33,34,35,36,37,38,39,40,41,42,43,44,45,46,47,48,49,50,51,52,53,54,55,56,57,58,59,60,61,62,63,64,65,66,67,68,69,70,71,72,73,74,75,76,77,78,79,80,81,82,83,84,85,86,87,88,89,90,91,92,93,94,95,96,97,98,99,100,101,102,103,104,105,106,107,108,109,110,111,112,113,114,115,116,117,118,119,120,121,122,123,124,125,126,127,128,129,130,131,132,133,134,135,136,137,138,139,140,141,142,143,144,145,146,147,148,149,150,151,152,153,154,155,156,157,158,159,160,161,162,163,164,165,166,167,168,169,170,171,172,173,174,175,176,177,178,179,180,181,182,183,184,185,186,187,188,189,190,191,192,193,194,195,196,197,198,199,200],"tree_info":[0,0,0,0,0,0,0,0,0,0,0,0,0,0,0,0,0,0,0,0,0,0,0,0,0,0,0,0,0,0,0,0,0,0,0,0,0,0,0,0,0,0,0,0,0,0,0,0,0,0,0,0,0,0,0,0,0,0,0,0,0,0,0,0,0,0,0,0,0,0,0,0,0,0,0,0,0,0,0,0,0,0,0,0,0,0,0,0,0,0,0,0,0,0,0,0,0,0,0,0,0,0,0,0,0,0,0,0,0,0,0,0,0,0,0,0,0,0,0,0,0,0,0,0,0,0,0,0,0,0,0,0,0,0,0,0,0,0,0,0,0,0,0,0,0,0,0,0,0,0,0,0,0,0,0,0,0,0,0,0,0,0,0,0,0,0,0,0,0,0,0,0,0,0,0,0,0,0,0,0,0,0,0,0,0,0,0,0,0,0,0,0,0,0,0,0,0,0,0,0],"trees":[{"base_weights":[3.4821732E0,-2.1595735E2,1.7467593E2,-3.5827884E2,-1.8244508E2,1.3860379E2,3.0343854E2,-9.734027E0,-5.0268884E0,-1.8538455E2,1.06732544E2,1.167999E2,1.8918199E2,2.3292532E2,3.4436075E2,-1.7103137E2,-2.1266644E2,1.7911466E0,4.6600193E-1,1.0760589E2,2.0925845E2,1.19635155E2,1.9968324E2,1.2120265E2,2.4447882E2,3.5633752E2,1.9641585E2,-2.5954752E0,-1.8287194E0,-3.1087365E0,-2.4543338E0,1.5738684E0,-4.0884023E0,2.6531138E0,5.53748E0,1.9392728E0,1.055648E0,3.118882E0,2.4657154E0,1.2555583E0,1.9679782E0,2.5685093E0,3.7358272E0,4.5138474E0,5.7043777E0,3.3738382E0,2.2863786E0],"categories":[],"categories_nodes":[],"categories_segments":[],"categories_sizes":[],"default_left":[0,0,0,0,0,0,0,0,0,0,0,0,0,0,0,0,0,0,0,0,0,0,0,0,0,0,0,0,0,0,0,0,0,0,0,0,0,0,0,0,0,0,0,0,0,0,0],"id":0,"left_children":[1,3,5,7,9,11,13,-1,-1,15,17,19,21,23,25,27,29,-1,-1,31,33,35,37,39,41,43,45,-1,-1,-1,-1,-1,-1,-1,-1,-1,-1,-1,-1,-1,-1,-1,-1,-1,-1,-1,-1],"loss_changes":[3.456528E8,1.9112752E7,2.3930352E7,1.86304E6,2.813688E6,4.415936E6,3.112744E6,0E0,0E0,1.200352E6,3.7112656E4,2.363176E6,8.43144E5,4.88508E5,1.131704E6,8.11728E5,7.6696E4,0E0,0E0,1.684284E6,9.87818E5,9.5508E4,4.36004E5,7.48E2,2.86566E5,8.89648E5,1.364625E4,0E0,0E0,0E0,0E0,0E0,0E0,0E0,0E0,0E0,0E0,0E0,0E0,0E0,0E0,0E0,0E0,0E0,0E0,0E0,0E0],"parents":[2147483647,0,0,1,1,2,2,3,3,4,4,5,5,6,6,9,9,10,10,11,11,12,12,13,13,14,14,15,15,16,16,19,19,20,20,21,21,22,22,23,23,24,24,25,25,26,26],"right_children":[2,4,6,8,10,12,14,-1,-1,16,18,20,22,24,26,28,30,-1,-1,32,34,36,38,40,42,44,46,-1,-1,-1,-1,-1,-1,-1,-1,-1,-1,-1,-1,-1,-1,-1,-1,-1,-1,-1,-1],"split_conditions":[1.7726453E2,1E0,5.334052E2,6.2435197E-6,3.8009E2,4.4803714E2,4.1999E2,-9.734027E0,-5.0268884E0,1.7968286E0,5.3476083E-1,4.647195E2,2.956E3,2.27525E3,2.45E2,1.14455394E-1,1.4333E2,1.7911466E0,4.6600193E-1,5.8877987E-1,7.6E2,3.1817785E-1,1.2783E4,1.1326E4,2.32E2,4.5695E4,6.601351E-2,-2.5954752E0,-1.8287194E0,-3.1087365E0,-2.4543338E0,1.5738684E0,-4.0884023E0,2.6531138E0,5.53748E0,1.9392728E0,1.055648E0,3.118882E0,2.4657154E0,1.2555583E0,1.9679782E0,2.5685093E0,3.7358272E0,4.5138474E0,5.7043777E0,3.3738382E0,2.2863786E0],"split_indices":[48,66,17,68,42,17,43,0,0,76,8,48,11,11,32,70,43,0,0,2,40,2,12,12,32,46,2,0,0,0,0,0,0,0,0,0,0,0,0,0,0,0,0,0,0,0,0],"split_type":[0,0,0,0,0,0,0,0,0,0,0,0,0,0,0,0,0,0,0,0,0,0,0,0,0,0,0,0,0,0,0,0,0,0,0,0,0,0,0,0,0,0,0,0,0,0,0],"sum_hessian":[9.197386E3,4.0305142E3,5.166871E3,7.6480145E2,3.2657126E3,4.039128E3,1.1277433E3,1.8356756E1,7.464447E2,3.233501E3,3.22117E1,2.8266375E3,1.2124905E3,4.1863217E2,7.0911115E2,2.1275007E3,1.1060004E3,2.5065151E1,7.146551E0,2.5745798E3,2.5205757E2,1.620362E2,1.0504543E3,4.120398E1,3.774282E2,6.53622E2,5.5489193E1,1.7596012E3,3.6789948E2,1.0243069E3,8.169344E1,2.5653147E3,9.265161E0,2.2367664E2,2.838094E1,1.1991895E2,4.2117237E1,6.545808E2,3.9587347E2,1.6600029E1,2.460395E1,7.3187035E1,3.0424115E2,3.2049445E2,3.3312753E2,2.2998951E1,3.2490242E1],"tree_param":{"num_deleted":"0","num_feature":"78","num_nodes":"47","size_leaf_vector":"1"}},{"base_weights":[2.153925E0,-2.1034167E2,1.6990974E2,-3.4858182E2,-1.8116438E2,1.381613E2,2.9646136E2,-4.944459E0,-8.421012E0,-1.8351564E2,7.043615E1,1.1614566E2,1.9127847E2,2.5666446E2,3.7122787E2,-1.989166E2,-1.6732306E2,-9.3355435E-1,9.76667E1,-4.2453685E0,1.1810434E2,1.5665019E2,2.0347302E2,1.3999309E2,2.7579663E2,6.0163484E0,3.102294E2,-2.5162075E0,-3.0108573E0,-2.5442095E0,-1.9796088E0,4.6065444E-1,1.6959035E0,1.570821E0,2.95314E0,2.4162037E0,1.4631588E0,3.2132914E0,2.5358407E0,1.4052286E0,2.3763602E0,3.2209752E0,4.3707232E0,3.478466E0,4.8056717E0],"categories":[],"categories_nodes":[],"categories_segments":[],"categories_sizes":[],"default_left":[0,0,0,0,0,0,0,0,0,0,0,0,0,0,0,0,0,0,0,0,0,0,0,0,0,0,0,0,0,0,0,0,0,0,0,0,0,0,0,0,0,0,0,0,0],"id":1,"left_children":[1,3,5,7,9,11,13,-1,-1,15,17,19,21,23,25,27,29,-1,31,-1,33,35,37,39,41,-1,43,-1,-1,-1,-1,-1,-1,-1,-1,-1,-1,-1,-1,-1,-1,-1,-1,-1,-1],"loss_changes":[3.2775408E8,1.6245392E7,2.0568816E7,5.40256E5,2.007312E6,4.766784E6,2.887168E6,0E0,0E0,7.67712E5,1.3074731E5,2.405624E6,4.49172E5,1.441436E6,7.60628E5,3.4578E5,4.06732E5,0E0,2.950075E4,0E0,2.24832E6,1.638475E5,4.01884E5,7.549925E4,7.10312E5,0E0,1.08281E5,0E0,0E0,0E0,0E0,0E0,0E0,0E0,0E0,0E0,0E0,0E0,0E0,0E0,0E0,0E0,0E0,0E0,0E0],"parents":[2147483647,0,0,1,1,2,2,3,3,4,4,5,5,6,6,9,9,10,10,11,11,12,12,13,13,14,14,15,15,16,16,18,18,20,20,21,21,22,22,23,23,24,24,26,26],"right_children":[2,4,6,8,10,12,14,-1,-1,16,18,20,22,24,26,28,30,-1,32,-1,34,36,38,40,42,-1,44,-1,-1,-1,-1,-1,-1,-1,-1,-1,-1,-1,-1,-1,-1,-1,-1,-1,-1],"split_conditions":[1.7726453E2,1E0,4.7899E2,1.3497192E0,2.8937E2,3.9213E2,5.9197E2,-4.944459E0,-8.421012E0,1.751E2,5.185975E4,4.36625E3,1.5943E4,2.9852807E-9,4.16975E3,1E0,5.6939628E-2,-9.3355435E-1,5.351E4,-4.2453685E0,4.647195E2,1.2467E4,1.281225E4,2.51695E4,4.5176624E2,6.0163484E0,3.597025E4,-2.5162075E0,-3.0108573E0,-2.5442095E0,-1.9796088E0,4.6065444E-1,1.6959035E0,1.570821E0,2.95314E0,2.4162037E0,1.4631588E0,3.2132914E0,2.5358407E0,1.4052286E0,2.3763602E0,3.2209752E0,4.3707232E0,3.478466E0,4.8056717E0],"split_indices":[48,66,18,65,42,18,18,0,0,44,0,0,13,70,60,75,70,0,0,0,48,12,12,0,48,0,46,0,0,0,0,0,0,0,0,0,0,0,0,0,0,0,0,0,0],"split_type":[0,0,0,0,0,0,0,0,0,0,0,0,0,0,0,0,0,0,0,0,0,0,0,0,0,0,0,0,0,0,0,0,0,0,0,0,0,0,0,0,0,0,0,0,0],"sum_hessian":[9.190681E3,4.0544546E3,5.136226E3,7.03117E2,3.3513376E3,4.1091694E3,1.0270566E3,6.9160364E2,1.1513354E1,3.320799E3,3.0538399E1,2.909208E3,1.1999614E3,6.75568E2,3.514887E2,1.6914283E3,1.6293708E3,4.695468E0,2.5842932E1,1.2510145E1,2.8966978E3,3.1911282E2,8.808485E2,9.7317696E1,5.782503E2,1.9377493E2,1.5771378E2,5.0381653E2,1.1876118E3,1.2384799E3,3.90891E2,7.146551E0,1.869638E1,2.6257761E3,2.7092163E2,2.628049E2,5.630794E1,5.075678E2,3.7328073E2,3.9303963E1,5.8013733E1,2.051591E2,3.7309116E2,4.509265E1,1.12621124E2],"tree_param":{"num_deleted":"0","num_feature":"78","num_nodes":"45","size_leaf_vector":"1"}},{"base_weights":[-2.717164E-1,-2.0476534E2,1.6595293E2,-4.8914566E0,-1.7753375E2,1.3632932E2,3.004108E2,-2.05234E2,-1.6004648E2,1.1592396E2,1.8594978E2,2.4678651E2,3.4916516E2,-2.0685628E2,-2.1383646E0,-1.6258713E2,9.509691E1,1.1164975E2,3.3786523E2,1.6711755E2,2.143378E2,1.8779678E2,2.6839288E2,4.019869E2,2.8924112E2,-3.096937E0,-2.817386E0,-2.3870618E0,-3.953954E-1,4.5536828E-1,1.7601534E0,-4.196271E0,1.6369243E0,2.647211E0,5.1106825E0,1.5806384E0,2.513896E0,3.2303882E0,2.3128438E0,1.919206E0,3.0022256E0,3.1578958E0,4.402853E0,6.0638895E0,3.4402695E0,1.8171904E0,4.3592067E0],"categories":[],"categories_nodes":[],"categories_segments":[],"categories_sizes":[],"default_left":[0,0,0,0,0,0,0,0,0,0,0,0,0,0,0,0,0,0,0,0,0,0,0,0,0,0,0,0,0,0,0,0,0,0,0,0,0,0,0,0,0,0,0,0,0,0,0],"id":2,"left_children":[1,3,5,-1,7,9,11,13,15,17,19,21,23,25,-1,27,29,31,33,35,37,39,41,43,45,-1,-1,-1,-1,-1,-1,-1,-1,-1,-1,-1,-1,-1,-1,-1,-1,-1,-1,-1,-1,-1,-1],"loss_changes":[3.094712E8,1.4861808E7,1.9928528E7,0E0,1.586632E6,4.13084E6,2.208904E6,6.4548E4,1.384488E6,2.704168E6,5.7448E5,4.65158E5,1.274136E6,3.904E4,0E0,8.50232E5,3.0333281E4,2.311528E6,2.1513E4,2.71722E5,1.83632E5,8.75995E4,4.55274E5,5.6898E5,4.20732E5,0E0,0E0,0E0,0E0,0E0,0E0,0E0,0E0,0E0,0E0,0E0,0E0,0E0,0E0,0E0,0E0,0E0,0E0,0E0,0E0,0E0,0E0],"parents":[2147483647,0,0,1,1,2,2,4,4,5,5,6,6,7,7,8,8,9,9,10,10,11,11,12,12,13,13,15,15,16,16,17,17,18,18,19,19,20,20,21,21,22,22,23,23,24,24],"right_children":[2,4,6,-1,8,10,12,14,16,18,20,22,24,26,-1,28,30,32,34,36,38,40,42,44,46,-1,-1,-1,-1,-1,-1,-1,-1,-1,-1,-1,-1,-1,-1,-1,-1,-1,-1,-1,-1,-1,-1],"split_conditions":[1.7726453E2,1E0,5.461872E2,-4.8914566E0,7.9167725E1,4.588449E2,6.2800757E2,1.8509E2,3.8009E2,6.7997E2,7.818315E-1,2.4056578E-6,9.410703E-21,3.609003E-4,-2.1383646E0,9.622781E-1,2.8679E4,8.8352844E-2,5.148564E-1,2.24475E3,9.05725E3,3.84975E3,3.8175204E2,-7.485108E-1,5.545801E-1,-3.096937E0,-2.817386E0,-2.3870618E0,-3.953954E-1,4.5536828E-1,1.7601534E0,-4.196271E0,1.6369243E0,2.647211E0,5.1106825E0,1.5806384E0,2.513896E0,3.2303882E0,2.3128438E0,1.919206E0,3.0022256E0,3.1578958E0,4.402853E0,6.0638895E0,3.4402695E0,1.8171904E0,4.3592067E0],"split_indices":[48,66,17,0,52,17,17,41,42,40,24,70,67,70,0,1,4,1,1,11,60,11,52,28,1,0,0,0,0,0,0,0,0,0,0,0,0,0,0,0,0,0,0,0,0,0,0],"split_type":[0,0,0,0,0,0,0,0,0,0,0,0,0,0,0,0,0,0,0,0,0,0,0,0,0,0,0,0,0,0,0,0,0,0,0,0,0,0,0,0,0,0,0,0,0,0,0],"sum_hessian":[9.100613E3,4.080392E3,5.020221E3,6.8273663E2,3.3976555E3,4.1168774E3,9.033437E2,1.3072723E3,2.090383E3,2.9215522E3,1.1953252E3,4.354648E2,4.6787888E2,1.2663035E3,4.0968872E1,2.0704302E3,1.9953022E1,2.8690474E3,5.2504974E1,7.2618E2,4.6914514E2,1.2149119E2,3.139736E2,2.431293E2,2.2474957E2,7.210704E2,5.4523315E2,2.024103E3,4.632714E1,7.146551E0,1.2806472E1,1.2488642E1,2.8565586E3,7.3031406E0,4.520183E1,8.557204E1,6.40608E2,3.917638E2,7.738136E1,3.6953003E1,8.4538185E1,1.4042519E2,1.7354843E2,2.154068E2,2.7722515E1,1.8352566E1,2.0639702E2],"tree_param":{"num_deleted":"0","num_feature":"78","num_nodes":"47","size_leaf_vector":"1"}},{"base_weights":[-4.193632E0,1.6291277E2,-2.0748848E2,2.6236984E2,1.2473526E2,-3.4346658E2,-1.7845825E2,2.0251471E2,3.3634274E2,-4.387377E0,1.2761078E2,-4.7912626E0,-9.632367E0,-1.6341434E2,-2.0464296E2,-4.008294E0,2.0969551E2,2.0439742E2,3.593826E2,1.0497983E2,1.4615309E2,-1.4266312E2,-1.7599203E2,-2.0712914E2,-2.3630416E0,1.6668283E0,3.1882374E0,1.7526624E0,3.402345E0,5.4311314E0,2.474606E0,1.2653353E0,1.8331376E0,3.5779707E0,1.9842788E0,-2.0784318E0,4.501427E-1,-2.5962086E0,-2.3938785E0,-2.998586E0,-2.0444405E0],"categories":[],"categories_nodes":[],"categories_segments":[],"categories_sizes":[],"default_left":[0,0,0,0,0,0,0,0,0,0,0,0,0,0,0,0,0,0,0,0,0,0,0,0,0,0,0,0,0,0,0,0,0,0,0,0,0,0,0,0,0],"id":3,"left_children":[1,3,5,7,9,11,13,15,17,-1,19,-1,-1,21,23,-1,25,27,29,31,33,35,37,39,-1,-1,-1,-1,-1,-1,-1,-1,-1,-1,-1,-1,-1,-1,-1,-1,-1],"loss_changes":[3.1269968E8,1.9122712E7,1.6280432E7,6.072744E6,4.580868E6,2.191544E6,1.288352E6,2.792884E6,1.760328E6,0E0,1.495644E6,0E0,0E0,5.24316E5,6.3488E4,0E0,7.87452E5,2.0177325E5,1.6178E6,6.0629E5,1.656468E6,2.36284E5,9.52E2,1.8992E4,0E0,0E0,0E0,0E0,0E0,0E0,0E0,0E0,0E0,0E0,0E0,0E0,0E0,0E0,0E0,0E0,0E0],"parents":[2147483647,0,0,1,1,2,2,3,3,4,4,5,5,6,6,7,7,8,8,10,10,13,13,14,14,16,16,17,17,18,18,19,19,20,20,21,21,22,22,23,23],"right_children":[2,4,6,8,10,12,14,16,18,-1,20,-1,-1,22,24,-1,26,28,30,32,34,36,38,40,-1,-1,-1,-1,-1,-1,-1,-1,-1,-1,-1,-1,-1,-1,-1,-1,-1],"split_conditions":[8.4314394E-1,-7.5407904E-1,2.408425E4,4.0448E4,7.9605E3,1.3497192E0,1.7968286E0,1.02425E3,5.1412E2,-4.387377E0,4.341E4,-4.7912626E0,-9.632367E0,1.4788236E-28,1.61E2,-4.008294E0,3.9681E2,3.3421E2,2.45E2,4.7592974E-1,1.1753E4,4.499E2,1.652122E6,1.9467E2,-2.3630416E0,1.6668283E0,3.1882374E0,1.7526624E0,3.402345E0,5.4311314E0,2.474606E0,1.2653353E0,1.8331376E0,3.5779707E0,1.9842788E0,-2.0784318E0,4.501427E-1,-2.5962086E0,-2.3938785E0,-2.998586E0,-2.0444405E0],"split_indices":[76,56,0,46,0,65,76,0,41,0,0,0,0,67,41,0,41,39,32,76,12,42,59,42,0,0,0,0,0,0,0,0,0,0,0,0,0,0,0,0,0],"split_type":[0,0,0,0,0,0,0,0,0,0,0,0,0,0,0,0,0,0,0,0,0,0,0,0,0,0,0,0,0,0,0,0,0,0,0,0,0,0,0,0,0],"sum_hessian":[9.201019E3,5.0501807E3,4.1508374E3,1.3978564E3,3.6523245E3,7.267809E2,3.4240564E3,7.7643695E2,6.214195E2,2.303042E1,3.629294E3,7.066229E2,2.0157982E1,2.1830618E3,1.2409949E3,1.0412906E1,7.6602405E2,9.50625E1,5.26357E2,1.6399338E3,1.9893601E3,8.323646E2,1.350697E3,1.1624253E3,7.856957E1,8.6045074E1,6.7997894E2,2.8782356E1,6.628014E1,4.7973233E2,4.6624702E1,9.304182E2,7.095156E2,1.4806491E2,1.8412952E3,8.252181E2,7.146551E0,9.269267E2,4.237704E2,1.1416095E3,2.081578E1],"tree_param":{"num_deleted":"0","num_feature":"78","num_nodes":"41","size_leaf_vector":"1"}},{"base_weights":[2.7266772E0,-2.007598E2,1.64974E2,-3.3603424E2,-1.713657E2,1.3398697E2,2.917984E2,-4.76898E0,-8.135675E0,-1.7355264E2,1.0080159E2,1.1446E2,1.8319014E2,2.4650072E2,3.36002E2,-1.5868245E2,-2.0169038E2,4.4497734E-1,1.757243E0,1.0922536E2,3.4696997E2,1.9428745E2,1.4630083E2,1.8915886E2,2.7347528E2,2.7378436E2,3.800428E2,-2.4023676E0,-1.576708E0,-2.967185E0,-2.4949884E0,-3.9765396E0,1.5956776E0,2.5799549E0,5.2258515E0,2.867575E0,1.6521307E0,2.4822805E0,1.6729529E0,2.155807E0,3.227049E0,4.021139E0,1.4576216E0,2.931348E0,4.4050155E0,3.3423765E0,5.636304E0],"categories":[],"categories_nodes":[],"categories_segments":[],"categories_sizes":[],"default_left":[0,0,0,0,0,0,0,0,0,0,0,0,0,0,0,0,0,0,0,0,0,0,0,0,0,0,0,0,0,0,0,0,0,0,0,0,0,0,0,0,0,0,0,0,0,0,0],"id":4,"left_children":[1,3,5,7,9,11,13,-1,-1,15,17,19,21,23,25,27,29,-1,-1,31,33,35,37,39,41,43,45,-1,-1,-1,-1,-1,-1,-1,-1,-1,-1,-1,-1,-1,-1,-1,-1,-1,-1,-1,-1],"loss_changes":[3.0591936E8,1.6239616E7,2.0188768E7,5.09016E5,2.044152E6,3.945544E6,1.872344E6,0E0,0E0,1.344936E6,3.4643344E4,3.549488E6,4.29012E5,6.88128E5,1.197612E6,8.38432E5,7.3708E4,0E0,0E0,1.746872E6,5.14495E4,2.9504E5,1.82273E5,1.69625E5,2.751E5,3.72227E5,3.13636E5,0E0,0E0,0E0,0E0,0E0,0E0,0E0,0E0,0E0,0E0,0E0,0E0,0E0,0E0,0E0,0E0,0E0,0E0,0E0,0E0],"parents":[2147483647,0,0,1,1,2,2,3,3,4,4,5,5,6,6,9,9,10,10,11,11,12,12,13,13,14,14,15,15,16,16,19,19,20,20,21,21,22,22,23,23,24,24,25,25,26,26],"right_children":[2,4,6,8,10,12,14,-1,-1,16,18,20,22,24,26,28,30,-1,-1,32,34,36,38,40,42,44,46,-1,-1,-1,-1,-1,-1,-1,-1,-1,-1,-1,-1,-1,-1,-1,-1,-1,-1,-1,-1],"split_conditions":[1.7726453E2,1E0,4.7899E2,1.3497192E0,3.8009E2,4.018E2,5.6174E2,-4.76898E0,-8.135675E0,1.7789185E0,5.351E4,7.1365E2,9.9996525E-1,3.7244E2,5.9368485E-5,2.4604392E-1,1.3026E2,4.4497734E-1,1.757243E0,4.36625E3,3.101125E4,3.49E2,4.625325E4,3.595541E4,9.999981E-1,5.3607E2,4.5176624E2,-2.4023676E0,-1.576708E0,-2.967185E0,-2.4949884E0,-3.9765396E0,1.5956776E0,2.5799549E0,5.2258515E0,2.867575E0,1.6521307E0,2.4822805E0,1.6729529E0,2.155807E0,3.227049E0,4.021139E0,1.4576216E0,2.931348E0,4.4050155E0,3.3423765E0,5.636304E0],"split_indices":[48,66,18,65,42,18,41,0,0,76,0,40,69,43,70,70,43,0,0,0,0,32,45,54,69,18,48,0,0,0,0,0,0,0,0,0,0,0,0,0,0,0,0,0,0,0,0],"split_type":[0,0,0,0,0,0,0,0,0,0,0,0,0,0,0,0,0,0,0,0,0,0,0,0,0,0,0,0,0,0,0,0,0,0,0,0,0,0,0,0,0,0,0,0,0,0,0],"sum_hessian":[9.262372E3,4.108793E3,5.1535786E3,7.30034E2,3.3787588E3,4.144671E3,1.00890796E3,7.185206E2,1.1513354E1,3.3524836E3,2.6275322E1,2.9714797E3,1.173191E3,5.042261E2,5.0468185E2,2.20129E3,1.1511935E3,7.146551E0,1.9128769E1,2.908682E3,6.27978E1,8.958827E2,2.7730835E2,1.6599939E2,3.382267E2,2.1464323E2,2.900386E2,1.8889462E3,3.12344E2,9.93021E2,1.5817242E2,1.0048605E1,2.8986333E3,7.3031406E0,5.5494656E1,8.432567E2,5.2625927E1,1.445075E2,1.3280084E2,8.221128E1,8.378812E1,3.265279E2,1.1698822E1,7.117455E1,1.4346869E2,2.3005615E1,2.67033E2],"tree_param":{"num_deleted":"0","num_feature":"78","num_nodes":"47","size_leaf_vector":"1"}},{"base_weights":[-4.099403E0,-1.9856514E2,1.5489308E2,-3.2696954E2,-1.7087582E2,1.2794301E2,2.9144452E2,-5.3537273E0,-4.580697E0,-1.5667392E2,-1.993463E2,1.0990461E2,1.8034834E2,2.453871E2,3.5570157E2,-1.5830927E2,1.69607E0,-2.0510658E2,-1.8023376E2,-3.9954326E0,1.1146528E2,1.670128E2,2.1388127E2,1.3234297E2,2.6273276E2,3.8365347E0,3.7749893E2,-2.4382102E0,-1.9125147E0,-2.9609444E0,-1.3512509E0,-2.7613084E0,-2.1189265E0,1.5613397E0,4.247923E0,2.7306383E0,2.056503E0,3.2302933E0,1.9054071E0,2.002451E0,5.2614E-1,4.0337133E0,2.7625842E0,5.6500463E0,4.347284E0],"categories":[],"categories_nodes":[],"categories_segments":[],"categories_sizes":[],"default_left":[0,0,0,0,0,0,0,0,0,0,0,0,0,0,0,0,0,0,0,0,0,0,0,0,0,0,0,0,0,0,0,0,0,0,0,0,0,0,0,0,0,0,0,0,0],"id":5,"left_children":[1,3,5,7,9,11,13,-1,-1,15,17,19,21,23,25,27,-1,29,31,-1,33,35,37,39,41,-1,43,-1,-1,-1,-1,-1,-1,-1,-1,-1,-1,-1,-1,-1,-1,-1,-1,-1,-1],"loss_changes":[2.860204E8,1.4692496E7,1.8661904E7,8.2104E4,1.328464E6,3.985016E6,2.318944E6,0E0,0E0,1.063776E6,5.7196E4,1.971516E6,4.20488E5,9.04496E5,4.90116E5,5.94992E5,0E0,2.08E2,5.3405E4,0E0,1.744552E6,3.79744E5,1.99988E5,3.4699875E4,4.22186E5,0E0,8.6268E4,0E0,0E0,0E0,0E0,0E0,0E0,0E0,0E0,0E0,0E0,0E0,0E0,0E0,0E0,0E0,0E0,0E0,0E0],"parents":[2147483647,0,0,1,1,2,2,3,3,4,4,5,5,6,6,9,9,10,10,11,11,12,12,13,13,14,14,15,15,17,17,18,18,20,20,21,21,22,22,23,23,24,24,26,26],"right_children":[2,4,6,8,10,12,14,-1,-1,16,18,20,22,24,26,28,-1,30,32,-1,34,36,38,40,42,-1,44,-1,-1,-1,-1,-1,-1,-1,-1,-1,-1,-1,-1,-1,-1,-1,-1,-1,-1],"split_conditions":[1.7726453E2,8.4642094E5,5.495172E2,3.2760808E-3,1.7968286E0,4.639594E2,6.4913824E2,-5.3537273E0,-4.580697E0,1.742E3,1.2809E2,8.8352844E-2,6.234898E-1,7.61925E3,1.5761E4,2.8459E4,1.69607E0,4.7203023E4,8.699704E-1,-3.9954326E0,6.7997E2,4.34255E4,1.17215E4,1.3375E3,1.829825E4,3.8365347E0,-1.8369701E-16,-2.4382102E0,-1.9125147E0,-2.9609444E0,-1.3512509E0,-2.7613084E0,-2.1189265E0,1.5613397E0,4.247923E0,2.7306383E0,2.056503E0,3.2302933E0,1.9054071E0,2.002451E0,5.2614E-1,4.0337133E0,2.7625842E0,5.6500463E0,4.347284E0],"split_indices":[48,59,17,68,76,17,17,0,0,44,41,1,25,4,13,4,0,7,1,0,40,45,60,9,13,0,27,0,0,0,0,0,0,0,0,0,0,0,0,0,0,0,0,0,0],"split_type":[0,0,0,0,0,0,0,0,0,0,0,0,0,0,0,0,0,0,0,0,0,0,0,0,0,0,0,0,0,0,0,0,0,0,0,0,0,0,0,0,0,0,0,0,0],"sum_hessian":[9.247112E3,4.1593296E3,5.0877827E3,7.343138E2,3.4250156E3,4.2521177E3,8.356651E2,1.120355E2,6.222783E2,2.2930613E3,1.1319542E3,3.1674993E3,1.0846184E3,4.9189835E2,3.4376672E2,2.2802444E3,1.2817102E1,8.561316E2,2.7582257E2,1.1419954E1,3.1560793E3,7.838347E2,3.0078372E2,6.7536354E1,4.24362E2,7.208295E1,2.7168378E2,1.5921836E3,6.880607E2,8.517437E2,4.3878856E0,1.9884834E2,7.6974236E1,3.106218E3,4.9861267E1,4.0067966E2,3.8315503E2,2.6429074E2,3.6492977E1,6.2401897E1,5.1344566E0,3.3732956E2,8.703245E1,2.2143643E2,5.0247345E1],"tree_param":{"num_deleted":"0","num_feature":"78","num_nodes":"45","size_leaf_vector":"1"}},{"base_weights":[2.1340246E0,-1.9674815E2,1.6107884E2,-1.680959E2,-3.306934E2,2.5658002E2,1.1894744E2,-1.7024072E2,1.6476432E0,-4.611653E0,-9.326881E0,2.0554541E2,3.3611298E2,9.914225E1,1.6906029E2,-1.5682133E2,-1.9485257E2,1.536884E2,2.2565005E2,2.6960266E2,3.7674924E2,-3.6132817E0,1.0022251E2,1.4033987E2,2.016589E2,-1.8449566E0,-2.398877E0,-2.9032943E0,-2.5477862E0,2.462279E0,1.518636E0,2.231075E0,3.5385003E0,2.9663641E0,4.357984E0,4.1585217E0,5.599456E0,1.373462E0,2.132687E0,2.1846097E0,1.5229803E0,3.7798867E0,2.672891E0],"categories":[],"categories_nodes":[],"categories_segments":[],"categories_sizes":[],"default_left":[0,0,0,0,0,0,0,0,0,0,0,0,0,0,0,0,0,0,0,0,0,0,0,0,0,0,0,0,0,0,0,0,0,0,0,0,0,0,0,0,0,0,0],"id":6,"left_children":[1,3,5,7,9,11,13,15,-1,-1,-1,17,19,21,23,25,27,29,31,33,35,-1,37,39,41,-1,-1,-1,-1,-1,-1,-1,-1,-1,-1,-1,-1,-1,-1,-1,-1,-1,-1],"loss_changes":[2.954039E8,1.5829008E7,2.0842448E7,2.109296E6,2.083816E6,6.320672E6,3.549644E6,1.066408E6,0E0,0E0,0E0,9.50168E5,1.484424E6,1.024852E6,9.02488E5,5.7462E5,7.728E4,1.97251E5,9.12744E5,3.89996E5,1.90244E5,0E0,5.80152E5,1.84503E5,3.75104E5,0E0,0E0,0E0,0E0,0E0,0E0,0E0,0E0,0E0,0E0,0E0,0E0,0E0,0E0,0E0,0E0,0E0,0E0],"parents":[2147483647,0,0,1,1,2,2,3,3,4,4,5,5,6,6,7,7,11,11,12,12,13,13,14,14,15,15,16,16,17,17,18,18,19,19,20,20,22,22,23,23,24,24],"right_children":[2,4,6,8,10,12,14,16,-1,-1,-1,18,20,22,24,26,28,30,32,34,36,-1,38,40,42,-1,-1,-1,-1,-1,-1,-1,-1,-1,-1,-1,-1,-1,-1,-1,-1,-1,-1],"split_conditions":[1.7726453E2,3.022977E-4,-7.0340955E-1,3.8009E2,1.3497192E0,4.2908E2,4.496188E2,1.7968286E0,1.6476432E0,-4.611653E0,-9.326881E0,8.747377E-8,2.894703E-5,8.8352844E-2,7.474469E-4,2.4934513E-31,1.241E2,-1.8369701E-16,4.3027E2,6.092428E2,3.9791E2,-3.6132817E0,4.736117E4,-1.12477764E-1,1.0586606E2,-1.8449566E0,-2.398877E0,-2.9032943E0,-2.5477862E0,2.462279E0,1.518636E0,2.231075E0,3.5385003E0,2.9663641E0,4.357984E0,4.1585217E0,5.599456E0,1.373462E0,2.132687E0,2.1846097E0,1.5229803E0,3.7798867E0,2.672891E0],"split_indices":[48,67,56,42,65,43,17,76,0,0,0,70,70,1,70,67,41,27,41,17,42,0,54,56,53,0,0,0,0,0,0,0,0,0,0,0,0,0,0,0,0,0,0],"split_type":[0,0,0,0,0,0,0,0,0,0,0,0,0,0,0,0,0,0,0,0,0,0,0,0,0,0,0,0,0,0,0,0,0,0,0,0,0,0,0,0,0,0,0],"sum_hessian":[9.341227E3,4.149129E3,5.1920977E3,3.4213826E3,7.277461E2,1.5865303E3,3.6055671E3,3.3963174E3,2.5065151E1,7.075881E2,2.0157982E1,9.703992E2,6.1613104E2,2.5881477E3,1.0174195E3,2.2066443E3,1.1896732E3,2.7552634E2,6.948728E2,2.3896675E2,3.771643E2,6.665475E0,2.5814824E3,5.460411E2,4.7137842E2,5.605855E2,1.6460587E3,8.566233E2,3.3304993E2,1.9980135E2,7.5725006E1,1.559907E2,5.388821E2,8.574179E1,1.5322498E2,5.011745E1,3.2704688E2,2.3458948E3,2.355875E2,4.074304E2,1.3861069E2,9.336613E1,3.7801227E2],"tree_param":{"num_deleted":"0","num_feature":"78","num_nodes":"43","size_leaf_vector":"1"}},{"base_weights":[1.4931707E0,-1.9405421E2,1.527274E2,-3.249656E2,-1.6617744E2,1.2183283E2,2.7451154E2,-4.549008E0,-9.523701E0,-1.9074367E2,-1.5147581E2,-4.23977E0,1.25303925E2,2.305579E2,3.4136133E2,-1.947778E2,-1.625055E2,-1.6285706E2,-1.16179474E2,1.08351425E2,1.7585396E2,1.00576744E2,2.4171396E2,2.6042502E2,3.667059E2,-2.8202863E0,-1.5959688E0,-2.4758387E0,-1.7970732E0,-2.1714382E0,-2.4371939E0,1.1789864E0,-1.8256932E0,1.511853E0,3.8213482E0,2.7566016E0,2.1105373E0,8.723211E-1,1.7772661E0,3.1042948E0,3.9554682E0,2.7581515E0,4.062678E0,4.817893E0,5.73091E0],"categories":[],"categories_nodes":[],"categories_segments":[],"categories_sizes":[],"default_left":[0,0,0,0,0,0,0,0,0,0,0,0,0,0,0,0,0,0,0,0,0,0,0,0,0,0,0,0,0,0,0,0,0,0,0,0,0,0,0,0,0,0,0,0,0],"id":7,"left_children":[1,3,5,7,9,11,13,-1,-1,15,17,-1,19,21,23,25,27,29,31,33,35,37,39,41,43,-1,-1,-1,-1,-1,-1,-1,-1,-1,-1,-1,-1,-1,-1,-1,-1,-1,-1,-1,-1],"loss_changes":[2.743064E8,1.4663328E7,1.9617752E7,1.827016E6,1.152944E6,6.097144E6,2.961544E6,0E0,0E0,8.3684E4,8.08004E5,0E0,3.514616E6,8.8832E5,6.77556E5,4.5412E4,1.93335E4,7.4128E4,1.0971865E6,1.622556E6,4.19552E5,3.5515688E4,4.01228E5,5.77335E4,6.9724E4,0E0,0E0,0E0,0E0,0E0,0E0,0E0,0E0,0E0,0E0,0E0,0E0,0E0,0E0,0E0,0E0,0E0,0E0,0E0,0E0],"parents":[2147483647,0,0,1,1,2,2,3,3,4,4,5,5,6,6,9,9,10,10,12,12,13,13,14,14,15,15,16,16,17,17,18,18,19,19,20,20,21,21,22,22,23,23,24,24],"right_children":[2,4,6,8,10,12,14,-1,-1,16,18,-1,20,22,24,26,28,30,32,34,36,38,40,42,44,-1,-1,-1,-1,-1,-1,-1,-1,-1,-1,-1,-1,-1,-1,-1,-1,-1,-1,-1,-1],"split_conditions":[1.742E3,1E0,4.7628E2,1.3497192E0,8.033796E1,7.9605E3,5.7034E2,-4.549008E0,-9.523701E0,1.3831E2,5.6939628E-2,-4.23977E0,4.0248E2,1.2856529E-9,1.56535E4,1.8416E2,1.4056E2,6.825467E-26,1.5555E3,6.6593E2,1.281225E4,1.446975E4,5.0518E2,4.5029082E4,4.74245E4,-2.8202863E0,-1.5959688E0,-2.4758387E0,-1.7970732E0,-2.1714382E0,-2.4371939E0,1.1789864E0,-1.8256932E0,1.511853E0,3.8213482E0,2.7566016E0,2.1105373E0,8.723211E-1,1.7772661E0,3.1042948E0,3.9554682E0,2.7581515E0,4.062678E0,4.817893E0,5.73091E0],"split_indices":[44,66,18,65,52,0,18,0,0,41,70,0,18,70,13,42,43,67,47,40,12,13,18,7,0,0,0,0,0,0,0,0,0,0,0,0,0,0,0,0,0,0,0,0,0],"split_type":[0,0,0,0,0,0,0,0,0,0,0,0,0,0,0,0,0,0,0,0,0,0,0,0,0,0,0,0,0,0,0,0,0,0,0,0,0,0,0,0,0,0,0,0,0],"sum_hessian":[9.271765E3,4.0432646E3,5.2285E3,7.064129E2,3.3368518E3,4.173429E3,1.0550709E3,6.9086957E2,1.5543325E1,1.241097E3,2.0957546E3,3.3263065E1,4.140166E3,6.414515E2,4.1361942E2,1.0765197E3,1.6457738E2,1.5797555E3,5.159992E2,3.104715E3,1.035451E3,5.215099E1,5.8930054E2,1.03551E2,3.1006842E2,1.0622172E3,1.4302419E1,1.2685215E2,3.772523E1,5.530432E2,1.0267123E3,2.5398993E1,4.9060025E2,3.041164E3,6.355116E1,6.721813E2,3.6326978E2,2.1326181E1,3.0824808E1,3.3471725E2,2.5458327E2,2.8903297E1,7.4647705E1,1.6223302E2,1.478354E2],"tree_param":{"num_deleted":"0","num_feature":"78","num_nodes":"45","size_leaf_vector":"1"}},{"base_weights":[-2.0286894E0,-1.8963239E2,1.5143495E2,-3.111438E2,-1.6352643E2,1.2324653E2,2.730196E2,-4.3903875E0,-5.0852323E0,-1.5007965E2,-1.8928629E2,1.0463837E2,1.7067287E2,2.0586533E2,3.0577884E2,-1.5164578E2,1.5992589E0,-2.781863E0,-1.4725441E2,9.684545E1,1.8042603E2,1.08431725E2,1.842414E2,2.364427E2,1.6286354E2,3.2427533E2,2.1390833E2,-1.7739123E0,-2.311908E0,-2.3963056E0,-1.6560818E0,-3.7316158E0,1.415558E0,1.3753426E0,3.1936407E0,1.2113922E0,1.8553044E0,2.7471766E0,1.5183117E0,3.6207657E0,1.9357153E0,1.4445479E0,2.5555153E0,4.0626335E0,5.337537E0,3.322288E0,2.1725E0],"categories":[],"categories_nodes":[],"categories_segments":[],"categories_sizes":[],"default_left":[0,0,0,0,0,0,0,0,0,0,0,0,0,0,0,0,0,0,0,0,0,0,0,0,0,0,0,0,0,0,0,0,0,0,0,0,0,0,0,0,0,0,0,0,0,0,0],"id":8,"left_children":[1,3,5,7,9,11,13,-1,-1,15,17,19,21,23,25,27,-1,-1,29,31,33,35,37,39,41,43,45,-1,-1,-1,-1,-1,-1,-1,-1,-1,-1,-1,-1,-1,-1,-1,-1,-1,-1,-1,-1],"loss_changes":[2.6690688E8,1.3139184E7,1.7415352E7,2.056E3,1.138728E6,3.62354E6,1.992896E6,0E0,0E0,9.57808E5,1.33408E5,1.728154E6,9.4694E5,3.50024E5,9.61156E5,5.29632E5,0E0,0E0,2.90635E4,1.383692E6,9.26774E5,8.558025E4,4.44722E5,2.15017E5,9.32765E4,8.43172E5,5.48435E4,0E0,0E0,0E0,0E0,0E0,0E0,0E0,0E0,0E0,0E0,0E0,0E0,0E0,0E0,0E0,0E0,0E0,0E0,0E0,0E0],"parents":[2147483647,0,0,1,1,2,2,3,3,4,4,5,5,6,6,9,9,10,10,11,11,12,12,13,13,14,14,15,15,18,18,19,19,20,20,21,21,22,22,23,23,24,24,25,25,26,26],"right_children":[2,4,6,8,10,12,14,-1,-1,16,18,20,22,24,26,28,-1,-1,30,32,34,36,38,40,42,44,46,-1,-1,-1,-1,-1,-1,-1,-1,-1,-1,-1,-1,-1,-1,-1,-1,-1,-1,-1,-1],"split_conditions":[1.7726453E2,2.408425E4,5.362164E2,9.9701995E-1,1.7968286E0,4.553084E2,4.1999E2,-4.3903875E0,-5.0852323E0,2.9448E2,1.4333E2,4.5956537E2,3.09825E3,4.94325E3,-4.4843045E-1,6.962501E-23,1.5992589E0,-2.781863E0,7.762827E1,4.36625E3,-8.660254E-1,4.8945996E2,2.1001E2,3.9758494E-1,3.006955E5,4.5014E4,3.9977428E-1,-1.7739123E0,-2.311908E0,-2.3963056E0,-1.6560818E0,-3.7316158E0,1.415558E0,1.3753426E0,3.1936407E0,1.2113922E0,1.8553044E0,2.7471766E0,1.5183117E0,3.6207657E0,1.9357153E0,1.4445479E0,2.5555153E0,4.0626335E0,5.337537E0,3.322288E0,2.1725E0],"split_indices":[48,0,17,67,76,17,43,0,0,42,43,48,11,47,56,68,0,0,48,0,26,17,51,14,63,0,55,0,0,0,0,0,0,0,0,0,0,0,0,0,0,0,0,0,0,0,0],"split_type":[0,0,0,0,0,0,0,0,0,0,0,0,0,0,0,0,0,0,0,0,0,0,0,0,0,0,0,0,0,0,0,0,0,0,0,0,0,0,0,0,0,0,0,0,0,0,0],"sum_hessian":[9.267056E3,4.1695293E3,5.097527E3,7.338459E2,3.4356833E3,4.1411226E3,9.564042E2,6.485436E2,8.53023E1,2.2655413E3,1.170142E3,2.978388E3,1.1627347E3,3.1794897E2,6.384552E2,2.252793E3,1.2748173E1,1.0679342E3,1.02207855E2,2.704465E3,2.7392273E2,2.1105154E2,9.5168317E2,1.8101115E2,1.369378E2,5.276058E2,1.10849434E2,5.3694684E2,1.7158463E3,5.955477E1,4.265308E1,9.19615E0,2.695269E3,9.141943E1,1.8250328E2,1.0024237E2,1.1080918E2,8.778425E2,7.384066E1,1.5573122E2,2.527994E1,2.8439533E1,1.08498276E2,2.8186594E2,2.4573985E2,8.3887924E1,2.6961506E1],"tree_param":{"num_deleted":"0","num_feature":"78","num_nodes":"47","size_leaf_vector":"1"}},{"base_weights":[-1.6892813E0,-1.9013615E2,1.5122679E2,-3.178976E2,-1.6128752E2,1.21316795E2,2.694649E2,-5.6863074E2,-4.42576E0,-1.6281676E2,8.664236E1,1.8702199E2,1.08238556E2,1.9759497E2,3.0706104E2,-4.42472E0,-9.01064E0,-1.4886382E2,-1.8689017E2,4.4947627E-1,1.583505E0,1.7414296E2,2.860311E2,7.527417E1,1.27199615E2,1.05099075E2,2.1318352E2,3.3659073E2,2.0900484E2,-1.5568631E0,-2.2683501E0,-2.7873363E0,-2.4403276E0,2.666037E0,1.0019037E0,1.67025E0,4.539119E0,-3.8335905E0,1.1356527E0,1.6393019E0,2.203971E0,6.86953E-1,1.8136907E0,1.7348185E0,3.2406747E0,4.06177E0,5.1861944E0,2.6393476E0,3.5591109E0],"categories":[],"categories_nodes":[],"categories_segments":[],"categories_sizes":[],"default_left":[0,0,0,0,0,0,0,0,0,0,0,0,0,0,0,0,0,0,0,0,0,0,0,0,0,0,0,0,0,0,0,0,0,0,0,0,0,0,0,0,0,0,0,0,0,0,0,0,0],"id":9,"left_children":[1,3,5,7,9,11,13,15,-1,17,19,21,23,25,27,-1,-1,29,31,-1,-1,33,35,37,39,41,43,45,47,-1,-1,-1,-1,-1,-1,-1,-1,-1,-1,-1,-1,-1,-1,-1,-1,-1,-1,-1,-1],"loss_changes":[2.6394526E8,1.5029024E7,1.7822312E7,1.716032E6,1.29628E6,3.433624E6,2.643368E6,7.7256E4,0E0,1.067984E6,2.1730547E4,7.60624E5,2.090592E6,4.71194E5,1.799668E6,0E0,0E0,7.0814E5,7.9464E4,0E0,0E0,6.5388E5,2.9805E5,1.5299565E6,7.081E5,5.439875E4,2.7876E5,4.63524E5,7.3293E4,0E0,0E0,0E0,0E0,0E0,0E0,0E0,0E0,0E0,0E0,0E0,0E0,0E0,0E0,0E0,0E0,0E0,0E0,0E0,0E0],"parents":[2147483647,0,0,1,1,2,2,3,3,4,4,5,5,6,6,7,7,9,9,10,10,11,11,12,12,13,13,14,14,17,17,18,18,21,21,22,22,23,23,24,24,25,25,26,26,27,27,28,28],"right_children":[2,4,6,8,10,12,14,16,-1,18,20,22,24,26,28,-1,-1,30,32,-1,-1,34,36,38,40,42,44,46,48,-1,-1,-1,-1,-1,-1,-1,-1,-1,-1,-1,-1,-1,-1,-1,-1,-1,-1,-1,-1],"split_conditions":[1.7726453E2,1E0,5.362164E2,1.7051083E-5,2.8937E2,-7.768092E-1,6.9567723E-6,7.52E1,-4.42576E0,1.7789185E0,5.351E4,4.468375E4,3.71514E2,1.9451385E-11,-6.2678826E-1,-4.42472E0,-9.01064E0,3.3883716E-25,1.241E2,4.4947627E-1,1.583505E0,5.043386E-1,4.5084E2,4.36625E3,4.588449E2,5.999544E2,4.0837094E2,4.224775E4,4.8686E2,-1.5568631E0,-2.2683501E0,-2.7873363E0,-2.4403276E0,2.666037E0,1.0019037E0,1.67025E0,4.539119E0,-3.8335905E0,1.1356527E0,1.6393019E0,2.203971E0,6.86953E-1,1.8136907E0,1.7348185E0,3.2406747E0,4.06177E0,5.1861944E0,2.6393476E0,3.5591109E0],"split_indices":[48,66,17,68,42,56,70,39,0,76,0,46,17,70,56,0,0,68,41,0,0,8,41,0,17,17,48,46,42,0,0,0,0,0,0,0,0,0,0,0,0,0,0,0,0,0,0,0,0],"split_type":[0,0,0,0,0,0,0,0,0,0,0,0,0,0,0,0,0,0,0,0,0,0,0,0,0,0,0,0,0,0,0,0,0,0,0,0,0,0,0,0,0,0,0,0,0,0,0,0,0],"sum_hessian":[9.155849E3,4.101232E3,5.054617E3,7.5209985E2,3.3491318E3,4.0370842E3,1.0175328E3,2.7067677E1,7.2503217E2,3.3292253E3,1.990655E1,6.661279E2,3.3709563E3,3.5340012E2,6.641327E2,6.909695E0,2.0157982E1,2.1159553E3,1.21327E3,7.146551E0,1.2759998E1,5.9391595E2,7.221195E1,1.2342559E3,2.1367002E3,5.3011673E1,3.0038843E2,5.070011E2,1.5713158E2,3.7076608E2,1.7451893E3,8.704075E2,3.4286258E2,5.3674194E2,5.7174046E1,1.1837168E1,6.0374786E1,1.1262936E1,1.222993E3,1.4104454E3,7.262548E2,1.5679111E1,3.733256E1,3.5962734E1,2.644257E2,1.5861194E2,3.4838916E2,9.98429E1,5.7288677E1],"tree_param":{"num_deleted":"0","num_feature":"78","num_nodes":"49","size_leaf_vector":"1"}},{"base_weights":[-1.1358744E0,1.4785043E2,-1.8569185E2,1.1740096E2,2.6222833E2,-3.0809702E2,-1.6004803E2,-4.0681057E0,1.2043395E2,2.1696135E2,3.1735965E2,-8.362837E0,-4.353121E0,-1.4592253E2,-1.8473236E2,1.8578894E2,1.08095146E2,1.23621185E2,2.298204E2,3.4386078E2,2.2049825E2,-1.5649509E2,-1.1183375E2,-2.714881E0,-1.5612894E2,2.925067E0,1.396519E0,1.2339385E0,1.9138911E0,9.1818845E-1,2.0974965E0,3.5738897E0,2.3529701E0,3.9605622E0,5.3841596E0,2.1567564E0,3.4742322E0,-2.131358E0,-2.3481886E0,2.1058662E-1,-1.7023717E0,-1.7944525E0,-2.3830612E0],"categories":[],"categories_nodes":[],"categories_segments":[],"categories_sizes":[],"default_left":[0,0,0,0,0,0,0,0,0,0,0,0,0,0,0,0,0,0,0,0,0,0,0,0,0,0,0,0,0,0,0,0,0,0,0,0,0,0,0,0,0,0,0],"id":10,"left_children":[1,3,5,7,9,11,13,-1,15,17,19,-1,-1,21,23,25,27,29,31,33,35,37,39,-1,41,-1,-1,-1,-1,-1,-1,-1,-1,-1,-1,-1,-1,-1,-1,-1,-1,-1,-1],"loss_changes":[2.520479E8,1.7608464E7,1.2762256E7,4.922324E6,2.531672E6,8.36144E5,1.132392E6,0E0,3.172812E6,6.56832E5,1.083672E6,0E0,0E0,7.47992E5,7.494E4,9.26322E5,1.840944E6,8.218E4,5.5163E5,5.7388E5,9.0674E4,4.7288E4,4.16695E5,0E0,6.18875E3,0E0,0E0,0E0,0E0,0E0,0E0,0E0,0E0,0E0,0E0,0E0,0E0,0E0,0E0,0E0,0E0,0E0,0E0],"parents":[2147483647,0,0,1,1,2,2,3,3,4,4,5,5,6,6,8,8,9,9,10,10,13,13,14,14,15,15,16,16,17,17,18,18,19,19,20,20,21,21,22,22,24,24],"right_children":[2,4,6,8,10,12,14,-1,16,18,20,-1,-1,22,24,26,28,30,32,34,36,38,40,-1,42,-1,-1,-1,-1,-1,-1,-1,-1,-1,-1,-1,-1,-1,-1,-1,-1,-1,-1],"split_conditions":[8.4314394E-1,5.362164E2,1E0,6.37525E3,4.528E2,4.76746E-6,1.7789185E0,-4.0681057E0,-7.164227E-1,1.9451385E-11,-7.6207274E-1,-8.362837E0,-4.353121E0,5.6939628E-2,1.5398E2,1.3706049E2,4.00344E2,5.999544E2,-6.2678826E-1,2.894703E-5,-9.350162E-1,2.3334849E-24,3.4015846E1,-2.714881E0,3.4629837E1,2.925067E0,1.396519E0,1.2339385E0,1.9138911E0,9.1818845E-1,2.0974965E0,3.5738897E0,2.3529701E0,3.9605622E0,5.3841596E0,2.1567564E0,3.4742322E0,-2.131358E0,-2.3481886E0,2.1058662E-1,-1.7023717E0,-1.7944525E0,-2.3830612E0],"split_indices":[76,17,66,12,43,68,76,0,56,70,56,0,0,70,41,49,17,17,56,70,28,67,53,0,15,0,0,0,0,0,0,0,0,0,0,0,0,0,0,0,0,0,0],"split_type":[0,0,0,0,0,0,0,0,0,0,0,0,0,0,0,0,0,0,0,0,0,0,0,0,0,0,0,0,0,0,0,0,0,0,0,0,0,0,0,0,0,0,0],"sum_hessian":[9.162954E3,5.0702563E3,4.092698E3,4.007178E3,1.0630782E3,7.0541473E2,3.3872832E3,2.890943E1,3.9782686E3,5.8871893E2,4.7435928E2,1.1456301E1,6.9395844E2,2.162462E3,1.2248212E3,6.2771924E2,3.3505493E3,7.363495E1,5.15084E2,3.68795E2,1.0556428E2,1.6455354E3,5.169266E2,1.0764934E3,1.4832771E2,5.239719E2,1.037473E2,1.7596746E3,1.5908749E3,2.165254E1,5.198241E1,4.0056247E2,1.1452149E2,1.1680317E2,2.5199185E2,2.7190695E1,7.837358E1,7.252165E2,9.203189E2,2.4432503E1,4.9249405E2,3.9565258E1,1.0876246E2],"tree_param":{"num_deleted":"0","num_feature":"78","num_nodes":"43","size_leaf_vector":"1"}},{"base_weights":[2.6154826E0,-1.808371E2,1.471353E2,-4.2848024E0,-1.5674026E2,1.167397E2,2.7047873E2,-1.7928453E2,-1.4279091E2,9.7690605E1,1.6622107E2,1.8293199E2,2.9112775E2,-2.7871456E0,-1.7308423E2,-1.52464E2,-1.0169183E2,-3.8543231E0,1.0011124E2,1.0486329E2,1.7428265E2,1.9916902E2,7.548067E1,2.5048239E2,3.1925272E2,-2.5355685E0,-1.9164954E0,-2.0358937E0,-2.2972016E0,-1.6753601E0,6.3916534E-1,-1.9355948E0,1.463289E0,9.209893E-1,1.6802442E0,2.601814E0,1.3750215E0,1.9804298E0,3.1024861E0,4.4802776E-1,1.1904763E0,4.858846E0,3.3848183E0,4.0344253E0,5.1253953E0],"categories":[],"categories_nodes":[],"categories_segments":[],"categories_sizes":[],"default_left":[0,0,0,0,0,0,0,0,0,0,0,0,0,0,0,0,0,0,0,0,0,0,0,0,0,0,0,0,0,0,0,0,0,0,0,0,0,0,0,0,0,0,0,0,0],"id":11,"left_children":[1,3,5,-1,7,9,11,13,15,17,19,21,23,-1,25,27,29,-1,31,33,35,37,39,41,43,-1,-1,-1,-1,-1,-1,-1,-1,-1,-1,-1,-1,-1,-1,-1,-1,-1,-1,-1,-1],"loss_changes":[2.4321579E8,1.1263824E7,1.9179888E7,0E0,1.007736E6,3.853684E6,1.734048E6,5.0448E4,7.98784E5,2.682344E6,5.31738E5,3.184025E5,7.87328E5,0E0,6.1266E4,8.9428E4,8.6471E5,0E0,1.021218E6,5.2345E4,4.66708E5,1.16282E5,4.4626406E3,3.18054E5,4.9904E5,0E0,0E0,0E0,0E0,0E0,0E0,0E0,0E0,0E0,0E0,0E0,0E0,0E0,0E0,0E0,0E0,0E0,0E0,0E0,0E0],"parents":[2147483647,0,0,1,1,2,2,4,4,5,5,6,6,7,7,8,8,9,9,10,10,11,11,12,12,14,14,15,15,16,16,18,18,19,19,20,20,21,21,22,22,23,23,24,24],"right_children":[2,4,6,-1,8,10,12,14,16,18,20,22,24,-1,26,28,30,-1,32,34,36,38,40,42,44,-1,-1,-1,-1,-1,-1,-1,-1,-1,-1,-1,-1,-1,-1,-1,-1,-1,-1,-1,-1],"split_conditions":[6.7968605E1,1E0,4.7899E2,-4.2848024E0,8.1372116E1,3.98E2,3.7244E2,1.550025E4,1.14455394E-1,1.2504809E-1,2.956E3,8.4975E3,5.6699E2,-2.7871456E0,1.4209E2,4.4048567E-18,4.8475E2,-3.8543231E0,3.7829E2,6.630572E-1,3.161126E-1,2.452873E9,-2.16075E3,-1.5388999E0,1.930625E4,-2.5355685E0,-1.9164954E0,-2.0358937E0,-2.2972016E0,-1.6753601E0,6.3916534E-1,-1.9355948E0,1.463289E0,9.209893E-1,1.6802442E0,2.601814E0,1.3750215E0,1.9804298E0,3.1024861E0,4.4802776E-1,1.1904763E0,4.858846E0,3.3848183E0,4.0344253E0,5.1253953E0],"split_indices":[49,66,18,0,52,18,43,4,70,1,11,60,18,0,43,68,44,0,44,1,56,64,9,56,4,0,0,0,0,0,0,0,0,0,0,0,0,0,0,0,0,0,0,0,0],"split_type":[0,0,0,0,0,0,0,0,0,0,0,0,0,0,0,0,0,0,0,0,0,0,0,0,0,0,0,0,0,0,0,0,0,0,0,0,0,0,0,0,0,0,0,0,0],"sum_hessian":[9.169952E3,4.0405027E3,5.1294497E3,6.888912E2,3.3516116E3,4.118166E3,1.01128375E3,1.2728379E3,2.0787737E3,2.9773862E3,1.14078E3,1.9644287E2,8.148409E2,3.7130438E2,9.015335E2,1.6787144E3,4.0005933E2,1.828837E1,2.9590977E3,1.3545288E2,1.00532715E3,1.6929852E2,2.7144344E1,3.406521E2,4.7418878E2,8.3543304E2,6.610047E1,6.585984E2,1.0201159E3,3.6410522E2,3.5954105E1,1.6975922E1,2.9421218E3,3.2805862E1,1.0264702E2,9.2906586E2,7.626133E1,3.8679832E1,1.3061868E2,5.117258E0,2.2027088E1,4.6167404E1,2.9448468E2,2.358108E2,2.3837796E2],"tree_param":{"num_deleted":"0","num_feature":"78","num_nodes":"45","size_leaf_vector":"1"}},{"base_weights":[2.3845425E0,-1.8057106E2,1.4160889E2,-2.986379E2,-1.5421234E2,9.826983E1,2.0394116E2,-8.205661E0,-4.2215824E0,-1.7872943E2,-1.3952382E2,-2.2115747E2,1.01179115E2,1.7725786E2,2.849926E2,-1.795082E2,-1.1139836E2,-1.42098E2,-1.3326901E1,-3.7765837E0,-1.8957152E0,9.7186806E1,3.1908975E2,1.9131708E2,1.4253035E2,2.0304327E2,3.027948E2,-2.683518E0,-2.4460654E0,-8.026036E-1,-1.8392148E0,-1.7245686E0,-2.1976922E0,-9.2345226E-1,5.707125E-1,1.1384134E0,1.6274155E0,3.3895571E0,5.32126E0,2.3821588E0,3.297879E0,1.7001644E0,2.5308154E0,1.2450374E0,3.1198246E0,3.6669602E0,4.659885E0],"categories":[],"categories_nodes":[],"categories_segments":[],"categories_sizes":[],"default_left":[0,0,0,0,0,0,0,0,0,0,0,0,0,0,0,0,0,0,0,0,0,0,0,0,0,0,0,0,0,0,0,0,0,0,0,0,0,0,0,0,0,0,0,0,0,0,0],"id":12,"left_children":[1,3,5,7,9,11,13,-1,-1,15,17,19,21,23,25,27,29,31,33,-1,-1,35,37,39,41,43,45,-1,-1,-1,-1,-1,-1,-1,-1,-1,-1,-1,-1,-1,-1,-1,-1,-1,-1,-1,-1],"loss_changes":[2.4006779E8,1.25906E7,1.4421424E7,8.34596E5,1.154744E6,2.977982E6,4.65116E6,0E0,0E0,2.854E4,6.76368E5,4.3621375E4,2.66909E6,7.58116E5,6.75676E5,2.25E4,4.183422E3,4.4536E5,1.22463234E5,0E0,0E0,8.65668E5,7.50305E4,1.075656E6,3.5536E5,1.258485E5,2.8722E5,0E0,0E0,0E0,0E0,0E0,0E0,0E0,0E0,0E0,0E0,0E0,0E0,0E0,0E0,0E0,0E0,0E0,0E0,0E0,0E0],"parents":[2147483647,0,0,1,1,2,2,3,3,4,4,5,5,6,6,9,9,10,10,11,11,12,12,13,13,14,14,15,15,16,16,17,17,18,18,21,21,22,22,23,23,24,24,25,25,26,26],"right_children":[2,4,6,8,10,12,14,-1,-1,16,18,20,22,24,26,28,30,32,34,-1,-1,36,38,40,42,44,46,-1,-1,-1,-1,-1,-1,-1,-1,-1,-1,-1,-1,-1,-1,-1,-1,-1,-1,-1,-1],"split_conditions":[6.7968605E1,2.408425E4,4.5991037E2,4.76746E-6,8.033796E1,9.38525E3,6.052851E2,-8.205661E0,-4.2215824E0,1.6926405E2,2.2746536E2,6.46075E3,6.734E2,1.28435E4,3.9681E2,3.609003E-4,4.5615E4,7.0496625E-31,1.7324E2,-3.7765837E0,-1.8957152E0,3.8491E2,3.8206E4,3.6360823E-5,2.3935232E-2,2.692975E4,-6.961609E-2,-2.683518E0,-2.4460654E0,-8.026036E-1,-1.8392148E0,-1.7245686E0,-2.1976922E0,-9.2345226E-1,5.707125E-1,1.1384134E0,1.6274155E0,3.3895571E0,5.32126E0,2.3821588E0,3.297879E0,1.7001644E0,2.5308154E0,1.2450374E0,3.1198246E0,3.6669602E0,4.659885E0],"split_indices":[49,0,17,68,52,12,17,0,0,17,17,0,40,12,43,70,0,67,43,0,0,40,0,70,70,46,20,0,0,0,0,0,0,0,0,0,0,0,0,0,0,0,0,0,0,0,0],"split_type":[0,0,0,0,0,0,0,0,0,0,0,0,0,0,0,0,0,0,0,0,0,0,0,0,0,0,0,0,0,0,0,0,0,0,0,0,0,0,0,0,0,0,0,0,0,0,0],"sum_hessian":[9.421155E3,4.0709502E3,5.3502056E3,7.395311E2,3.331419E3,3.1587012E3,2.1915042E3,1.1456301E1,7.280748E2,1.2404766E3,2.0909424E3,2.727122E1,3.13143E3,1.6531051E3,5.383991E2,1.2232805E3,1.719603E1,2.0489167E3,4.2025757E1,1.630459E1,1.0966628E1,3.0776877E3,5.3742184E1,1.170848E3,4.822571E2,1.0013377E2,4.3826532E2,7.050217E2,5.182588E2,5.7108946E0,1.1485135E1,6.570764E2,1.3918403E3,2.1258493E1,2.0767263E1,1.4334896E3,1.6441982E3,2.4011951E1,2.973023E1,6.975556E2,4.7329242E2,2.816984E2,2.0055872E2,1.1763849E1,8.836993E1,1.382147E2,3.000506E2],"tree_param":{"num_deleted":"0","num_feature":"78","num_nodes":"47","size_leaf_vector":"1"}},{"base_weights":[-2.791208E-1,-1.7642023E2,1.4489514E2,-2.9089917E2,-1.5103381E2,1.0712304E2,2.3163046E2,-4.867292E0,-4.086655E0,1.5994675E0,-1.5255739E2,8.8991615E1,1.5338219E2,1.8501498E2,3.1290494E2,-1.3928342E2,-1.7661168E2,-3.3531945E0,9.002023E1,1.0463532E2,1.6780522E2,2.049252E2,1.3002432E2,2.4098286E2,3.3612796E2,-2.1007802E0,-1.2505764E0,-2.6084762E0,-2.2263565E0,1.1006267E0,1.5042428E0,1.2392962E0,1.7992345E0,2.2491794E0,3.2365813E0,1.3179854E0,3.138884E0,1.4690976E0,2.4552124E0,1.7080654E0,3.5361001E0,5.1843567E0,3.683454E0],"categories":[],"categories_nodes":[],"categories_segments":[],"categories_sizes":[],"default_left":[0,0,0,0,0,0,0,0,0,0,0,0,0,0,0,0,0,0,0,0,0,0,0,0,0,0,0,0,0,0,0,0,0,0,0,0,0,0,0,0,0,0,0],"id":13,"left_children":[1,3,5,7,9,11,13,-1,-1,-1,15,17,19,21,23,25,27,-1,29,31,33,35,37,39,41,-1,-1,-1,-1,-1,-1,-1,-1,-1,-1,-1,-1,-1,-1,-1,-1,-1,-1],"loss_changes":[2.3844213E8,1.2163456E7,1.6701304E7,8.5844E4,1.40912E6,2.964568E6,5.763336E6,0E0,0E0,0E0,1.051112E6,8.87024E5,6.7174E5,1.034048E6,7.90572E5,7.34968E5,6.7104E4,0E0,4.86798E5,6.831075E4,4.48182E5,1.021714E6,2.7174E5,2.43205E4,6.31792E5,0E0,0E0,0E0,0E0,0E0,0E0,0E0,0E0,0E0,0E0,0E0,0E0,0E0,0E0,0E0,0E0,0E0,0E0],"parents":[2147483647,0,0,1,1,2,2,3,3,4,4,5,5,6,6,10,10,11,11,12,12,13,13,14,14,15,15,16,16,18,18,19,19,20,20,21,21,22,22,23,23,24,24],"right_children":[2,4,6,8,10,12,14,-1,-1,-1,16,18,20,22,24,26,28,-1,30,32,34,36,38,40,42,-1,-1,-1,-1,-1,-1,-1,-1,-1,-1,-1,-1,-1,-1,-1,-1,-1,-1],"split_conditions":[1.7726453E2,1E0,4.753537E2,1.7215494E-3,7.6180696E-1,4.4803714E2,1.3971085E6,-4.867292E0,-4.086655E0,1.5994675E0,1.7789185E0,2.151031E-2,4.29025E3,5.1619893E-1,5.0661353E2,3E0,1.4147E2,-3.3531945E0,3.71514E2,4.8230066E2,5.6963556E2,3.7508E2,3.50175E3,6.9004095E-1,2.43E2,-2.1007802E0,-1.2505764E0,-2.6084762E0,-2.2263565E0,1.1006267E0,1.5042428E0,1.2392962E0,1.7992345E0,2.2491794E0,3.2365813E0,1.3179854E0,3.138884E0,1.4690976E0,2.4552124E0,1.7080654E0,3.5361001E0,5.1843567E0,3.683454E0],"split_indices":[48,66,48,68,76,17,59,0,0,0,76,1,11,76,48,66,41,0,17,17,17,41,11,1,32,0,0,0,0,0,0,0,0,0,0,0,0,0,0,0,0,0,0],"split_type":[0,0,0,0,0,0,0,0,0,0,0,0,0,0,0,0,0,0,0,0,0,0,0,0,0,0,0,0,0,0,0,0,0,0,0,0,0,0,0,0,0,0,0],"sum_hessian":[9.320997E3,4.2111646E3,5.109832E3,7.6088116E2,3.4502832E3,3.562498E3,1.5473344E3,9.139689E1,6.6948425E2,1.9185873E1,3.4310974E3,2.5631929E3,9.99305E2,9.871429E2,5.601914E2,2.2189978E3,1.2120995E3,6.857196E0,2.5563357E3,2.3161006E2,7.676949E2,7.2107874E2,2.6606418E2,1.4180869E2,4.1838272E2,1.9715488E3,2.4744896E2,9.9973065E2,2.1236891E2,1.3172831E3,1.2390527E3,1.2554864E2,1.0606143E2,6.4205774E2,1.25637146E2,7.512924E1,6.4594946E2,1.6071344E2,1.0535072E2,6.7007446E0,1.3510794E2,3.1849768E2,9.988504E1],"tree_param":{"num_deleted":"0","num_feature":"78","num_nodes":"43","size_leaf_vector":"1"}},{"base_weights":[-1.2622849E0,-1.7344656E2,1.401028E2,-2.87805E2,-1.50351E2,1.07991516E2,2.2644632E2,-4.0270185E0,-4.78354E0,-1.5173616E2,1.3952088E0,8.834763E1,1.5522343E2,1.7724507E2,2.9167838E2,-1.398179E2,-1.7370576E2,-3.5690103E0,8.985988E1,2.077403E2,1.355756E2,1.6155301E2,2.6310974E2,2.1515213E2,3.226321E2,-2.1217358E0,-1.438787E0,-2.5660167E0,-2.1892428E0,1.0497872E0,1.5414207E0,1.9822062E0,3.2687252E0,1.6386303E0,2.398846E0,1.1684552E0,2.493143E0,3.957324E0,2.3091133E0,1.3850176E0,3.2117229E0,3.7332973E0,4.987443E0],"categories":[],"categories_nodes":[],"categories_segments":[],"categories_sizes":[],"default_left":[0,0,0,0,0,0,0,0,0,0,0,0,0,0,0,0,0,0,0,0,0,0,0,0,0,0,0,0,0,0,0,0,0,0,0,0,0,0,0,0,0,0,0],"id":14,"left_children":[1,3,5,7,9,11,13,-1,-1,15,-1,17,19,21,23,25,27,-1,29,31,33,35,37,39,41,-1,-1,-1,-1,-1,-1,-1,-1,-1,-1,-1,-1,-1,-1,-1,-1,-1,-1],"loss_changes":[2.2496677E8,1.0926472E7,1.4027336E7,8.7604E4,1.215128E6,3.410644E6,4.31592E6,0E0,0E0,8.59432E5,0E0,1.371788E6,1.068328E6,9.84006E5,1.265908E6,6.39828E5,6.5228E4,0E0,7.44992E5,3.34334E5,5.02351E5,5.93146E5,6.02555E4,1.21646E5,4.55236E5,0E0,0E0,0E0,0E0,0E0,0E0,0E0,0E0,0E0,0E0,0E0,0E0,0E0,0E0,0E0,0E0,0E0,0E0],"parents":[2147483647,0,0,1,1,2,2,3,3,4,4,5,5,6,6,9,9,11,11,12,12,13,13,14,14,15,15,16,16,18,18,19,19,20,20,21,21,22,22,23,23,24,24],"right_children":[2,4,6,8,10,12,14,-1,-1,16,-1,18,20,22,24,26,28,-1,30,32,34,36,38,40,42,-1,-1,-1,-1,-1,-1,-1,-1,-1,-1,-1,-1,-1,-1,-1,-1,-1,-1],"split_conditions":[1.7726453E2,1E0,4.753537E2,9.9701995E-1,2.409307E2,4.4803714E2,8.380366E-6,-4.0270185E0,-4.78354E0,1.7789185E0,1.3952088E0,4.36625E3,1.0829439E2,6.4913824E2,5.4326E2,1.6846447E-1,1.3498E2,-3.5690103E0,3.71514E2,4.6632565E2,1.7779376E-3,1.0148437E-10,4.7261915E-1,3.7508E2,7.300797E-5,-2.1217358E0,-1.438787E0,-2.5660167E0,-2.1892428E0,1.0497872E0,1.5414207E0,1.9822062E0,3.2687252E0,1.6386303E0,2.398846E0,1.1684552E0,2.493143E0,3.957324E0,2.3091133E0,1.3850176E0,3.2117229E0,3.7332973E0,4.987443E0],"split_indices":[48,66,48,67,52,17,70,0,0,76,0,0,53,17,41,70,41,0,17,17,70,70,8,41,70,0,0,0,0,0,0,0,0,0,0,0,0,0,0,0,0,0,0],"split_type":[0,0,0,0,0,0,0,0,0,0,0,0,0,0,0,0,0,0,0,0,0,0,0,0,0,0,0,0,0,0,0,0,0,0,0,0,0,0,0,0,0,0,0],"sum_hessian":[9.238704E3,4.165123E3,5.073581E3,6.9631946E2,3.4688035E3,3.701211E3,1.3723699E3,5.96898E2,9.942147E1,3.4501748E3,1.8628647E1,2.6177368E3,1.0834741E3,7.86186E2,5.8618384E2,2.2454897E3,1.204685E3,1.0394674E1,2.6073423E3,2.9022455E2,7.932496E2,6.691628E2,1.170232E2,1.7300485E2,4.13179E2,1.8896898E3,3.5579984E2,9.926058E2,2.1207933E2,1.3123125E3,1.2950298E3,6.528647E1,2.2493808E2,4.6955487E2,3.236947E2,8.5271065E1,5.838917E2,1.0249803E2,1.4525172E1,1.2046471E1,1.6095837E2,1.1738992E2,2.9578906E2],"tree_param":{"num_deleted":"0","num_feature":"78","num_nodes":"43","size_leaf_vector":"1"}},{"base_weights":[-6.5640306E-1,1.3487871E2,-1.7129285E2,9.2769035E1,1.9565956E2,-2.870339E2,-1.4721573E2,-3.7924194E0,9.61245E1,1.7240822E2,2.6231906E2,-4.0640574E0,-7.2782755E0,-1.344391E2,-1.7046623E2,9.3651825E1,4.158278E0,1.6673175E2,2.593664E2,1.6829195E2,2.7739676E2,-1.4597818E2,-1.0078967E2,-1.709599E2,-7.456407E-1,1.1232396E0,1.5214158E0,1.7095169E0,2.5159125E0,3.190538E0,5.197362E0,1.1657363E0,2.7455554E0,4.1464148E0,2.5032132E0,-2.172424E0,-1.9149901E0,1.2667143E0,-1.5851643E0,-2.5440068E0,-2.243745E0],"categories":[],"categories_nodes":[],"categories_segments":[],"categories_sizes":[],"default_left":[0,0,0,0,0,0,0,0,0,0,0,0,0,0,0,0,0,0,0,0,0,0,0,0,0,0,0,0,0,0,0,0,0,0,0,0,0,0,0,0,0],"id":15,"left_children":[1,3,5,7,9,11,13,-1,15,17,19,-1,-1,21,23,25,-1,27,29,31,33,35,37,39,-1,-1,-1,-1,-1,-1,-1,-1,-1,-1,-1,-1,-1,-1,-1,-1,-1],"loss_changes":[2.1225704E8,1.305844E7,1.1244536E7,3.659276E6,3.15932E6,5.00828E5,9.58256E5,0E0,1.37722E6,6.89036E5,6.7652E5,0E0,0E0,8.2012E5,5.338E4,5.39924E5,0E0,5.1648E5,2.079685E5,1.2516825E5,4.02484E5,6.4684E4,9.96535E5,5.034E4,0E0,0E0,0E0,0E0,0E0,0E0,0E0,0E0,0E0,0E0,0E0,0E0,0E0,0E0,0E0,0E0,0E0],"parents":[2147483647,0,0,1,1,2,2,3,3,4,4,5,5,6,6,8,8,9,9,10,10,13,13,14,14,15,15,17,17,18,18,19,19,20,20,21,21,22,22,23,23],"right_children":[2,4,6,8,10,12,14,-1,16,18,20,-1,-1,22,24,26,-1,28,30,32,34,36,38,40,-1,-1,-1,-1,-1,-1,-1,-1,-1,-1,-1,-1,-1,-1,-1,-1,-1],"split_conditions":[8.4314394E-1,4.5991037E2,1E0,7.9605E3,6.052851E2,1.3497192E0,1.7789185E0,-3.7924194E0,6.7997E2,1E0,3.63415E4,-4.0640574E0,-7.2782755E0,2.8459E4,1.6386223E2,3.6702155E2,4.158278E0,1.503075E4,5.7675E2,2.51695E4,2.45E2,2.410325E4,1.5555E3,8.7646425E-1,-7.456407E-1,1.1232396E0,1.5214158E0,1.7095169E0,2.5159125E0,3.190538E0,5.197362E0,1.1657363E0,2.7455554E0,4.1464148E0,2.5032132E0,-2.172424E0,-1.9149901E0,1.2667143E0,-1.5851643E0,-2.5440068E0,-2.243745E0],"split_indices":[76,17,66,0,17,65,76,0,40,25,46,0,0,4,17,17,0,13,39,0,32,4,47,1,0,0,0,0,0,0,0,0,0,0,0,0,0,0,0,0,0],"split_type":[0,0,0,0,0,0,0,0,0,0,0,0,0,0,0,0,0,0,0,0,0,0,0,0,0,0,0,0,0,0,0,0,0,0,0,0,0,0,0,0,0],"sum_hessian":[9.174144E3,5.113174E3,4.0609697E3,3.0232505E3,2.0899233E3,6.9587274E2,3.365097E3,2.6911331E1,2.996339E3,1.5543217E3,5.3560175E2,6.843594E2,1.1513354E1,2.1797075E3,1.1853895E3,2.9610117E3,3.5327343E1,1.4640833E3,9.023841E1,7.7090576E1,4.5851117E2,1.6185631E3,5.611443E2,1.1796787E3,5.7108946E0,1.2841975E3,1.6768142E3,2.098443E2,1.254239E3,6.988146E1,2.0356949E1,1.7358486E1,5.9732094E1,4.1395047E2,4.45607E1,1.1714427E3,4.4712045E2,2.5398993E1,5.357453E2,8.4937616E2,3.303025E2],"tree_param":{"num_deleted":"0","num_feature":"78","num_nodes":"41","size_leaf_vector":"1"}},{"base_weights":[1.365678E0,-1.6738182E2,1.3855724E2,-2.820379E2,-1.4405756E2,1.0873676E2,2.3660493E2,-7.9029827E0,-3.979892E0,-1.4637337E2,1.4941504E0,9.8266E1,1.7772932E2,1.9942075E2,2.7342148E2,-1.333511E2,-1.677608E2,6.960177E1,1.1641508E2,1.460215E2,2.2673476E2,1.13910835E2,2.1218875E2,2.8402335E2,1.4289764E2,-2.0059009E0,-1.0798076E0,-2.5301018E0,-2.2061713E0,-3.3587165E0,1.0344373E0,1.413258E0,2.0213006E0,1.0414401E0,2.2230358E0,2.5719054E0,4.414305E0,1.2152355E0,2.00663E0,3.499073E0,2.5556986E0,4.253984E0,3.0757916E0,1.2323748E0,2.458107E0],"categories":[],"categories_nodes":[],"categories_segments":[],"categories_sizes":[],"default_left":[0,0,0,0,0,0,0,0,0,0,0,0,0,0,0,0,0,0,0,0,0,0,0,0,0,0,0,0,0,0,0,0,0,0,0,0,0,0,0,0,0,0,0,0,0],"id":16,"left_children":[1,3,5,7,9,11,13,-1,-1,15,-1,17,19,21,23,25,27,29,31,33,35,37,39,41,43,-1,-1,-1,-1,-1,-1,-1,-1,-1,-1,-1,-1,-1,-1,-1,-1,-1,-1,-1,-1],"loss_changes":[2.158161E8,1.1105032E7,1.4986848E7,8.21116E5,2.022864E6,2.81872E6,1.539768E6,0E0,0E0,9.18816E5,0E0,1.769662E6,7.43875E5,6.13658E5,7.51664E5,7.15976E5,9.9492E4,9.127365E5,8.92572E5,1.73926E5,6.68487E5,4.014025E4,4.78408E5,3.19088E5,5.0363875E4,0E0,0E0,0E0,0E0,0E0,0E0,0E0,0E0,0E0,0E0,0E0,0E0,0E0,0E0,0E0,0E0,0E0,0E0,0E0,0E0],"parents":[2147483647,0,0,1,1,2,2,3,3,4,4,5,5,6,6,9,9,11,11,12,12,13,13,14,14,15,15,16,16,17,17,18,18,19,19,20,20,21,21,22,22,23,23,24,24],"right_children":[2,4,6,8,10,12,14,-1,-1,16,-1,18,20,22,24,26,28,30,32,34,36,38,40,42,44,-1,-1,-1,-1,-1,-1,-1,-1,-1,-1,-1,-1,-1,-1,-1,-1,-1,-1,-1,-1],"split_conditions":[1.7726453E2,8.4642094E5,5.7151E2,4.76746E-6,1.742E3,4.753537E2,6.4573E2,-7.9029827E0,-3.979892E0,1.7789185E0,1.4941504E0,4.1203E2,1.7610186E-6,3.13825E3,1.7308768E-5,4.4577098E-1,1.1968E2,7.9301305E-2,1.8650388E-3,2.375E3,3.9169E2,6.818221E-1,3.0210337E-1,5.169975E-1,5.3983533E-1,-2.0059009E0,-1.0798076E0,-2.5301018E0,-2.2061713E0,-3.3587165E0,1.0344373E0,1.413258E0,2.0213006E0,1.0414401E0,2.2230358E0,2.5719054E0,4.414305E0,1.2152355E0,2.00663E0,3.499073E0,2.5556986E0,4.253984E0,3.0757916E0,1.2323748E0,2.458107E0],"split_indices":[48,59,38,68,44,48,38,0,0,76,0,38,70,11,67,70,41,1,70,11,43,1,55,76,1,0,0,0,0,0,0,0,0,0,0,0,0,0,0,0,0,0,0,0,0],"split_type":[0,0,0,0,0,0,0,0,0,0,0,0,0,0,0,0,0,0,0,0,0,0,0,0,0,0,0,0,0,0,0,0,0,0,0,0,0,0,0,0,0,0,0,0,0],"sum_hessian":[9.318556E3,4.178518E3,5.140038E3,7.029102E2,3.475608E3,3.9442732E3,1.1957646E3,1.1458057E1,6.9145215E2,3.444162E3,3.144575E1,3.4283914E3,5.158819E2,6.007492E2,5.950155E2,2.1489521E3,1.29521E3,1.3325845E3,2.095807E3,3.1763855E2,1.9824336E2,8.040529E1,5.2034393E2,5.483266E2,4.6688873E1,1.9510231E3,1.9792912E2,8.316464E2,4.6356354E2,8.16203E0,1.3244225E3,1.1901434E3,9.0566327E2,3.3749046E1,2.8388953E2,1.2711391E2,7.1129456E1,4.075401E1,3.9651283E1,2.710543E2,2.4928961E2,4.682824E2,8.00442E1,1.7630507E1,2.9058369E1],"tree_param":{"num_deleted":"0","num_feature":"78","num_nodes":"45","size_leaf_vector":"1"}},{"base_weights":[3.1749458E0,1.3572018E2,-1.6727661E2,1.0896168E2,2.3981807E2,-2.791188E2,-1.4368695E2,-3.6303496E0,1.1114232E2,1.9879834E2,2.9139917E2,-2.7412357E2,-7.138272E0,-1.3142195E2,-1.651337E2,9.521522E1,1.5490138E2,1.5985263E2,2.247123E2,3.0961295E2,2.9378073E0,-3.8616595E0,-4.572414E0,-1.0837031E2,-1.431639E2,-1.6802426E2,-1.3227084E2,2.3289764E0,1.2488142E0,1.2582735E0,2.3956273E0,1.1283269E0,2.4879415E0,2.7403831E0,4.0984397E0,4.8783484E0,3.5636191E0,-7.3702574E-1,-1.6624372E0,-2.0728111E0,-8.476739E-1,-1.800937E0,-2.4438548E0,-1.5761963E0,-2.1247702E0],"categories":[],"categories_nodes":[],"categories_segments":[],"categories_sizes":[],"default_left":[0,0,0,0,0,0,0,0,0,0,0,0,0,0,0,0,0,0,0,0,0,0,0,0,0,0,0,0,0,0,0,0,0,0,0,0,0,0,0,0,0,0,0,0,0],"id":17,"left_children":[1,3,5,7,9,11,13,-1,15,17,19,21,-1,23,25,27,29,31,33,35,-1,-1,-1,37,39,41,43,-1,-1,-1,-1,-1,-1,-1,-1,-1,-1,-1,-1,-1,-1,-1,-1,-1,-1],"loss_changes":[2.0553018E8,1.420744E7,1.0426064E7,3.257712E6,2.105048E6,4.9836E5,8.25752E5,0E0,2.796584E6,5.27546E5,6.16236E5,2.4704E4,0E0,5.40584E5,7.2364E4,1.663958E6,8.00132E5,2.27042E5,6.19662E5,5.25284E5,0E0,0E0,0E0,2.76218E5,6.4178E4,3.4656E4,6.893125E3,0E0,0E0,0E0,0E0,0E0,0E0,0E0,0E0,0E0,0E0,0E0,0E0,0E0,0E0,0E0,0E0,0E0,0E0],"parents":[2147483647,0,0,1,1,2,2,3,3,4,4,5,5,6,6,8,8,9,9,10,10,11,11,13,13,14,14,15,15,16,16,17,17,18,18,19,19,23,23,24,24,25,25,26,26],"right_children":[2,4,6,8,10,12,14,-1,16,18,20,22,-1,24,26,28,30,32,34,36,-1,-1,-1,38,40,42,44,-1,-1,-1,-1,-1,-1,-1,-1,-1,-1,-1,-1,-1,-1,-1,-1,-1,-1],"split_conditions":[8.4314394E-1,5.362164E2,1E0,7.9605E3,6.2443445E2,1.3497192E0,1.7789185E0,-3.6303496E0,4.553084E2,6.9567723E-6,-1.8369701E-16,9.989545E-1,-7.138272E0,6.352321E-29,1.6448E2,-7.0340955E-1,3.17375E3,7.8547715E-12,5.501E2,4.16975E3,2.9378073E0,-3.8616595E0,-4.572414E0,-9.350162E-1,2.2746536E2,5.371141E-2,6.76325E3,2.3289764E0,1.2488142E0,1.2582735E0,2.3956273E0,1.1283269E0,2.4879415E0,2.7403831E0,4.0984397E0,4.8783484E0,3.5636191E0,-7.3702574E-1,-1.6624372E0,-2.0728111E0,-8.476739E-1,-1.800937E0,-2.4438548E0,-1.5761963E0,-2.1247702E0],"split_indices":[76,17,66,0,17,65,76,0,17,70,27,67,0,67,41,56,11,70,41,60,0,0,0,28,17,2,3,0,0,0,0,0,0,0,0,0,0,0,0,0,0,0,0,0,0],"split_type":[0,0,0,0,0,0,0,0,0,0,0,0,0,0,0,0,0,0,0,0,0,0,0,0,0,0,0,0,0,0,0,0,0,0,0,0,0,0,0,0,0,0,0,0,0],"sum_hessian":[9.093593E3,5.115832E3,3.9777607E3,4.0726853E3,1.0431467E3,6.894007E2,3.28836E3,2.3202982E1,4.0494822E3,5.860039E2,4.5714285E2,6.778873E2,1.1513354E1,2.1002825E3,1.1880775E3,2.973147E3,1.0763353E3,2.393687E2,3.466352E2,3.745598E2,8.258305E1,6.050419E2,7.284551E1,7.1510547E2,1.385177E3,1.0851112E3,1.0296637E2,3.354852E2,2.6376616E3,1.5700833E2,9.19327E2,3.4241703E1,2.05127E2,2.244409E2,1.22194305E2,2.5027585E2,1.2428395E2,7.9562965E1,6.355425E2,1.3727994E3,1.2377586E1,4.336454E1,1.0417467E3,4.7042152E1,5.5924217E1],"tree_param":{"num_deleted":"0","num_feature":"78","num_nodes":"45","size_leaf_vector":"1"}},{"base_weights":[1.9475927E0,-1.645322E2,1.3267218E2,-2.7548138E2,-1.4132188E2,1.0445603E2,2.3688573E2,-2.7053375E2,-7.0495014E0,-1.4746332E2,-7.931429E1,8.879951E1,1.5169925E2,1.9346669E2,2.8490057E2,-4.4237976E0,-3.7937567E0,-1.3569228E2,-1.6384573E2,-1.09868645E2,1.0720965E2,-3.3973966E0,9.004133E1,9.093692E1,1.6052263E2,1.0161169E2,2.0506334E2,3.1095926E2,2.0521992E2,-2.091507E0,-1.717559E0,-2.4127283E0,-2.0657995E0,-1.4245255E0,-2.2015262E0,-5.7188714E-1,1.8442662E0,1.1781232E0,1.7035537E0,7.564832E-1,1.6798762E0,2.0365438E0,2.7355905E0,1.6476668E0,3.651455E-1,2.509011E0,3.2857974E0,2.8534424E0,4.647475E0,2.284119E0,3.3929753E0],"categories":[],"categories_nodes":[],"categories_segments":[],"categories_sizes":[],"default_left":[0,0,0,0,0,0,0,0,0,0,0,0,0,0,0,0,0,0,0,0,0,0,0,0,0,0,0,0,0,0,0,0,0,0,0,0,0,0,0,0,0,0,0,0,0,0,0,0,0,0,0],"id":18,"left_children":[1,3,5,7,9,11,13,15,-1,17,19,21,23,25,27,-1,-1,29,31,33,35,-1,37,39,41,43,45,47,49,-1,-1,-1,-1,-1,-1,-1,-1,-1,-1,-1,-1,-1,-1,-1,-1,-1,-1,-1,-1,-1,-1],"loss_changes":[1.9777862E8,1.0222416E7,1.4923536E7,4.87216E5,1.238888E6,2.940816E6,2.157348E6,3.1732E4,0E0,5.39588E5,1.7438024E6,1.254252E6,5.06922E5,5.7384E5,9.43264E5,0E0,0E0,2.43032E5,4.7918E4,9.54795E4,1.419279E5,0E0,6.839E5,1.17339125E5,4.3865E5,6.0731938E4,2.88528E5,3.80692E5,1.17024E5,0E0,0E0,0E0,0E0,0E0,0E0,0E0,0E0,0E0,0E0,0E0,0E0,0E0,0E0,0E0,0E0,0E0,0E0,0E0,0E0,0E0,0E0],"parents":[2147483647,0,0,1,1,2,2,3,3,4,4,5,5,6,6,7,7,9,9,10,10,11,11,12,12,13,13,14,14,17,17,18,18,19,19,20,20,22,22,23,23,24,24,25,25,26,26,27,27,28,28],"right_children":[2,4,6,8,10,12,14,16,-1,18,20,22,24,26,28,-1,-1,30,32,34,36,-1,38,40,42,44,46,48,50,-1,-1,-1,-1,-1,-1,-1,-1,-1,-1,-1,-1,-1,-1,-1,-1,-1,-1,-1,-1,-1,-1],"split_conditions":[1.7726453E2,1E0,5.30841E2,1.3497192E0,3E0,4.5991037E2,6.2443445E2,3.2760808E-3,-7.0495014E0,1.726329E0,5.065E2,2.35825E3,2.956E3,3.0635E3,6.624E3,-4.4237976E0,-3.7937567E0,4.9048E4,1.3026E2,1.7789185E0,3.0639077E-2,-3.3973966E0,4.6117E2,4.8945996E2,4.5570636E2,5.844114E2,3.4452457E4,4.3531E2,4.7503E2,-2.091507E0,-1.717559E0,-2.4127283E0,-2.0657995E0,-1.4245255E0,-2.2015262E0,-5.7188714E-1,1.8442662E0,1.1781232E0,1.7035537E0,7.564832E-1,1.6798762E0,2.0365438E0,2.7355905E0,1.6476668E0,3.651455E-1,2.509011E0,3.2857974E0,2.8534424E0,4.647475E0,2.284119E0,3.3929753E0],"split_indices":[48,66,17,65,66,17,17,68,0,76,44,0,11,11,60,0,0,0,43,76,2,0,40,17,48,48,54,40,41,0,0,0,0,0,0,0,0,0,0,0,0,0,0,0,0,0,0,0,0,0,0],"split_type":[0,0,0,0,0,0,0,0,0,0,0,0,0,0,0,0,0,0,0,0,0,0,0,0,0,0,0,0,0,0,0,0,0,0,0,0,0,0,0,0,0,0,0,0,0,0,0,0,0,0,0],"sum_hessian":[9.084177E3,3.9954434E3,5.088733E3,6.8779486E2,3.3076484E3,4.0073828E3,1.0813502E3,6.762815E2,1.1513354E1,3.0072766E3,3.003719E2,3.0138513E3,9.9353156E2,5.726805E2,5.0866968E2,9.979056E1,5.7649097E2,1.7598031E3,1.2474736E3,2.5873987E2,4.163202E1,1.0171144E1,3.0036802E3,1.286009E2,8.6493066E2,6.6197556E1,5.064829E2,3.7931247E2,1.2935722E2,1.1098889E3,6.499141E2,1.0503911E3,1.9708252E2,2.1070616E2,4.8033707E1,4.9513407E0,3.668068E1,2.326772E3,6.7690814E2,5.3687443E1,7.491346E1,5.2913477E2,3.3579587E2,5.594584E1,1.0251715E1,2.2239224E2,2.8409067E2,3.8289757E1,3.410227E2,5.531901E1,7.4038216E1],"tree_param":{"num_deleted":"0","num_feature":"78","num_nodes":"51","size_leaf_vector":"1"}},{"base_weights":[-2.3909481E-1,-1.6074318E2,1.2802592E2,-2.7125568E2,-1.377711E2,9.878113E1,2.1321967E2,-3.810396E0,-7.910423E0,-1.395751E2,1.3898431E0,8.139159E1,1.3733113E2,1.7495894E2,2.9819672E2,-1.277201E2,-1.6116388E2,-3.2164347E0,8.247952E1,1.1353419E2,1.6148093E2,1.9404599E2,1.0603906E2,3.4358984E2,2.664082E2,2.6495708E-4,-1.8763924E0,-2.3895044E0,-2.0134904E0,9.6477634E-1,1.4189762E0,1.3276144E0,2.0071273E0,1.7937369E0,2.495034E0,1.159076E0,2.9397566E0,6.3923734E-1,1.7622201E0,3.4222314E0,5.096341E0,3.5636246E0,4.456553E0],"categories":[],"categories_nodes":[],"categories_segments":[],"categories_sizes":[],"default_left":[0,0,0,0,0,0,0,0,0,0,0,0,0,0,0,0,0,0,0,0,0,0,0,0,0,0,0,0,0,0,0,0,0,0,0,0,0,0,0,0,0,0,0],"id":19,"left_children":[1,3,5,7,9,11,13,-1,-1,15,-1,17,19,21,23,25,27,-1,29,31,33,35,37,39,41,-1,-1,-1,-1,-1,-1,-1,-1,-1,-1,-1,-1,-1,-1,-1,-1,-1,-1],"loss_changes":[1.8886424E8,1.0276496E7,1.2665656E7,1.060876E6,1.451656E6,2.526532E6,4.136084E6,0E0,0E0,8.20292E5,0E0,9.0279E5,6.43684E5,1.14871E6,4.11912E5,6.92272E5,7.556E4,0E0,6.37228E5,3.070595E5,2.11139E5,7.66768E5,1.9016575E5,1.6418E4,6.0138E4,0E0,0E0,0E0,0E0,0E0,0E0,0E0,0E0,0E0,0E0,0E0,0E0,0E0,0E0,0E0,0E0,0E0,0E0],"parents":[2147483647,0,0,1,1,2,2,3,3,4,4,5,5,6,6,9,9,11,11,12,12,13,13,14,14,15,15,16,16,18,18,19,19,20,20,21,21,22,22,23,23,24,24],"right_children":[2,4,6,8,10,12,14,-1,-1,16,-1,18,20,22,24,26,28,-1,30,32,34,36,38,40,42,-1,-1,-1,-1,-1,-1,-1,-1,-1,-1,-1,-1,-1,-1,-1,-1,-1,-1],"split_conditions":[1.7726453E2,2.408425E4,4.753537E2,1.300956E0,1.742E3,4.4803714E2,4.175125E4,-3.810396E0,-7.910423E0,1.7789185E0,1.3898431E0,1.02425E3,7.474469E-4,5.169975E-1,1.204025E4,3.772185E-2,1.3831E2,-3.2164347E0,3.71514E2,7.3171825E5,4.3388373E-1,3.672E2,2.455E3,4.430831E4,4.690775E4,2.6495708E-4,-1.8763924E0,-2.3895044E0,-2.0134904E0,9.6477634E-1,1.4189762E0,1.3276144E0,2.0071273E0,1.7937369E0,2.495034E0,1.159076E0,2.9397566E0,6.3923734E-1,1.7622201E0,3.4222314E0,5.096341E0,3.5636246E0,4.456553E0],"split_indices":[48,0,48,65,44,17,0,0,0,76,0,0,70,76,12,2,41,0,17,63,24,41,11,7,45,0,0,0,0,0,0,0,0,0,0,0,0,0,0,0,0,0,0],"split_type":[0,0,0,0,0,0,0,0,0,0,0,0,0,0,0,0,0,0,0,0,0,0,0,0,0,0,0,0,0,0,0,0,0,0,0,0,0,0,0,0,0,0,0],"sum_hessian":[9.170275E3,4.0730337E3,5.097241E3,6.975495E2,3.3754841E3,3.7975798E3,1.2996615E3,6.842902E2,1.3259281E1,3.3504177E3,2.5066347E1,2.620974E3,1.1766057E3,9.000217E2,3.996398E2,2.1709407E3,1.179477E3,7.9993796E0,2.6129746E3,5.9788416E2,5.7872156E2,7.0222345E2,1.9779828E2,1.5721208E2,2.4242772E2,4.161086E1,2.1293298E3,9.587937E2,2.2068329E2,1.3305363E3,1.2824385E3,3.3108908E2,2.667951E2,1.4382526E2,4.348963E2,5.794699E1,6.442765E2,4.2673557E1,1.5512473E2,1.7531622E1,1.3968045E2,1.7623845E2,6.618927E1],"tree_param":{"num_deleted":"0","num_feature":"78","num_nodes":"43","size_leaf_vector":"1"}},{"base_weights":[3.804158E0,-1.600508E2,1.3046298E2,-2.658549E2,-1.3834047E2,9.988863E1,2.140704E2,-2.6243875E2,-6.868738E0,-1.4001207E2,1.1628389E1,8.248684E1,1.4275888E2,1.7895244E2,3.0695532E2,-4.2143874E0,-3.6632717E0,-1.575912E2,-1.2808702E2,-3.6433136E1,1.3835787E0,-3.4105048E0,8.398441E1,1.9915776E2,1.2546945E2,1.9737141E2,1.16509285E2,3.486179E2,2.7055353E2,-2.3304822E0,-1.9665626E0,-1.9671453E0,-1.5010529E0,-1.823548E-1,-5.9598446E-1,9.807479E-1,1.4329307E0,1.050767E0,3.036427E0,2.1718519E0,1.459435E0,1.7711626E0,3.0471098E0,1.2812383E0,2.0977623E0,5.165059E0,3.4427829E0,3.1195798E0,4.187785E0],"categories":[],"categories_nodes":[],"categories_segments":[],"categories_sizes":[],"default_left":[0,0,0,1,0,0,0,0,0,0,0,0,0,0,0,0,0,0,0,0,0,0,0,0,0,0,0,0,0,0,0,0,0,0,0,0,0,0,0,0,0,0,0,0,0,0,0,0,0],"id":20,"left_children":[1,3,5,7,9,11,13,15,-1,17,19,21,23,25,27,-1,-1,29,31,33,-1,-1,35,37,39,41,43,45,47,-1,-1,-1,-1,-1,-1,-1,-1,-1,-1,-1,-1,-1,-1,-1,-1,-1,-1,-1,-1],"loss_changes":[1.9282682E8,9.237616E6,1.3356552E7,2.66488E5,8.46548E5,2.843604E6,4.471484E6,3.208E4,0E0,6.60716E5,1.6368431E5,1.344064E6,1.033088E6,1.132742E6,4.06816E5,0E0,0E0,7.639E4,3.75548E5,2.0844492E3,0E0,0E0,6.58184E5,3.46091E5,4.92266E5,7.76996E5,1.66523E5,2.8382E4,1.14914E5,0E0,0E0,0E0,0E0,0E0,0E0,0E0,0E0,0E0,0E0,0E0,0E0,0E0,0E0,0E0,0E0,0E0,0E0,0E0,0E0],"parents":[2147483647,0,0,1,1,2,2,3,3,4,4,5,5,6,6,7,7,9,9,10,10,11,11,12,12,13,13,14,14,17,17,18,18,19,19,22,22,23,23,24,24,25,25,26,26,27,27,28,28],"right_children":[2,4,6,8,10,12,14,16,-1,18,20,22,24,26,28,-1,-1,30,32,34,-1,-1,36,38,40,42,44,46,48,-1,-1,-1,-1,-1,-1,-1,-1,-1,-1,-1,-1,-1,-1,-1,-1,-1,-1,-1,-1],"split_conditions":[1.7726453E2,2.408425E4,4.753537E2,1.8287245E0,1.7023E2,3.9054E2,4.32865E4,5.768903E-3,-6.868738E0,7.9167725E1,5.5441E4,4.36625E3,1.0662542E2,1.563047E2,1.223325E4,-4.2143874E0,-3.6632717E0,1.3498E2,5.374925E4,4.41208E4,1.3835787E0,-3.4105048E0,3.1413E2,-6.6312265E-1,9.983669E-1,4.3146E2,3.468E3,2.43E2,5.1229E2,-2.3304822E0,-1.9665626E0,-1.9671453E0,-1.5010529E0,-1.823548E-1,-5.9598446E-1,9.807479E-1,1.4329307E0,1.050767E0,3.036427E0,2.1718519E0,1.459435E0,1.7711626E0,3.0471098E0,1.2812383E0,2.0977623E0,5.165059E0,3.4427829E0,3.1195798E0,4.187785E0],"split_indices":[48,0,48,20,18,18,0,68,0,52,0,0,53,53,12,0,0,41,0,7,0,0,18,29,69,41,11,32,18,0,0,0,0,0,0,0,0,0,0,0,0,0,0,0,0,0,0,0,0],"split_type":[0,0,0,0,0,0,0,0,0,0,0,0,0,0,0,0,0,0,0,0,0,0,0,0,0,0,0,0,0,0,0,0,0,0,0,0,0,0,0,0,0,0,0,0,0,0,0,0,0],"sum_hessian":[9.287546E3,4.0489937E3,5.2385527E3,6.858724E2,3.3631213E3,3.8387688E3,1.3997837E3,6.7897363E2,6.8986993E0,3.3261692E3,3.69521E1,2.7342407E3,1.1045281E3,1.01963184E3,3.8015186E2,1.3237877E2,5.465949E2,1.3353458E3,1.9908235E3,2.4203926E1,1.2748173E1,1.1428622E1,2.722812E3,2.5464139E2,8.4988666E2,7.8432574E2,2.3530614E2,1.6995451E2,2.1019734E2,1.1065172E3,2.2882857E2,1.4658911E3,5.249323E2,5.2781878E0,1.8925737E1,1.3459282E3,1.3768839E3,2.2480886E1,2.321605E2,4.1116708E2,4.3871957E2,1.2760206E2,6.5672363E2,1.2451538E2,1.1079076E2,1.521898E2,1.7764717E1,6.2722507E1,1.4747484E2],"tree_param":{"num_deleted":"0","num_feature":"78","num_nodes":"49","size_leaf_vector":"1"}},{"base_weights":[3.121547E0,-1.5876656E2,1.26337456E2,-2.687523E2,-1.34971E2,9.892056E1,2.2636292E2,-5.145075E2,-2.5826337E2,-1.5681242E2,-1.21707855E2,8.2320656E1,1.4663834E2,1.8890288E2,2.6644388E2,-8.018276E0,-3.5706437E0,-4.1713705E0,-3.6294606E0,-2.3688228E0,-1.4628764E2,-8.5525406E1,-1.3193312E2,-2.0146599E2,8.535961E1,2.1323575E2,1.3866035E2,2.091512E2,1.3707628E2,1.7629848E2,2.907595E2,-1.8461E0,-2.2299972E0,1.6105677E0,-1.389789E0,-1.7635832E0,-2.0019796E0,-3.3992183E0,-1.6521298E0,1.196205E0,3.562359E0,2.360098E0,3.9917364E0,1.7718078E0,2.63519E0,2.5373971E0,3.4415507E0,1.0356674E0,2.198993E0,1.2070798E0,2.755593E0,4.3539267E0,3.215413E0],"categories":[],"categories_nodes":[],"categories_segments":[],"categories_sizes":[],"default_left":[0,0,0,0,0,0,0,0,0,0,0,0,0,0,0,0,0,0,0,0,0,0,0,0,0,0,0,0,0,0,0,0,0,0,0,0,0,0,0,0,0,0,0,0,0,0,0,0,0,0,0,0,0],"id":21,"left_children":[1,3,5,7,9,11,13,15,17,19,21,23,25,27,29,-1,-1,-1,-1,-1,31,33,35,37,39,41,43,45,47,49,51,-1,-1,-1,-1,-1,-1,-1,-1,-1,-1,-1,-1,-1,-1,-1,-1,-1,-1,-1,-1,-1,-1],"loss_changes":[1.8421331E8,1.0379312E7,1.4339648E7,1.582196E6,9.16684E5,3.240576E6,1.599596E6,5.1388E4,2.892E3,5.4436E4,7.38536E5,2.67046E6,5.09486E5,5.65298E5,1.089556E6,0E0,0E0,0E0,0E0,0E0,4.5786E4,1.00503675E6,7.5526E4,4.903775E4,1.113374E6,2.64179E5,6.20154E5,3.3506E5,1.52707E5,1.3552E5,2.01876E5,0E0,0E0,0E0,0E0,0E0,0E0,0E0,0E0,0E0,0E0,0E0,0E0,0E0,0E0,0E0,0E0,0E0,0E0,0E0,0E0,0E0,0E0],"parents":[2147483647,0,0,1,1,2,2,3,3,4,4,5,5,6,6,7,7,8,8,9,9,10,10,11,11,12,12,13,13,14,14,20,20,21,21,22,22,23,23,24,24,25,25,26,26,27,27,28,28,29,29,30,30],"right_children":[2,4,6,8,10,12,14,16,18,20,22,24,26,28,30,-1,-1,-1,-1,-1,32,34,36,38,40,42,44,46,48,50,52,-1,-1,-1,-1,-1,-1,-1,-1,-1,-1,-1,-1,-1,-1,-1,-1,-1,-1,-1,-1,-1,-1],"split_conditions":[6.7968605E1,2.408425E4,5.362164E2,1.7051083E-5,8.033796E1,4.588449E2,6.2443445E2,6.439885E-1,3.2760808E-3,1.718E1,8.8251513E-1,9.38525E3,3.010925E4,1.3706049E2,1.554225E4,-8.018276E0,-3.5706437E0,-4.1713705E0,-3.6294606E0,-2.3688228E0,9.9575335E-1,1.5555E3,4.4048567E-18,6.46075E3,6.067E2,1.2275E2,6.234898E-1,5.1E2,3.13825E3,5.545801E-1,-1.8369701E-16,-1.8461E0,-2.2299972E0,1.6105677E0,-1.389789E0,-1.7635832E0,-2.0019796E0,-3.3992183E0,-1.6521298E0,1.196205E0,3.562359E0,2.360098E0,3.9917364E0,1.7718078E0,2.63519E0,2.5373971E0,3.4415507E0,1.0356674E0,2.198993E0,1.2070798E0,2.755593E0,4.3539267E0,3.215413E0],"split_indices":[49,0,17,68,52,17,17,8,68,18,69,12,45,49,13,0,0,0,0,0,69,47,68,0,39,9,25,41,11,1,27,0,0,0,0,0,0,0,0,0,0,0,0,0,0,0,0,0,0,0,0,0,0],"split_type":[0,0,0,0,0,0,0,0,0,0,0,0,0,0,0,0,0,0,0,0,0,0,0,0,0,0,0,0,0,0,0,0,0,0,0,0,0,0,0,0,0,0,0,0,0,0,0,0,0,0,0,0,0],"sum_hessian":[9.231385E3,3.9893806E3,5.2420044E3,7.0623956E2,3.2831409E3,4.117137E3,1.1248672E3,2.5312912E1,6.809267E2,1.2329519E3,2.050189E3,3.0582334E3,1.0589038E3,5.8684375E2,5.3802344E2,2.0157982E1,5.15493E0,1.0199294E2,5.789337E2,7.0141376E2,5.3153815E2,4.5550363E2,1.5946854E3,3.1137375E1,3.027096E3,1.0824739E2,9.5065643E2,4.179874E2,1.6885638E2,1.17500404E2,4.2052304E2,1.7827766E2,3.5326047E2,2.300457E1,4.3249905E2,6.887015E2,9.0598395E2,2.00472E1,1.1090176E1,2.9865427E3,4.055321E1,6.4643776E1,4.360361E1,7.0659125E2,2.4406522E2,2.0370917E2,2.1427823E2,3.44533E1,1.3440309E2,1.800373E1,9.949667E1,3.544937E2,6.602935E1],"tree_param":{"num_deleted":"0","num_feature":"78","num_nodes":"53","size_leaf_vector":"1"}},{"base_weights":[3.108807E0,-1.5763528E2,1.2411938E2,-2.5939417E2,-1.3448985E2,9.563593E1,1.9638715E2,-2.5441801E2,-8.086328E0,-1.3587364E2,4.7759052E1,8.01345E1,1.3885837E2,1.552354E2,2.6398233E2,-3.559995E0,-4.06378E0,-1.2533397E2,-1.551839E2,-6.6807514E-1,1.0457282E0,-3.1159992E0,8.1098206E1,1.0771905E2,1.6800517E2,8.156172E1,1.6560329E2,2.1364787E2,2.8955804E2,-1.8990042E0,-1.4783725E0,-2.2651637E0,-1.5588715E0,9.5021206E-1,1.3809428E0,7.925233E-1,1.6553689E0,3.215318E0,2.1531568E0,1.7125684E0,5.9873515E-1,2.6323068E0,1.8367981E0,3.3190844E0,2.4141753E0,4.408552E0,2.984138E0],"categories":[],"categories_nodes":[],"categories_segments":[],"categories_sizes":[],"default_left":[0,0,0,0,0,0,0,0,0,0,0,0,0,0,0,0,0,0,0,0,0,0,0,0,0,0,0,0,0,0,0,0,0,0,0,0,0,0,0,0,0,0,0,0,0,0,0],"id":22,"left_children":[1,3,5,7,9,11,13,15,-1,17,19,21,23,25,27,-1,-1,29,31,-1,-1,-1,33,35,37,39,41,43,45,-1,-1,-1,-1,-1,-1,-1,-1,-1,-1,-1,-1,-1,-1,-1,-1,-1,-1],"loss_changes":[1.8110654E8,9.354352E6,1.0899528E7,8.48672E5,8.34428E5,2.534796E6,4.097392E6,2.1072E4,0E0,6.23316E5,6.670395E4,8.34972E5,8.78296E5,6.90824E5,6.14196E5,0E0,0E0,2.83822E5,7.6132E4,0E0,0E0,0E0,6.14506E5,1.73543E5,4.67043E5,1.6872869E5,4.90798E5,8.1224E4,3.832E5,0E0,0E0,0E0,0E0,0E0,0E0,0E0,0E0,0E0,0E0,0E0,0E0,0E0,0E0,0E0,0E0,0E0,0E0],"parents":[2147483647,0,0,1,1,2,2,3,3,4,4,5,5,6,6,7,7,9,9,10,10,11,11,12,12,13,13,14,14,17,17,18,18,22,22,23,23,24,24,25,25,26,26,27,27,28,28],"right_children":[2,4,6,8,10,12,14,16,-1,18,20,22,24,26,28,-1,-1,30,32,-1,-1,-1,34,36,38,40,42,44,46,-1,-1,-1,-1,-1,-1,-1,-1,-1,-1,-1,-1,-1,-1,-1,-1,-1,-1],"split_conditions":[1.7726453E2,2.408425E4,4.753537E2,1.3497192E0,3.8009E2,4.588449E2,3.9637E4,9.928064E-1,-8.086328E0,1.7789185E0,5.185975E4,4.36625E3,7.900124E-4,1.0148437E-10,5.0661353E2,-3.559995E0,-4.06378E0,5.232342E-2,9.462886E-1,-6.6807514E-1,1.0457282E0,-3.1159992E0,3.71514E2,3.6501E4,1.0586606E2,2.4E2,8.5546E2,2.5443292E-1,1.5606393E2,-1.8990042E0,-1.4783725E0,-2.2651637E0,-1.5588715E0,9.5021206E-1,1.3809428E0,7.925233E-1,1.6553689E0,3.215318E0,2.1531568E0,1.7125684E0,5.9873515E-1,2.6323068E0,1.8367981E0,3.3190844E0,2.4141753E0,4.408552E0,2.984138E0],"split_indices":[48,0,48,65,42,17,0,67,0,76,0,0,70,70,48,0,0,70,1,0,0,0,17,0,53,32,50,55,53,0,0,0,0,0,0,0,0,0,0,0,0,0,0,0,0,0,0],"split_type":[0,0,0,0,0,0,0,0,0,0,0,0,0,0,0,0,0,0,0,0,0,0,0,0,0,0,0,0,0,0,0,0,0,0,0,0,0,0,0,0,0,0,0,0,0,0,0],"sum_hessian":[9.306895E3,3.9969722E3,5.3099224E3,7.3720184E2,3.2597703E3,3.8117979E3,1.4981245E3,7.285572E2,8.644627E0,3.2356685E3,2.4101894E1,2.8094338E3,1.002364E3,9.3495465E2,5.6316986E2,5.893698E2,1.391874E2,2.1020527E3,1.1336156E3,4.695468E0,1.9406427E1,7.781836E0,2.801652E3,4.8876947E2,5.1359454E2,1.17342834E2,8.176118E2,1.9550592E2,3.676639E2,1.6307781E3,4.7127475E2,1.083025E3,5.059059E1,1.385922E3,1.4157301E3,6.032107E1,4.284484E2,1.2441883E2,3.891757E2,5.8876034E1,5.84668E1,5.6003204E2,2.5757974E2,1.3820068E2,5.730523E1,3.026123E2,6.505162E1],"tree_param":{"num_deleted":"0","num_feature":"78","num_nodes":"47","size_leaf_vector":"1"}},{"base_weights":[-1.25884E0,-1.5480704E2,1.2359497E2,-2.5827686E2,-1.3261307E2,9.9410225E1,2.2151335E2,-4.3870648E2,-3.5723348E0,-1.344041E2,5.8664223E1,8.393818E1,1.34556E2,1.1023799E2,2.3692497E2,-7.801946E0,-4.0153933E0,-1.243127E2,-1.5340753E2,-6.611458E-1,1.1454766E0,1.4716461E2,7.7429344E1,9.797067E1,1.4401712E2,2.1296194E0,9.117796E1,1.8483832E2,2.6531543E2,-1.877023E0,-1.4330543E0,-2.3026128E0,-1.9763625E0,1.3949817E0,2.920028E0,9.6046454E-1,1.428036E0,1.1233128E0,1.8927851E0,3.8369763E0,2.0266855E0,1.4697715E0,9.392248E-1,2.9878151E0,1.8964081E0,4.149772E0,2.724703E0],"categories":[],"categories_nodes":[],"categories_segments":[],"categories_sizes":[],"default_left":[0,0,0,0,0,0,0,0,0,0,0,0,0,0,0,0,0,0,0,0,0,0,0,0,0,0,0,0,0,0,0,0,0,0,0,0,0,0,0,0,0,0,0,0,0,0,0],"id":23,"left_children":[1,3,5,7,9,11,13,15,-1,17,19,21,23,25,27,-1,-1,29,31,-1,-1,33,35,37,39,-1,41,43,45,-1,-1,-1,-1,-1,-1,-1,-1,-1,-1,-1,-1,-1,-1,-1,-1,-1,-1],"loss_changes":[1.7344837E8,9.25488E6,1.1776576E7,1.138404E6,1.160228E6,2.157108E6,1.644612E6,3.23694E5,0E0,6.0066E5,7.699806E4,1.125508E6,3.96852E5,6.3702875E4,1.189748E6,0E0,0E0,2.97704E5,7.839E4,0E0,0E0,6.847545E5,5.78646E5,1.5272875E5,3.29978E5,0E0,1.220325E4,3.22965E5,8.60584E5,0E0,0E0,0E0,0E0,0E0,0E0,0E0,0E0,0E0,0E0,0E0,0E0,0E0,0E0,0E0,0E0,0E0,0E0],"parents":[2147483647,0,0,1,1,2,2,3,3,4,4,5,5,6,6,7,7,9,9,10,10,11,11,12,12,13,13,14,14,17,17,18,18,21,21,22,22,23,23,24,24,26,26,27,27,28,28],"right_children":[2,4,6,8,10,12,14,16,-1,18,20,22,24,26,28,-1,-1,30,32,-1,-1,34,36,38,40,-1,42,44,46,-1,-1,-1,-1,-1,-1,-1,-1,-1,-1,-1,-1,-1,-1,-1,-1,-1,-1],"split_conditions":[1.7726453E2,1E0,4.7899E2,-2.0417017E-1,3.8009E2,3.9054E2,4.05E2,-2.06E0,-3.5723348E0,1.7968286E0,2.69105E4,-7.983846E-1,3.2365E3,9.82307E1,8.380366E-6,-7.801946E0,-4.0153933E0,1.0147776E-1,1.2281E2,-6.611458E-1,1.1454766E0,2.541544E9,6.2438785E-3,4.5197E2,3.6162447E-2,2.1296194E0,1.4178241E2,5.143737E-1,-4.4843045E-1,-1.877023E0,-1.4330543E0,-2.3026128E0,-1.9763625E0,1.3949817E0,2.920028E0,9.6046454E-1,1.428036E0,1.1233128E0,1.8927851E0,3.8369763E0,2.0266855E0,1.4697715E0,9.392248E-1,2.9878151E0,1.8964081E0,4.149772E0,2.724703E0],"split_indices":[48,66,18,1,42,18,41,43,0,76,4,56,11,49,70,0,0,70,41,0,0,64,70,18,76,0,53,76,56,0,0,0,0,0,0,0,0,0,0,0,0,0,0,0,0,0,0],"split_type":[0,0,0,0,0,0,0,0,0,0,0,0,0,0,0,0,0,0,0,0,0,0,0,0,0,0,0,0,0,0,0,0,0,0,0,0,0,0,0,0,0,0,0,0,0,0,0],"sum_hessian":[9.043745E3,4.0556152E3,4.98813E3,7.1284314E2,3.3427722E3,4.0030955E3,9.850347E2,3.4641937E1,6.7820123E2,3.3123015E3,3.0470665E1,2.7837966E3,1.2192988E3,1.2164465E2,8.633901E2,1.8446987E1,1.6194948E1,2.172454E3,1.1398473E3,4.695468E0,2.5775198E1,2.5614072E2,2.5276558E3,2.54796E2,9.6450287E2,3.6798077E1,8.484657E1,3.0942865E2,5.539614E2,1.746979E3,4.254752E2,8.068078E2,3.330395E2,1.3689223E2,1.19248505E2,1.6931224E3,8.345334E2,1.630957E2,9.170031E1,2.2070696E1,9.424322E2,5.6138687E1,2.8707886E1,2.1376744E2,9.56612E1,4.2310098E2,1.3086041E2],"tree_param":{"num_deleted":"0","num_feature":"78","num_nodes":"47","size_leaf_vector":"1"}},{"base_weights":[-7.6735973E-1,-1.5238766E2,1.21173096E2,-2.5243579E2,-1.2955193E2,9.04346E1,1.9456767E2,-2.4779903E2,-7.8973365E0,-1.3133128E2,1.4266376E0,7.446127E1,1.3106042E2,1.4998553E2,2.4310597E2,-3.9944506E0,-3.4636118E0,-1.20143456E2,-1.504405E2,-3.1029174E0,7.55025E1,1.02252464E2,1.5599231E2,1.3645293E2,2.2150531E2,1.4338968E2,2.5767075E2,-1.8384396E0,-1.2553928E0,-2.2906287E0,-2.004435E0,9.455695E-1,1.3521649E0,1.1101083E0,1.7666764E0,3.0131896E0,1.9998406E0,7.616083E-1,2.0809164E0,3.3647838E0,2.1997697E0,1.2252629E0,2.5210922E0,3.1884975E0,3.9767964E0],"categories":[],"categories_nodes":[],"categories_segments":[],"categories_sizes":[],"default_left":[0,0,0,0,0,0,0,0,0,0,0,0,0,0,0,0,0,0,0,0,0,0,0,0,0,0,0,0,0,0,0,0,0,0,0,0,0,0,0,0,0,0,0,0,0],"id":24,"left_children":[1,3,5,7,9,11,13,15,-1,17,-1,19,21,23,25,-1,-1,27,29,-1,31,33,35,37,39,41,43,-1,-1,-1,-1,-1,-1,-1,-1,-1,-1,-1,-1,-1,-1,-1,-1,-1,-1],"loss_changes":[1.7359693E8,9.502288E6,1.170832E7,8.15076E5,1.411088E6,2.364548E6,3.254004E6,4.5904E4,0E0,6.9076E5,0E0,8.26116E5,7.13252E5,7.23484E5,9.95144E5,0E0,0E0,5.06366E5,7.9646E4,0E0,4.65499E5,2.3149E5,4.5026E5,4.39143E5,3.812E4,1.5215825E5,3.12184E5,0E0,0E0,0E0,0E0,0E0,0E0,0E0,0E0,0E0,0E0,0E0,0E0,0E0,0E0,0E0,0E0,0E0,0E0],"parents":[2147483647,0,0,1,1,2,2,3,3,4,4,5,5,6,6,7,7,9,9,11,11,12,12,13,13,14,14,17,17,18,18,20,20,21,21,22,22,23,23,24,24,25,25,26,26],"right_children":[2,4,6,8,10,12,14,16,-1,18,-1,20,22,24,26,-1,-1,28,30,-1,32,34,36,38,40,42,44,-1,-1,-1,-1,-1,-1,-1,-1,-1,-1,-1,-1,-1,-1,-1,-1,-1,-1],"split_conditions":[1.7726453E2,1E0,4.753537E2,1.3497192E0,2.409307E2,4.9003E2,3.734939E-6,5.768903E-3,-7.8973365E0,1.7789185E0,1.4266376E0,3.79025E3,4.3302763E-4,7.0006E2,1.9780846E9,-3.9944506E0,-3.4636118E0,1.14455394E-1,3.4454442E-4,-3.1029174E0,3.951369E-3,3.079353E-1,1.0586606E2,2.20225E3,3.6994368E-1,2.636E3,5.513E2,-1.8384396E0,-1.2553928E0,-2.2906287E0,-2.004435E0,9.455695E-1,1.3521649E0,1.1101083E0,1.7666764E0,3.0131896E0,1.9998406E0,7.616083E-1,2.0809164E0,3.3647838E0,2.1997697E0,1.2252629E0,2.5210922E0,3.1884975E0,3.9767964E0],"split_indices":[48,66,48,65,52,38,70,68,0,76,0,0,70,38,64,0,0,70,70,0,70,55,53,11,2,3,40,0,0,0,0,0,0,0,0,0,0,0,0,0,0,0,0,0,0],"split_type":[0,0,0,0,0,0,0,0,0,0,0,0,0,0,0,0,0,0,0,0,0,0,0,0,0,0,0,0,0,0,0,0,0,0,0,0,0,0,0,0,0,0,0,0,0],"sum_hessian":[9.385725E3,4.18351E3,5.2022153E3,7.7401276E2,3.4094968E3,3.6694778E3,1.5327373E3,7.6536816E2,8.644627E0,3.3839304E3,2.5566471E1,2.6376023E3,1.0318756E3,8.028257E2,7.299117E2,1.4114546E2,6.2422266E2,2.1427485E3,1.2411819E3,8.09575E0,2.6295066E3,4.830537E2,5.4882196E2,6.7956006E2,1.2326564E2,9.555269E1,6.34359E2,1.7446208E3,3.981276E2,6.95128E2,5.460539E2,1.713874E3,9.156325E2,2.1963545E2,2.6341824E2,1.2933282E2,4.194891E2,6.025746E1,6.193026E2,1.0124905E2,2.2016588E1,3.591092E1,5.9641766E1,2.2025342E2,4.1410556E2],"tree_param":{"num_deleted":"0","num_feature":"78","num_nodes":"45","size_leaf_vector":"1"}},{"base_weights":[-9.589993E-1,-1.4701811E2,1.14842224E2,-1.2846501E2,-3.4835064E0,8.7646774E1,1.850518E2,-1.3610027E2,-9.603697E1,-1.8297516E2,9.000997E1,1.6037807E2,2.3738106E2,-1.5025577E2,-1.2588732E2,1.1413517E2,-1.0402997E2,-1.6478753E0,-3.1768272E0,1.443882E2,8.249148E1,1.3087216E2,1.7782614E2,1.7819237E2,2.6916486E2,-2.1852336E0,-1.4277874E0,-1.9091778E0,-1.699766E0,-5.231691E-1,2.2327998E0,-1.6496223E0,-8.768869E-1,1.046256E0,2.453213E0,9.61768E-1,1.4598114E0,1.5812324E0,2.5021727E0,3.2331953E0,2.1185503E0,2.7302277E0,1.135223E0,4.26898E0,3.0855975E0],"categories":[],"categories_nodes":[],"categories_segments":[],"categories_sizes":[],"default_left":[0,0,0,0,0,0,0,0,0,0,0,0,0,0,0,0,0,0,0,0,0,0,0,0,0,0,0,0,0,0,0,0,0,0,0,0,0,0,0,0,0,0,0,0,0],"id":25,"left_children":[1,3,5,7,-1,9,11,13,15,17,19,21,23,25,27,29,31,-1,-1,33,35,37,39,41,43,-1,-1,-1,-1,-1,-1,-1,-1,-1,-1,-1,-1,-1,-1,-1,-1,-1,-1,-1,-1],"loss_changes":[1.5529195E8,7.078688E6,9.748528E6,8.17688E5,0E0,2.393036E6,1.774348E6,3.62504E5,1.120389E6,3.768875E4,1.47621E6,4.59978E5,7.66E5,5.3768E4,5.5534E4,1.6276734E5,2.718845E5,0E0,0E0,7.98858E5,9.42622E5,2.993805E5,8.11956E5,1.564555E5,3.18784E5,0E0,0E0,0E0,0E0,0E0,0E0,0E0,0E0,0E0,0E0,0E0,0E0,0E0,0E0,0E0,0E0,0E0,0E0,0E0,0E0],"parents":[2147483647,0,0,1,1,2,2,3,3,5,5,6,6,7,7,8,8,9,9,10,10,11,11,12,12,13,13,14,14,15,15,16,16,19,19,20,20,21,21,22,22,23,23,24,24],"right_children":[2,4,6,8,-1,10,12,14,16,18,20,22,24,26,28,30,32,-1,-1,34,36,38,40,42,44,-1,-1,-1,-1,-1,-1,-1,-1,-1,-1,-1,-1,-1,-1,-1,-1,-1,-1,-1,-1],"split_conditions":[6.7968605E1,3.022977E-4,4.3477E2,7.137908E-2,-3.4835064E0,9.38525E3,5.4783E2,7.9167725E1,1.5555E3,1.721167E-1,-7.164227E-1,3.0696567E-6,4.2494E2,1.8509E2,1.652122E6,3.0639077E-2,1.0631E2,-1.6478753E0,-3.1768272E0,3.4570418E4,3.4286E2,8.1045E3,-6.2678826E-1,4.454199E-1,2.43E2,-2.1852336E0,-1.4277874E0,-1.9091778E0,-1.699766E0,-5.231691E-1,2.2327998E0,-1.6496223E0,-8.768869E-1,1.046256E0,2.453213E0,9.61768E-1,1.4598114E0,1.5812324E0,2.5021727E0,3.2331953E0,2.1185503E0,2.7302277E0,1.135223E0,4.26898E0,3.0855975E0],"split_indices":[49,67,18,70,0,12,18,52,47,2,56,70,42,41,59,2,18,0,0,54,18,47,56,2,32,0,0,0,0,0,0,0,0,0,0,0,0,0,0,0,0,0,0,0,0],"split_type":[0,0,0,0,0,0,0,0,0,0,0,0,0,0,0,0,0,0,0,0,0,0,0,0,0,0,0,0,0,0,0,0,0,0,0,0,0,0,0,0,0,0,0,0,0],"sum_hessian":[9.17771E3,4.0583965E3,5.119313E3,3.3972917E3,6.611048E2,3.6929663E3,1.4263467E3,2.7451023E3,6.521895E2,3.0759706E1,3.6622065E3,9.743595E2,4.5198724E2,1.1399772E3,1.6051251E3,2.300457E1,6.2918494E2,1.3483923E1,1.7275784E1,4.4079843E2,3.2214082E3,3.6784836E2,6.065111E2,1.621349E2,2.8985236E2,1.1063157E3,3.3661407E1,8.6023083E2,7.448943E2,4.9513407E0,1.805323E1,5.041721E2,1.2501284E2,1.1857185E2,3.2222656E2,1.758079E3,1.4633291E3,2.5053078E2,1.173176E2,2.3698E2,3.695311E2,1.4413118E2,1.800373E1,1.888822E2,1.00970146E2],"tree_param":{"num_deleted":"0","num_feature":"78","num_nodes":"45","size_leaf_vector":"1"}},{"base_weights":[-1.4198673E0,-1.4866313E2,1.1588869E2,-2.4616042E2,-1.2677245E2,1.8895569E2,8.8900185E1,-3.8718472E2,-3.4137099E0,-1.3166533E2,-7.575078E1,1.5274107E2,2.4797498E2,7.219625E1,1.2827951E2,-4.36118E0,-7.3099833E0,-1.4078104E2,-1.2117933E2,-9.730816E1,1.12415924E2,6.0527626E1,1.6052794E2,2.004407E2,2.8935226E2,-2.9793286E0,7.30541E1,8.6669205E1,1.4136876E2,-2.0987003E0,-1.7707559E0,-1.5942348E0,-1.8549104E0,-1.4610074E0,-6.727295E-1,2.0263386E0,-3.7031394E-1,1.277761E0,5.0589544E-1,1.99189E0,2.702358E0,2.331376E0,3.4167135E0,4.81766E0,3.8042753E0,9.0422755E-1,1.2944945E0,1.0132564E0,1.6857492E0,2.3193982E0,1.6529453E0],"categories":[],"categories_nodes":[],"categories_segments":[],"categories_sizes":[],"default_left":[0,0,0,0,0,0,0,0,0,0,0,0,0,0,0,0,0,0,0,0,0,0,0,0,0,0,0,0,0,0,0,0,0,0,0,0,0,0,0,0,0,0,0,0,0,0,0,0,0,0,0],"id":26,"left_children":[1,3,5,7,9,11,13,15,-1,17,19,21,23,25,27,-1,-1,29,31,33,35,37,39,41,43,-1,45,47,49,-1,-1,-1,-1,-1,-1,-1,-1,-1,-1,-1,-1,-1,-1,-1,-1,-1,-1,-1,-1,-1,-1],"loss_changes":[1.5880144E8,8.643712E6,1.0059816E7,8.06096E5,8.13792E5,2.877296E6,2.443316E6,1.565015E5,0E0,2.59252E5,1.2205271E6,5.99104E5,9.19252E5,6.57036E5,5.8302E5,0E0,0E0,1.0768E5,8.7412E4,4.637475E4,1.2842706E5,4.4253594E4,4.28964E5,2.82081E5,1.5164E5,0E0,4.43291E5,1.19152875E5,4.06322E5,0E0,0E0,0E0,0E0,0E0,0E0,0E0,0E0,0E0,0E0,0E0,0E0,0E0,0E0,0E0,0E0,0E0,0E0,0E0,0E0,0E0,0E0],"parents":[2147483647,0,0,1,1,2,2,3,3,4,4,5,5,6,6,7,7,9,9,10,10,11,11,12,12,13,13,14,14,17,17,18,18,19,19,20,20,21,21,22,22,23,23,24,24,26,26,27,27,28,28],"right_children":[2,4,6,8,10,12,14,16,-1,18,20,22,24,26,28,-1,-1,30,32,34,36,38,40,42,44,-1,46,48,50,-1,-1,-1,-1,-1,-1,-1,-1,-1,-1,-1,-1,-1,-1,-1,-1,-1,-1,-1,-1,-1,-1],"split_conditions":[1.7726453E2,1E0,-7.32088E-1,9.335685E-5,3E0,4.3393E2,3.9054E2,2.07925E4,-3.4137099E0,1.7798E2,4.8475E2,3.7829E2,5.9368485E-5,8.8352844E-2,4.29025E3,-4.36118E0,-7.3099833E0,1.4299E2,5.2101224E-26,1.4991E2,3.098025E4,5.5045E3,3.734939E-6,5.7034E2,4.151225E4,-2.9793286E0,3.32E2,7.2902E5,3.462579E-1,-2.0987003E0,-1.7707559E0,-1.5942348E0,-1.8549104E0,-1.4610074E0,-6.727295E-1,2.0263386E0,-3.7031394E-1,1.277761E0,5.0589544E-1,1.99189E0,2.702358E0,2.331376E0,3.4167135E0,4.81766E0,3.8042753E0,9.0422755E-1,1.2944945E0,1.0132564E0,1.6857492E0,2.3193982E0,1.6529453E0],"split_indices":[48,66,56,68,66,43,18,47,0,44,44,41,70,1,11,0,0,41,67,18,4,47,70,18,45,0,18,63,14,0,0,0,0,0,0,0,0,0,0,0,0,0,0,0,0,0,0,0,0,0,0],"split_type":[0,0,0,0,0,0,0,0,0,0,0,0,0,0,0,0,0,0,0,0,0,0,0,0,0,0,0,0,0,0,0,0,0,0,0,0,0,0,0,0,0,0,0,0,0,0,0,0,0,0,0],"sum_hessian":[9.190026E3,4.0748599E3,5.115167E3,7.437213E2,3.3311387E3,1.376781E3,3.7383857E3,4.1238983E1,7.024823E2,3.0370044E3,2.941342E2,8.5729803E2,5.194829E2,2.628578E3,1.109808E3,2.7979704E1,1.3259281E1,1.6124976E3,1.4245068E3,2.646929E2,2.944126E1,6.8006584E1,7.8929144E2,2.4672769E2,2.7275525E2,6.713288E0,2.6218645E3,2.6890598E2,8.4090204E2,1.257843E3,3.546546E2,6.060245E2,8.1848236E2,2.4325201E2,2.1440903E1,2.4422E1,5.019259E0,3.0113247E1,3.7893337E1,4.384472E2,3.5084427E2,1.2492814E2,1.21799545E2,9.0288994E1,1.8246625E2,1.6296985E3,9.921661E2,1.7862245E2,9.028351E1,4.794358E2,3.6146622E2],"tree_param":{"num_deleted":"0","num_feature":"78","num_nodes":"51","size_leaf_vector":"1"}},{"base_weights":[-1.90636E-1,1.1410422E2,-1.464257E2,9.087971E1,2.0131172E2,-2.4448671E2,-1.2546242E2,-3.2008853E0,9.286679E1,1.7266705E2,2.4633723E2,-3.3629596E0,-3.9298602E2,-1.1478263E2,-1.4427867E2,8.009706E1,1.2816351E2,1.2660773E2,1.8475589E2,1.7980638E2,2.8087567E2,-7.4687414E0,-3.9879906E0,-9.2502815E1,-1.2264849E2,-1.5013261E2,-1.3033165E2,1.1128527E0,3.4173381E0,2.7281504E0,1.7545528E0,2.6119611E0,1.4840602E0,3.0468123E0,2.1017215E0,9.7678787E-1,2.7181287E0,2.2670288E0,4.1770883E0,7.278498E-1,-1.3619252E0,-1.7826272E0,-1.0995233E0,-2.1740117E0,-4.8190928E-1,-2.0234847E0,-1.5094864E0],"categories":[],"categories_nodes":[],"categories_segments":[],"categories_sizes":[],"default_left":[0,0,0,0,0,0,0,0,0,0,0,0,0,0,0,0,0,0,0,0,0,0,0,0,0,0,0,0,0,0,0,0,0,0,0,0,0,0,0,0,0,0,0,0,0,0,0],"id":27,"left_children":[1,3,5,7,9,11,13,-1,15,17,19,-1,21,23,25,27,29,31,33,35,37,-1,-1,39,41,43,45,-1,-1,-1,-1,-1,-1,-1,-1,-1,-1,-1,-1,-1,-1,-1,-1,-1,-1,-1,-1],"loss_changes":[1.5318293E8,1.0385524E7,8.209144E6,2.56648E6,1.315596E6,9.97468E5,6.36116E5,0E0,1.80278E6,3.28256E5,8.63044E5,0E0,4.14826E5,3.5155E5,6.1648E4,1.306094E6,3.77172E5,1.5218075E5,4.8738E5,1.22015E5,2.17242E5,0E0,0E0,1.70176E5,5.9496E4,6.1854E4,6.7736E4,0E0,0E0,0E0,0E0,0E0,0E0,0E0,0E0,0E0,0E0,0E0,0E0,0E0,0E0,0E0,0E0,0E0,0E0,0E0,0E0],"parents":[2147483647,0,0,1,1,2,2,3,3,4,4,5,5,6,6,8,8,9,9,10,10,12,12,13,13,14,14,15,15,16,16,17,17,18,18,19,19,20,20,23,23,24,24,25,25,26,26],"right_children":[2,4,6,8,10,12,14,-1,16,18,20,-1,22,24,26,28,30,32,34,36,38,-1,-1,40,42,44,46,-1,-1,-1,-1,-1,-1,-1,-1,-1,-1,-1,-1,-1,-1,-1,-1,-1,-1,-1,-1],"split_conditions":[8.4314394E-1,5.7151E2,3.806871E-21,7.9605E3,6.6824E2,9.99916E-1,1.7789185E0,-3.2008853E0,4.959E2,3.7885E2,5.6181775E-6,-3.3629596E0,3.5934143E1,7.0496625E-31,1.171E2,6.7997E2,1.0268781E2,-1.1845948E0,5.136893E-1,2.603775E4,4.3531E2,-7.4687414E0,-3.9879906E0,5.351E4,1.14455394E-1,2.0004E2,8.796928E-1,1.1128527E0,3.4173381E0,2.7281504E0,1.7545528E0,2.6119611E0,1.4840602E0,3.0468123E0,2.1017215E0,9.7678787E-1,2.7181287E0,2.2670288E0,4.1770883E0,7.278498E-1,-1.3619252E0,-1.7826272E0,-1.0995233E0,-2.1740117E0,-4.8190928E-1,-2.0234847E0,-1.5094864E0],"split_indices":[76,38,70,0,38,67,76,0,38,42,70,0,49,67,42,40,53,56,76,0,40,0,0,0,70,38,1,0,0,0,0,0,0,0,0,0,0,0,0,0,0,0,0,0,0,0,0],"split_type":[0,0,0,0,0,0,0,0,0,0,0,0,0,0,0,0,0,0,0,0,0,0,0,0,0,0,0,0,0,0,0,0,0,0,0,0,0,0,0,0,0,0,0,0,0,0,0],"sum_hessian":[9.161338E3,5.1424707E3,4.0188672E3,4.0639275E3,1.0785431E3,7.043937E2,3.3144736E3,2.4358492E1,4.0395688E3,6.645837E2,4.139594E2,6.5973474E2,4.465892E1,2.1226685E3,1.1918052E3,2.9707751E3,1.0687938E3,1.4252739E2,5.2205634E2,1.4534036E2,2.6861905E2,1.8446987E1,2.6211933E1,5.599549E2,1.5627135E3,8.2688226E2,3.649229E2,2.92015E3,5.062521E1,9.6360954E1,9.724329E2,3.9326725E1,1.0320065E2,3.048675E2,2.1718883E2,1.1769321E1,1.3357104E2,2.0529196E1,2.4808986E2,7.146551E0,5.5280835E2,1.5248221E3,3.7891365E1,8.211714E2,5.7108946E0,2.5580359E2,1.0911932E2],"tree_param":{"num_deleted":"0","num_feature":"78","num_nodes":"47","size_leaf_vector":"1"}},{"base_weights":[1.0924934E0,-1.4414507E2,1.1446457E2,-1.22915726E2,-2.3670459E2,8.823913E1,1.9125719E2,-1.24071976E2,1.0033369E0,-3.3283389E0,-3.5086105E2,7.888044E1,1.4702516E2,1.5878261E2,2.3620967E2,-1.0323687E2,-1.3052762E2,-3.7164268E0,-6.033363E0,5.3694626E1,9.627874E1,1.0563856E2,1.8322502E2,6.4394424E1,1.6933862E2,2.6445264E2,1.9729932E2,-1.713202E0,-1.1699784E0,-1.9919902E0,-1.7615331E0,-2.9666767E0,7.9911286E-1,1.6007768E0,1.0227716E0,1.0756277E0,1.7030536E0,2.446556E0,4.121222E0,1.029024E0,1.8699704E-1,2.688859E0,2.1240802E0,3.9535403E0,2.180724E0,1.6679252E0,2.9764302E0],"categories":[],"categories_nodes":[],"categories_segments":[],"categories_sizes":[],"default_left":[0,0,0,0,0,0,0,0,0,0,0,0,0,0,0,0,0,0,0,0,0,0,0,0,0,0,0,0,0,0,0,0,0,0,0,0,0,0,0,0,0,0,0,0,0,0,0],"id":28,"left_children":[1,3,5,7,9,11,13,15,-1,-1,17,19,21,23,25,27,29,-1,-1,31,33,35,37,39,41,43,45,-1,-1,-1,-1,-1,-1,-1,-1,-1,-1,-1,-1,-1,-1,-1,-1,-1,-1,-1,-1],"loss_changes":[1.5493664E8,8.05244E6,1.0611648E7,7.63672E5,3.53988E5,2.147828E6,1.892948E6,4.24556E5,0E0,0E0,1.168225E4,1.482606E6,7.72613E5,7.62884E5,5.19786E5,2.5796E5,1.31468E5,0E0,0E0,6.585375E5,7.39304E5,8.33835E4,3.05228E5,2.7867875E4,2.16772E5,2.8157E5,1.39362E5,0E0,0E0,0E0,0E0,0E0,0E0,0E0,0E0,0E0,0E0,0E0,0E0,0E0,0E0,0E0,0E0,0E0,0E0,0E0,0E0],"parents":[2147483647,0,0,1,1,2,2,3,3,4,4,5,5,6,6,7,7,10,10,11,11,12,12,13,13,14,14,15,15,16,16,19,19,20,20,21,21,22,22,23,23,24,24,25,25,26,26],"right_children":[2,4,6,8,10,12,14,16,-1,-1,18,20,22,24,26,28,30,-1,-1,32,34,36,38,40,42,44,46,-1,-1,-1,-1,-1,-1,-1,-1,-1,-1,-1,-1,-1,-1,-1,-1,-1,-1,-1,-1],"split_conditions":[1.7726453E2,3.022977E-4,5.091138E2,2.8937E2,9.99916E-1,4.647195E2,6.052851E2,9.6331745E-1,1.0033369E0,-3.3283389E0,8.082E1,3.71514E2,3.62175E3,3.0635E3,9.410703E-21,1.36E2,1.7039E2,-3.7164268E0,-6.033363E0,4.36625E3,1.0137979E2,-2.5881904E-1,6.8595E2,1.932725E4,3.0210337E-1,1.01845E4,-7.0710677E-1,-1.713202E0,-1.1699784E0,-1.9919902E0,-1.7615331E0,-2.9666767E0,7.9911286E-1,1.6007768E0,1.0227716E0,1.0756277E0,1.7030536E0,2.446556E0,4.121222E0,1.029024E0,1.8699704E-1,2.688859E0,2.1240802E0,3.9535403E0,2.180724E0,1.6679252E0,2.9764302E0],"split_indices":[48,67,17,42,67,48,17,69,0,0,39,17,11,11,67,40,44,0,0,0,49,22,40,3,55,11,23,0,0,0,0,0,0,0,0,0,0,0,0,0,0,0,0,0,0,0,0],"split_type":[0,0,0,0,0,0,0,0,0,0,0,0,0,0,0,0,0,0,0,0,0,0,0,0,0,0,0,0,0,0,0,0,0,0,0,0,0,0,0,0,0,0,0,0,0,0,0],"sum_hessian":[9.405896E3,4.1232397E3,5.2826562E3,3.3574385E3,7.658015E2,3.940773E3,1.3418832E3,3.3380437E3,1.93946E1,7.344575E2,3.1343945E1,3.4032598E3,5.375133E2,7.838799E2,5.580033E2,7.9696875E2,2.541075E3,1.692693E1,1.4417015E1,1.3935017E3,2.009758E3,2.541334E2,2.8337988E2,8.015494E1,7.03725E2,3.1718027E2,2.4082298E2,4.6135516E2,3.3561362E2,1.3013912E3,1.2396838E3,7.960274E0,1.3855414E3,1.2638524E3,7.459057E2,7.6894356E1,1.7723906E2,2.5488687E2,2.849302E1,6.990322E1,1.0251715E1,3.86178E2,3.1754694E2,2.8924026E2,2.7939999E1,2.7058275E1,2.1376471E2],"tree_param":{"num_deleted":"0","num_feature":"78","num_nodes":"47","size_leaf_vector":"1"}},{"base_weights":[1.2521263E-2,-1.4132741E2,1.1165225E2,-2.311066E2,-1.2293259E2,8.746337E1,1.999719E2,-3.2154214E0,-3.7183104E0,-1.3953276E2,-1.1201116E2,-1.5341348E2,8.9721695E1,1.7566035E2,2.5865808E2,-1.4598155E2,-1.2786745E2,-9.710304E1,-1.22226456E2,-2.88555E0,-1.5903211E0,1.4280917E2,7.917107E1,1.19964195E2,1.9408594E2,3.9717767E0,2.22896E2,-2.1098733E0,-1.0787113E0,-1.8898044E0,-1.1106836E0,-1.473333E0,-6.48092E-1,-1.7661731E0,-3.2456285E-1,2.330707E0,1.2059374E0,9.006193E-1,1.4232979E0,1.0260192E0,1.9626416E0,3.075684E0,2.175042E0,1.6948373E0,3.2880855E0],"categories":[],"categories_nodes":[],"categories_segments":[],"categories_sizes":[],"default_left":[0,0,0,0,0,0,0,0,0,0,0,0,0,0,0,0,0,0,0,0,0,0,0,0,0,0,0,0,0,0,0,0,0,0,0,0,0,0,0,0,0,0,0,0,0],"id":29,"left_children":[1,3,5,7,9,11,13,-1,-1,15,17,19,21,23,25,27,29,31,33,-1,-1,35,37,39,41,-1,43,-1,-1,-1,-1,-1,-1,-1,-1,-1,-1,-1,-1,-1,-1,-1,-1,-1,-1],"loss_changes":[1.4681254E8,6.728864E6,1.1073328E7,4.408E4,5.89916E5,2.24671E6,1.509404E6,0E0,0E0,6.7122E4,2.93068E5,3.7399E4,2.246126E6,7.73184E5,8.3676E4,6.386E3,6.3741E4,2.19175E5,3.6156E4,0E0,0E0,7.23729E5,1.093252E6,1.4247725E5,4.374E5,0E0,1.40495E4,0E0,0E0,0E0,0E0,0E0,0E0,0E0,0E0,0E0,0E0,0E0,0E0,0E0,0E0,0E0,0E0,0E0,0E0],"parents":[2147483647,0,0,1,1,2,2,3,3,4,4,5,5,6,6,9,9,10,10,11,11,12,12,13,13,14,14,15,15,16,16,17,17,18,18,21,21,22,22,23,23,24,24,26,26],"right_children":[2,4,6,8,10,12,14,-1,-1,16,18,20,22,24,26,28,30,32,34,-1,-1,36,38,40,42,-1,44,-1,-1,-1,-1,-1,-1,-1,-1,-1,-1,-1,-1,-1,-1,-1,-1,-1,-1],"split_conditions":[6.7968605E1,1E0,5.362164E2,9.928064E-1,8.1372116E1,2.7442E2,6.681962E2,-3.2154214E0,-3.7183104E0,1.3548635E-3,1.4788236E-28,1.2504809E-1,-7.768092E-1,3.550075E4,4.35725E3,4.7203023E4,1.4991E2,2.7442E2,2.4021185E2,-2.88555E0,-1.5903211E0,1.3706049E2,4.00344E2,2.27525E3,-7.485108E-1,3.9717767E0,8.1625E3,-2.1098733E0,-1.0787113E0,-1.8898044E0,-1.1106836E0,-1.473333E0,-6.48092E-1,-1.7661731E0,-3.2456285E-1,2.330707E0,1.2059374E0,9.006193E-1,1.4232979E0,1.0260192E0,1.9626416E0,3.075684E0,2.175042E0,1.6948373E0,3.2880855E0],"split_indices":[49,66,17,67,52,50,17,0,0,70,67,1,56,46,60,7,43,50,17,0,0,49,17,11,28,0,3,0,0,0,0,0,0,0,0,0,0,0,0,0,0,0,0,0,0],"split_type":[0,0,0,0,0,0,0,0,0,0,0,0,0,0,0,0,0,0,0,0,0,0,0,0,0,0,0,0,0,0,0,0,0,0,0,0,0,0,0,0,0,0,0,0,0],"sum_hessian":[9.300554E3,4.1041123E3,5.196442E3,6.943024E2,3.4098098E3,4.082085E3,1.1143569E3,5.488627E2,1.4543982E2,1.3445715E3,2.0652383E3,3.67789E1,4.0453062E3,7.931043E2,3.2125262E2,8.5232983E2,4.9224164E2,8.4754895E2,1.2176893E3,1.4417638E1,2.2361263E1,6.668745E2,3.3784316E3,2.0056876E2,5.925356E2,2.0956087E2,1.11691765E2,8.4521875E2,7.111102E0,4.596829E2,3.255872E1,7.6986975E2,7.76792E1,1.2131436E3,4.545768E0,5.027139E2,1.6416064E2,1.8297454E3,1.5486862E3,5.255996E1,1.4800879E2,4.0406454E2,1.8847102E2,7.37116E0,1.043206E2],"tree_param":{"num_deleted":"0","num_feature":"78","num_nodes":"45","size_leaf_vector":"1"}},{"base_weights":[2.844148E0,-1.3831921E2,1.1347835E2,-2.362536E2,-1.1653129E2,9.020105E1,2.0733943E2,-2.2748082E2,-7.2279625E0,-4.645262E1,-1.21389626E2,7.95438E1,1.4352136E2,1.7211977E2,2.4223175E2,-3.6721945E0,-3.1681852E0,9.1383575E1,-9.191581E1,-1.2681793E2,-8.90188E1,5.3574436E1,9.5471344E1,1.0309739E2,1.7301624E2,2.5078062E2,1.6027142E2,2.6527502E2,1.8490727E2,1.9357874E0,3.7501854E-1,-1.8138607E0,-9.8895365E-1,-1.9159147E0,-1.6602875E0,-1.6494635E0,-1.1067466E0,-3.0817287E0,8.100578E-1,1.5896424E0,1.128286E0,7.1341926E-1,1.6597642E0,1.8951544E0,2.9075134E0,2.560508E0,4.508951E0,2.686536E0,1.9729607E0,2.1710224E0,3.9488678E0,1.7294478E0,2.9081259E0],"categories":[],"categories_nodes":[],"categories_segments":[],"categories_sizes":[],"default_left":[0,0,0,0,0,0,0,0,0,0,0,0,0,0,0,0,0,0,0,0,0,0,0,0,0,0,0,0,0,0,0,0,0,0,0,0,0,0,0,0,0,0,0,0,0,0,0,0,0,0,0,0,0],"id":30,"left_children":[1,3,5,7,9,11,13,15,-1,17,19,21,23,25,27,-1,-1,29,31,33,35,37,39,41,43,45,47,49,51,-1,-1,-1,-1,-1,-1,-1,-1,-1,-1,-1,-1,-1,-1,-1,-1,-1,-1,-1,-1,-1,-1,-1,-1],"loss_changes":[1.437804E8,8.580984E6,1.1242296E7,1.500776E6,1.11748E6,2.331012E6,1.182384E6,4.642E4,0E0,1.3797052E6,5.23472E5,1.419108E6,7.8667E5,4.07421E5,5.83976E5,0E0,0E0,1.4775512E5,1.14370125E5,1.60512E5,1.2404275E5,9.51976E5,5.29248E5,1.801955E5,4.22309E5,1.90332E5,2.30445E5,2.85528E5,1.22716E5,0E0,0E0,0E0,0E0,0E0,0E0,0E0,0E0,0E0,0E0,0E0,0E0,0E0,0E0,0E0,0E0,0E0,0E0,0E0,0E0,0E0,0E0,0E0,0E0],"parents":[2147483647,0,0,1,1,2,2,3,3,4,4,5,5,6,6,7,7,9,9,10,10,11,11,12,12,13,13,14,14,17,17,18,18,19,19,20,20,21,21,22,22,23,23,24,24,25,25,26,26,27,27,28,28],"right_children":[2,4,6,8,10,12,14,16,-1,18,20,22,24,26,28,-1,-1,30,32,34,36,38,40,42,44,46,48,50,52,-1,-1,-1,-1,-1,-1,-1,-1,-1,-1,-1,-1,-1,-1,-1,-1,-1,-1,-1,-1,-1,-1,-1,-1],"split_conditions":[1.7726453E2,1E0,5.362164E2,1.3497192E0,-9.350162E-1,4.647195E2,6.2443445E2,5.768903E-3,-7.2279625E0,2.8170079E-24,1.3572127E2,3.17E2,3.7385E3,-1.5388999E0,4.35725E3,-3.6721945E0,-3.1681852E0,5.0104544E-2,4.872375E4,2.0367E2,1.0021E4,3.79025E3,9.993009E-1,2.455E3,5.1329E2,4.050025E4,4.4440207E-1,4.5491E2,5.847328E-1,1.9357874E0,3.7501854E-1,-1.8138607E0,-9.8895365E-1,-1.9159147E0,-1.6602875E0,-1.6494635E0,-1.1067466E0,-3.0817287E0,8.100578E-1,1.5896424E0,1.128286E0,7.1341926E-1,1.6597642E0,1.8951544E0,2.9075134E0,2.560508E0,4.508951E0,2.686536E0,1.9729607E0,2.1710224E0,3.9488678E0,1.7294478E0,2.9081259E0],"split_indices":[48,66,17,65,28,48,17,68,0,68,17,18,11,56,60,0,0,20,0,44,11,0,69,11,40,0,8,40,1,0,0,0,0,0,0,0,0,0,0,0,0,0,0,0,0,0,0,0,0,0,0,0,0],"split_type":[0,0,0,0,0,0,0,0,0,0,0,0,0,0,0,0,0,0,0,0,0,0,0,0,0,0,0,0,0,0,0,0,0,0,0,0,0,0,0,0,0,0,0,0,0,0,0,0,0,0,0,0,0],"sum_hessian":[9.202703E3,4.0432598E3,5.159444E3,7.32546E2,3.3107136E3,4.137052E3,1.0223917E3,7.1238806E2,2.0157982E1,2.1589465E2,3.094819E3,3.451709E3,6.85343E2,5.1420795E2,5.0818372E2,1.4230292E2,5.7008514E2,5.308898E1,1.6280568E2,2.6458032E3,4.490157E2,1.3152383E3,2.1364707E3,2.9257648E2,3.9276654E2,6.248685E1,4.5172113E2,3.5774454E2,1.504392E2,3.087033E1,2.2218649E1,6.2948036E1,9.985764E1,1.71767E3,9.2813324E2,1.4066139E2,3.083543E2,1.1428442E1,1.3038098E3,1.1406245E3,9.958461E2,5.5550472E1,2.3702599E2,1.6492532E2,2.2784123E2,3.1951855E1,3.0534996E1,2.0703079E2,2.4469032E2,2.7766571E1,3.2997797E2,3.415382E1,1.1628537E2],"tree_param":{"num_deleted":"0","num_feature":"78","num_nodes":"53","size_leaf_vector":"1"}},{"base_weights":[-1.8805268E0,1.0778164E2,-1.3612267E2,8.627225E1,1.960484E2,-1.1740336E2,-2.256727E2,-3.0827532E0,8.8654335E1,1.20371445E2,2.1111008E2,-1.0597368E2,-1.362995E2,-3.8187137E0,-3.1321273E0,6.7633575E1,1.0887698E2,1.3823448E2,6.039705E1,2.3049649E2,1.637747E2,-7.357058E1,-1.1478881E2,-1.3960825E2,-1.1403722E2,9.2588264E-1,2.857737E0,2.5799043E0,1.4999509E0,2.0512404E0,2.9224238E-1,1.1042855E0,7.0829976E-1,2.6516461E0,3.86992E0,1.5795432E0,2.601237E0,1.6347502E0,-1.2066537E0,-1.685775E0,-1.310177E0,-2.0877125E0,-1.8723919E0,-1.6797545E0,-4.1386595E-1],"categories":[],"categories_nodes":[],"categories_segments":[],"categories_sizes":[],"default_left":[0,0,0,0,0,0,0,0,0,0,0,0,0,0,0,0,0,0,0,0,0,0,0,0,0,0,0,0,0,0,0,0,0,0,0,0,0,0,0,0,0,0,0,0,0],"id":31,"left_children":[1,3,5,7,9,11,13,-1,15,17,19,21,23,-1,-1,25,27,29,31,33,35,37,39,41,43,-1,-1,-1,-1,-1,-1,-1,-1,-1,-1,-1,-1,-1,-1,-1,-1,-1,-1,-1,-1],"loss_changes":[1.3642147E8,9.652568E6,6.935912E6,2.9697E6,1.090972E6,7.18672E5,1.29596E5,0E0,1.718062E6,1.6673E5,6.92476E5,6.00916E5,6.617E4,0E0,0E0,8.61248E5,6.62022E5,5.75295E4,8.074219E2,9.43248E5,1.88142E5,9.044875E5,6.9326E4,2.2558E4,3.217E4,0E0,0E0,0E0,0E0,0E0,0E0,0E0,0E0,0E0,0E0,0E0,0E0,0E0,0E0,0E0,0E0,0E0,0E0,0E0,0E0],"parents":[2147483647,0,0,1,1,2,2,3,3,4,4,5,5,6,6,8,8,9,9,10,10,11,11,12,12,15,15,16,16,17,17,18,18,19,19,20,20,21,21,22,22,23,23,24,24],"right_children":[2,4,6,8,10,12,14,-1,16,18,20,22,24,-1,-1,26,28,30,32,34,36,38,40,42,44,-1,-1,-1,-1,-1,-1,-1,-1,-1,-1,-1,-1,-1,-1,-1,-1,-1,-1,-1,-1],"split_conditions":[8.4314394E-1,5.362164E2,3.022977E-4,1.6228184E-1,4.489E2,1.7789185E0,3.2760808E-3,-3.0827532E0,4.00344E2,1.3559448E2,5.143737E-1,2.8170079E-24,1.4147E2,-3.8187137E0,-3.1321273E0,6.4606E2,2.95955E4,1.287775E4,4.5416117E4,4.4266E2,1.188925E4,1.105625E4,8.814E1,1.0559E2,1.6926405E2,9.2588264E-1,2.857737E0,2.5799043E0,1.4999509E0,2.0512404E0,2.9224238E-1,1.1042855E0,7.0829976E-1,2.6516461E0,3.86992E0,1.5795432E0,2.601237E0,1.6347502E0,-1.2066537E0,-1.685775E0,-1.310177E0,-2.0877125E0,-1.8723919E0,-1.6797545E0,-4.1386595E-1],"split_indices":[76,17,67,1,41,76,68,0,17,49,76,68,41,0,0,40,45,60,7,42,12,12,18,42,17,0,0,0,0,0,0,0,0,0,0,0,0,0,0,0,0,0,0,0,0],"split_type":[0,0,0,0,0,0,0,0,0,0,0,0,0,0,0,0,0,0,0,0,0,0,0,0,0,0,0,0,0,0,0,0,0,0,0,0,0,0,0,0,0,0,0,0,0],"sum_hessian":[9.263305E3,5.0986147E3,4.1646904E3,4.1025063E3,9.961085E2,3.4481282E3,7.16562E2,3.1018383E1,4.071488E3,1.6807361E2,8.280349E2,2.1560735E3,1.2920547E3,1.1520541E2,6.013566E2,2.0002473E3,2.0712407E3,1.2766248E2,4.0411125E1,5.824246E2,2.4561028E2,4.6476547E2,1.6913081E3,1.1164763E3,1.7557837E2,1.9524617E3,4.7785587E1,1.2802621E2,1.9432144E3,1.2299388E2,4.668602E0,1.2180104E1,2.8231022E1,2.6700607E2,3.1541858E2,6.1251865E1,1.8435841E2,2.300457E1,4.417609E2,1.5421895E3,1.4911867E2,7.0609955E2,4.1037677E2,1.6986746E2,5.7108946E0],"tree_param":{"num_deleted":"0","num_feature":"78","num_nodes":"45","size_leaf_vector":"1"}},{"base_weights":[-6.999456E-1,-1.3505171E2,1.07956696E2,-2.2717621E2,-1.1504559E2,8.260598E1,1.7427338E2,-4.424522E2,-3.1397312E0,1.1903055E0,-1.1654345E2,6.688755E1,1.1640107E2,1.27562515E2,2.2232887E2,-7.082013E0,-3.264615E0,-1.0581614E2,-1.3432275E2,-2.8597357E0,6.785905E1,8.972595E1,1.4212173E2,4.824591E1,1.3848717E2,2.3247322E2,2.0326617E0,-5.0341964E-2,-1.559832E0,-1.9802194E0,-1.6501606E0,7.6835036E-1,1.1843334E0,1.9088392E0,1.1458933E0,2.8261747E0,1.8484032E0,2.9190087E-1,9.0005386E-1,1.8943473E0,3.23453E0,